309 309
102100 0.0 0.2284390625241946 0.0 0.0 0.0 0.0 0.2102541449680652 0.5165187116393196 0.0 0.0 0.0 0.0 0.0 0.0 0.0 0.0 0.0 0.0 0.38930075150906784 0.22680132854879606 0.29766759279784843 0.3054240807189095 0.0 0.0 0.0 0.0 0.0 0.0 0.0 0.0 0.0 0.0 0.0 0.0 0.0 0.0 0.0 0.0 0.0 0.0 0.0 0.0 0.0 0.0 0.0 0.0 0.0 0.0 0.0 0.0 0.0 0.0 0.0 0.0 0.0 0.0 0.0 0.3040264385942531 0.0 0.0 0.0 0.0 0.0 0.0 0.0 0.0 0.0 0.21028997521210813 0.0 0.0 0.0 0.0 0.0 0.0 0.0 0.0 0.4928358084274342 0.0 0.0 0.0 0.0 0.0 0.0 0.0 0.0 0.0 0.0 0.0 0.0 0.0 0.0 0.2434669623120403 0.0 0.0 0.0 0.0 0.0 0.4639786168321909 0.4666860582362417 0.0 0.0 0.0 0.0 0.0 0.0 0.0 0.0 0.0 0.0 0.0 0.0 0.4121471006598845 0.0 0.0 0.0 0.0 0.34922098346793395 0.0 0.0 0.0 0.0 0.0 0.0 0.0 0.0 0.0 0.0 0.0 0.0 0.0 0.0 0.0 0.0 0.0 0.0 0.4578826877930231 0.0 0.0 0.0 0.0 0.0 0.0 0.0 0.0 0.0 0.20959072100986006 0.29680855971464376 0.2903833242805955 0.0 0.0 0.0 0.0 0.0 0.0 0.0 0.0 0.0 0.0 0.0 0.0 0.0 0.0 0.16275334894982896 0.2676507674778143 0.0 0.0 0.0 0.0 0.0 0.0 0.0 0.0 0.0 0.0 0.0 0.0 0.0 0.0 0.0 0.0 0.0 0.0 0.0 0.0 0.19994336006309887 0.0 0.0 0.0 0.23137790469218425 0.0 0.0 0.0 0.3736421023973689 0.2873434174642331 0.0 0.14154506237055153 0.0 0.0 0.3628691104282808 0.0 0.0 0.0 0.0 0.0 0.22895904679741114 0.0 0.0 0.0 0.0 0.0 0.0 0.0 0.0 0.0 0.0 0.18990030006942216 0.0 0.0 0.0 0.0 0.0 0.0 0.0 0.0 0.0 0.0 0.0 0.0 0.27121915124968043 0.2297307883006247 0.0 0.0 0.0 0.2894979493379603 0.0 0.0 0.0 0.0 0.0 0.21439614624239905 0.0 0.0 0.0 0.0 0.0 0.0 0.0 0.0 0.0 0.0 0.16385236722070398 0.0 0.0 0.0 0.0 0.0 0.0 0.0 0.0 0.0 0.0 0.0 0.0 0.0 0.0 0.0 0.0 0.0 0.0 0.0 0.0 0.0 0.0 0.0 0.0 0.0 0.2755292351166293 0.2649116539231915 0.0 0.0 0.0 0.0 0.0 0.0 0.0 0.0 0.0 0.0 0.0 0.0 0.0 0.0 0.0 0.0 0.0 0.0 0.0 0.0 0.0 0.0 0.0 0.0 0.15400595964998676 0.21400836353899105 0.21713873163011155 0.2740318226436047 0.0 0.0 0.0
102300 0.0 0.0 0.0 0.0 0.0 0.0 0.0 0.32691766692650226 0.0 0.0 0.0 0.0 0.0 0.0 0.0 0.0 0.0 0.0 0.0 0.0 0.0 0.0 0.0 0.0 0.0 0.0 0.0 0.0 0.0 0.0 0.0 0.0 0.0 0.0 0.0 0.0 0.0 0.0 0.0 0.0 0.0 0.0 0.0 0.0 0.0 0.0 0.0 0.0 0.0 0.0 0.0 0.0 0.0 0.0 0.0 0.0 0.0 0.2654194600744295 0.0 0.0 0.0 0.0 0.0 0.0 0.0 0.0 0.0 0.0 0.0 0.0 0.0 0.0 0.0 0.0 0.0 0.0 0.0 0.0 0.0 0.0 0.0 0.0 0.0 0.0 0.0 0.0 0.0 0.0 0.0 0.0 0.0 0.0 0.0 0.0 0.0 0.0 0.0 0.24411889195789466 0.4070147041866325 0.0 0.0 0.0 0.0 0.0 0.0 0.0 0.0 0.0 0.0 0.0 0.0 0.0 0.0 0.0 0.0 0.0 0.6396263575858967 0.0 0.0 0.0 0.0 0.0 0.0 0.0 0.0 0.0 0.0 0.0 0.0 0.0 0.0 0.0 0.0 0.0 0.0 0.0 0.0 0.0 0.0 0.0 0.0 0.0 0.0 0.0 0.0 0.0 0.0 0.6092941816599454 0.0 0.0 0.0 0.0 0.0 0.0 0.0 0.0 0.0 0.0 0.0 0.0 0.0 0.0 0.0 0.0 0.0 0.0 0.0 0.0 0.0 0.0 0.0 0.0 0.0 0.0 0.0 0.0 0.0 0.0 0.0 0.0 0.0 0.0 0.0 0.0 0.24985132763799084 0.0 0.0 0.0 0.0 0.0 0.0 0.0 0.0 0.24987817487696026 0.0 0.0 0.0 0.0 0.0 0.0 0.0 0.0 0.0 0.0 0.0 0.0 0.0 0.0 0.0 0.0 0.0 0.0 0.0 0.0 0.0 0.5057473096538664 0.0 0.0 0.0 0.0 0.0 0.0 0.0 0.0 0.0 0.0 0.0 0.0 0.37936037306655374 0.0 0.0 0.0 0.0 0.4471823438929789 0.0 0.0 0.0 0.0 0.0 0.0 0.0 0.0 0.0 0.0 0.0 0.0 0.0 0.0 0.0 0.0 0.0 0.0 0.0 0.0 0.0 0.0 0.0 0.0 0.0 0.0 0.0 0.0 0.0 0.0 0.0 0.0 0.0 0.0 0.0 0.0 0.0 0.0 0.0 0.0 0.0 0.0 0.3894488630356824 0.397914872321912 0.0 0.0 0.0 0.0 0.0 0.0 0.0 0.0 0.0 0.0 0.0 0.0 0.0 0.0 0.0 0.0 0.0 0.0 0.0 0.0 0.0 0.0 0.0 0.0 0.0 0.0 0.0 0.488979416727793 0.0 0.0 0.0
102400 0.4201895003070728 0.2912387842053639 0.4645884889602489 0.3348538423313199 0.08373168203507972 0.2573299075306668 0.2734898924999878 0.4847952149995281 0.2107903210176324 0.2562122432865132 0.25524049793596937 0.41575956118227897 0.2770574381197705 0.2943708989246059 0.4128544814762293 0.4128544814762293 0.2008418606475476 0.374107149585951 0.4545561598199614 0.2897929568138912 0.3618122202814628 0.2492917938622001 0.30675926004834064 0.41367111381428856 0.3438242172087651 0.2141482924636722 0.3171720786068806 0.4089704913746456 0.3360461448325248 0.3188229970875883 0.29643433931028024 0.4257789500785419 0.37732888916846097 0.3343752279142127 0.4131821588533448 0.3356510277585487 0.4116916528146469 0.16533129879426628 0.4803604998966478 0.2448961937175764 0.22422335713887886 0.2899526516608698 0.4918817489755095 0.29504958783438723 0.34082819825616484 0.5056371633075186 0.5350978000534246 0.4400141966422227 0.5147838002036509 0.4246031204495589 0.294667236730088 0.3375986259550704 0.3342605435157898 0.3406272364031581 0.36015925186179315 0.3342605435157898 0.3343752279142127 0.2720758697020856 0.3338654264418137 0.2296005390334017 0.29630440798936497 0.3344098480005199 0.33481906369325265 0.3338654264418137 0.3358021462458469 0.516462285924524 0.30802533758341605 0.2137743173200653 0.3343752279142127 0.24768577696862465 0.2280734456694247 0.27185392205755704 0.5873276904614735 0.2556234971219379 0.2821335351711562 0.4124174566447463 0.4159955506464863 0.2097552349032804 0.2743868162076606 0.2152763550926056 0.2543180816582996 0.2117394675638156 0.33667878608890844 0.4249071304624117 0.2299237762761753 0.295575901117036 0.4257789500785419 0.2989265059153777 0.4128544814762293 0.4836737759893317 0.43950439516982376 0.2865451943441252 0.33459367949895635 0.2667768273095938 0.2453891231680268 0.2348522864170718 0.2253058785714062 0.2512598407534238 0.41367111381428856 0.3969033222813121 0.2981648232446981 0.2464302484841301 0.2940958811885993 0.452064607810496 0.09723424429358253 0.4814951268839013 0.3347590086034837 0.38208988886189 0.25565838365915017 0.2960727519016152 0.3504901882139752 0.5446636265365241 0.54390820285714 0.6570611636858623 0.2502598565697145 0.311160811716344 0.4131821588533448 0.3152070154638586 0.23426979062037964 0.3342605435157898 0.2092703772098199 0.24395040845092225 0.27376684838751 0.3194454861998013 0.3345518934034452 0.3349411672257696 0.5460121515845326 0.4397957450574792 0.2963918282342207 0.4838068091261736 0.3706306752194525 0.2731033287384345 0.2761797088413873 0.4249071304624117 0.2739737682785648 0.4124174566447463 0.414910220899494 0.25703442454980857 0.251633181576162 0.3754500017502457 0.29811894152367874 0.3798172548162315 0.3423503588955992 0.3350495305573881 0.22274325651741086 0.3984584453523027 0.2740200329746801 0.3484313771367184 0.19581170084426136 0.4271832471138045 0.4124174566447463 0.3268782718154745 0.45477467223570295 0.2199590473657389 0.2470080029655169 0.27709286706849195 0.290531829164116 0.22240361246715126 0.2589154153659537 0.4349680283026097 0.2791478229721827 0.2466256518612176 0.2106863846083 0.22679548553052656 0.396019846248646 0.2412833038563049 0.4684757573921015 0.214049825340146 0.33871973335965905 0.27921886702014503 0.16846910389133726 0.29132582870027657 0.38941557636451785 0.3250827143583534 0.2927135021293837 0.232476165441992 0.2306059555371151 0.21624394862352134 0.22654555520806224 0.20736883173464546 0.20184328843828367 0.25336840347324785 0.2524886668667251 0.2276791976407748 0.24910977232186565 0.2254045228772683 0.2867934927409549 0.2811278612947171 0.1843696133880055 0.24757135087627474 0.18762593667373925 0.24599882327644645 0.3575124175826421 0.24922805937350925 0.3571771046966725 0.1896941754002594 0.3571771046966725 0.21552329699693012 0.3763832528154963 0.24757135087627474 0.4693186395683218 0.2800013789937733 0.2372375367765017 0.317471673921912 0.2791478229721827 0.2211120722036249 0.23428951512382384 0.3274783144763066 0.1917516263854608 0.2283595794464805 0.06192706807265986 0.2766219818658049 0.27580070357838393 0.2993765075550799 0.21026594971356785 0.17882782919468992 0.4281014909924301 0.3717343709208468 0.17772891274782146 0.3637330231201688 0.3182651908405151 0.5011923844597073 0.18280813516470829 0.2370152945750167 0.21582121137273003 0.4112471297149264 0.2419913633902537 0.3386769535386653 0.2279663662910389 0.2797207373833802 0.2100290604480881 0.3448572368795816 0.2833184217576157 0.3408744551979345 0.17891556469995742 0.3551045534403692 0.21392633220357746 0.18471621742868416 0.1840674768077651 0.17856213776412544 0.2279527082758338 0.4575629144075637 0.2476844018173175 0.2275043877081815 0.17882519174579792 0.3338968800524095 0.27517094572533296 0.3972303834402746 0.1980107087820792 0.2414465874794237 0.2046858326364553 0.3493638362018322 0.20585611948092708 0.2260336413117472 0.15454907648950178 0.2072746968372436 0.35348764342690164 0.2144175398533382 0.5523186414872587 0.4071395573559432 0.05101999575269893 0.22183748117996066 0.43949151213097903 0.4128544814762293 0.05214286590860853 0.2552295293878426 0.4386049723200899 0.4418068055742776 0.4124174566447463 0.21095815311748947 0.057333623686041786 0.3428401584607222 0.24684416427695915 0.4400141966422227 0.35837426795184124 0.4124174566447463 0.4574023408303339 0.5866475306283727 0.2713056596321088 0.2060090071890815 0.19218158600203733 0.34194060272951776 0.2814594668590313 0.3773996796641517 0.2568774482574793 0.4181890506186191 0.42158346491366266 0.2424450630288995 0.4003177418399796 0.2653049682092477 0.2464302484841301 0.2876830657272165 0.2468619524896704 0.2464302484841301 0.23102109180167096 0.3109372589562201 0.29628429501499515 0.27251078017003205 0.4071395573559432 0.4756954726475332 0.19445213542226905 0.4529261468578644 0.3585652576005789 0.230015129826572 0.35316825073309044 0.5541042428039937 0.3322421806244379 0.3109372589562201 0.4128544814762293
102500 0.43239430579663707 0.25737112726839984 0.0 0.26695220953539817 0.221382437642564 0.4270795387239448 0.2630574512113802 0.4393276034857337 0.18439558756228167 0.41601006547096775 0.3266872173664769 0.3048764341354412 0.4173013912693452 0.3714512363796405 0.3019713544293915 0.3939386938879548 0.4323037069039857 0.2277458981517612 0.34367303277312355 0.3709221487709083 0.35626751152960817 0.3673290092766648 0.2890647641942617 0.4405277213514068 0.326606743939416 0.5323993958627823 0.5008424795894733 0.25946514209348825 0.308520993420112 0.28177715735299724 0.29800019063182537 0.4442576028309699 0.5222955381746307 0.28783062710953056 0.3022990318065069 0.22476790071171088 0.15470899235958832 0.23857361422353635 0.4896791902905849 0.2476709544014271 0.3840091531878623 0.3005207659028913 0.5161082025445671 0.18416646078754945 0.3259304260137637 0.2964237938094751 0.2624558169585697 0.3946274963296738 0.3886045575424029 0.33250304083966103 0.26593620808646834 0.2267154989082326 0.223377416468952 0.3814556818753213 0.3309446780116567 0.483400972851649 0.32847483868421185 0.4816272545789279 0.4256280297349085 0.2229973186036941 0.23884949322809984 0.22352672095368206 0.3301109833709218 0.2229822993949759 0.22491901919900906 0.4099371925498726 0.3510812495766805 0.2313668069520799 0.3018980772162357 0.233558099527596 0.415951762360464 0.34724786566678645 0.413170550417118 0.1447403700751001 0.35415136016793297 0.5146025311491272 0.408889466805873 0.0 0.279767484751916 0.17792637010235385 0.3985752116909188 0.3653576104539757 0.26705010664774204 0.3146934471085169 0.0 0.0 0.0 0.2427365756502732 0.44690306694522064 0.5086418150628794 0.4131257434129744 0.211079394326448 0.0 0.26898327111549536 0.13450599612118902 0.13597303341007014 0.2917289090169725 0.2409373070501961 0.3960816469267541 0.3730693159799864 0.3483058240791564 0.2725867091232915 0.0 0.5350361009238825 0.2653871725234166 0.2307586183947851 0.22387588155664592 0.2831478359077946 0.2420578000655877 0.3340724896214872 0.2830218062980201 0.42180050881267467 0.5305616663257162 0.5903530636733056 0.3695938035851373 0.2969810806610935 0.3621412506661553 0.2659549086331181 0.27651301602917244 0.223377416468952 0.2815573649851698 0.3764544166442706 0.4141073043753944 0.3497297440829437 0.39746213310750456 0.4195896289719268 0.5131804949063581 0.43251861187345797 0.2741072160487592 0.4106073638173937 0.4003283787234804 0.3903994902044925 0.32717522320731085 0.3146934471085169 0.2402001017896305 0.3887631026599978 0.0 0.18930738671697628 0.4156944411935729 0.3261599343460421 0.18723581447684093 0.16530475613455262 0.0 0.5183384361830173 0.2593080296523368 0.233220865857547 0.3007382188231095 0.34974493651417604 0.3742539181629304 0.4567122618280706 0.4225370534571079 0.3324829264273215 0.4194965464680959 0.2851361193804415 0.20825866885646965 0.25591499871460544 0.20194238876358164 0.13297324358969753 0.4630398783859302 0.4310553084488049 0.25708717687668786 0.280148749119654 0.2532678483626679 0.3973071632973286 0.0 0.33742340265448484 0.3575926303452637 0.2502880925853225 0.4478841534019986 0.2776093792805537 0.2301657905704358 0.1664971206883341 0.0 0.19389303763783475 0.0 0.2258873211582084 0.27453192205160915 0.2419335854965512 0.3908900270936401 0.1840369593968272 0.19920537400776728 0.4264248477071688 0.4799259550871938 0.3418418832893557 0.15984582990944132 0.193759989958114 0.3799534142204724 0.2907131629398418 0.29566553621119485 0.15814098199882098 0.3750548926606121 0.15656845439899272 0.34383589381642965 0.28679198481393 0.2685876642961382 0.2109245472859264 0.2685876642961382 0.3741351158797408 0.40399736863459534 0.24297270258734305 0.359104956214427 0.3078483893072682 0.3315149090424714 0.5993511217389287 0.18971745409472893 0.34076214572303354 0.3073529420287184 0.32328770838876203 0.25880529304666783 0.24014505369479405 0.20855327778440533 0.26584780335345776 0.18713801362998486 0.2749314440887369 0.2467543167293278 0.19723666963185546 0.32647565127432165 0.40444108663779055 0.3611461875423268 0.5909455201411254 0.2187780845995642 0.4639398274415955 0.3280170682852316 0.1965053383282061 0.26835329128364593 0.541112446795486 0.21443193100503807 0.3102802053976842 0.37678998263592056 0.26598856927276954 0.44276101739148505 0.2554268680021278 0.24393582356265806 0.2514440863204808 0.0 0.30074537603405405 0.30872185958036524 0.3333095521169569 0.3348753045686775 0.2440599819016825 0.2885154876555047 0.4841584312903222 0.2928987394866819 0.4612560989669003 0.2427456309230217 0.5852301422509048 0.3505499300719684 0.2308946884544573 0.0 0.1727721075774368 0.2537097618864067 0.5722040765495746 0.33192888671470844 0.24822442585492266 0.3431787999510517 0.0 0.32130731393566303 0.24165504599421864 0.0 0.0 0.2777122852424123 0.2287370956974805 0.16105383611280438 0.4686380640056737 0.2415376010062353 0.3035363887407691 0.3277218452732521 0.4463560272890738 0.4073829022895128 0.22112567312189446 0.2695703912155035 0.33600247665805866 0.18925994722153172 0.3291310695953849 0.3261614451732521 0.30153432959790843 0.23774300116408226 0.4980938984019646 0.25874963554025765 0.3012697997067425 0.24137082424157585 0.352902107673128 0.2791906961421423 0.1931949200308211 0.2915344797365091 0.2835806472643541 0.32282183939011444 0.3664303010755697 0.3186965119578712 0.21010169003492146 0.2725867091232915 0.2709700001296458 0.2743198574671675 0.2725867091232915 0.2552171611271855 0.30664238825533185 0.2770057401265172 0.25843691969015464 0.24384674362908265 0.2495983835533811 0.2487340063138756 0.33734288862067635 0.22321554454596504 0.3352118294651214 0.1824247986219377 0.2705270079151885 0.0 0.30664238825533185 0.3906285805927516
103100 0.3658645195818244 0.4804030415632869 0.0 0.0 0.3229036378761775 0.4261908209975033 0.4598057504341088 0.3705327250524583 0.45324236170435295 0.4408724895535646 0.4793897000427261 0.0 0.0 0.33132954742290577 0.4498131299745292 0.4498131299745292 0.4068723590540424 0.4917616789073413 0.4915148083182613 0.32675160531219105 0.3987708687797625 0.286113533423095 0.0 0.0 0.0 0.35606976524104034 0.3154183818818955 0.0 0.0 0.0 0.0 0.0 0.4183761751319672 0.3713338764125126 0.45014080735164463 0.3726096762568486 0.302550767904726 0.39952653518856895 0.0 0.4776323049652936 0.4347046606020152 0.0 0.0 0.0 0.5830560515523087 0.5092745097750053 0.5090928891883642 0.0 0.0 0.0 0.3316258852283879 0.3745572744533703 0.3712191920140897 0.2929195744883057 0.33272397344228144 0.0 0.4799358198937537 0.3090345182003855 0.0 0.0 0.0 0.0 0.0 0.3708240749401136 0.3727607947441468 0.3719808452819747 0.2880831107713984 0.5334325694472783 0.0 0.0 0.0 0.0 0.44937610514304616 0.29258214562023777 0.3062591238850573 0.44937610514304616 0.4529541991447862 0.0 0.0 0.0 0.2912767301565995 0.24869811606211545 0.52110740986483 0.4614464727417709 0.0 0.0 0.0 0.0 0.0 0.37186165850367336 0.4764630436681237 0.31163816192137106 0.0 0.3415098656344329 0.0 0.0 0.26226452706970604 0.4121592525371279 0.4506297623125885 0.0 0.0 0.4903301083433115 0.0 0.0 0.0 0.0 0.3717176571017836 0.0 0.0 0.5230055085379415 0.6225477543325355 0.4627158297628597 0.0 0.4508245839392923 0.2716624112130694 0.3436290510847363 0.5860857277793867 0.0 0.0 0.3712191920140897 0.3994887743815493 0.2809090569492221 0.2802412338141209 0.3490377321783932 0.3715105419017451 0.3718998157240695 0.0 0.0 0.0 0.3872347143148096 0.3471196578601101 0.3100619772367344 0.36654686731303937 0.4614464727417709 0.4864599883659819 0.44937610514304616 0.0 0.0 0.0 0.3122212232285502 0.3350775900219786 0.28107839283806896 0.0 0.4806101225369291 0.348455832182962 0.4683969056530966 0.5121202309308298 0.5537029379117869 0.2205306074649508 0.4634355657887878 0.44937610514304616 0.3515971784361639 0.4917333207340028 0.3112130479171029 0.2765375023904084 0.3920788267482249 0.31896716473466324 0.2519331118920428 0.2701709603233426 0.26924957669696464 0.41239267683937103 0.2761551512861091 0.4605016821967726 0.3801069772053981 0.0 0.3539681080230379 0.5054344058904015 0.2975054473840281 0.4378877444508733 0.30874836644503656 0.2922834129451449 0.3867699098909401 0.0 0.0 0.0 0.0 0.4392447234907572 0.35811807217373576 0.3678501725391664 0.0 0.0 0.0 0.3718218522154669 0.2572086970656663 0.2787219466863322 0.3316368213392893 0.2945628315244939 0.3095837005649026 0.21389911281289706 0.0 0.0 0.0 0.2731498331402813 0.27875755879840075 0.3856124402672198 0.3234884433763632 0.3856124402672198 0.2450527964218217 0.3136359281234622 0.4643702251124848 0.0 0.0 0.2656933760466872 0.4197134094153056 0.30867732239707424 0.0 0.25343895664585353 0.22652393585323466 0.0 0.0 0.0 0.0 0.0 0.5167476465400018 0.4602082400036606 0.3118619007397392 0.0 0.0 0.0 0.398794395903348 0.3796810277930427 0.2915281415495577 0.0 0.0 0.42637315727971775 0.3654689628789929 0.33296104711711544 0.34271380093998505 0.3639561127372004 0.3092502368082717 0.0 0.37438673630447306 0.5747956387517735 0.3704039546228261 0.0 0.0 0.2372190367875451 0.2697911037568486 0.0 0.2983016665318113 0.3374347841455957 0.2670564399533337 0.4397070878111382 0.25703388713307296 0.4130078623168249 0.3159543647860461 0.3991043806980559 0.417021261491734 0.0 0.1740222770055434 0.3189394518221875 0.36665087783526296 0.3748493410985965 0.2494141385818073 0.17802356594398006 0.0 0.43002894228112176 0.3579309739461008 0.0 0.0 0.0 0.0 0.0 0.0 0.0 0.2921881778861425 0.4755636208183898 0.4787654540725775 0.44937610514304616 0.5157065771262654 0.2293284681790592 0.3794207011293799 0.3747115238630054 0.4769728451405226 0.3953329164501411 0.5639423041625304 0.3567028694664275 0.3473579684486652 0.0 0.3664739183040804 0.0 0.0 0.0 0.4078619586829397 0.4767807976869014 0.0 0.0 0.0 0.4342886739263603 0.5377545649349648 0.4903301083433115 0.4439227900149448 0.4955377113293207 0.4903301083433115 0.4893829042686249 0.4119037926827449 0.5190820039065921 0.5026521963241558 0.48180227587938107 0.4818462679775175 0.2995882097892321 0.3087841745901109 0.4326435780080136 0.39643117792848775 0.4489982499620509 0.4947676090053088 0.0 0.0 0.0
103780 0.0910797123857054 0.42704272738599297 0.0 0.0 0.0 0.3799599873394379 0.3772781640843013 0.08035428997590355 0.0 0.0 0.0 0.0 0.0 0.0 0.0 0.0 0.2246488360451479 0.0 0.08230622810172228 0.07869162954097668 0.07952624187531035 0.08692976541863044 0.0 0.0 0.0 0.0 0.0 0.0 0.0 0.0 0.0 0.0 0.0 0.0 0.0 0.0 0.0 0.0 0.0 0.0 0.0 0.0 0.0 0.0 0.0 0.0 0.0 0.0 0.0 0.0 0.0 0.0 0.08134888603609472 0.07866259605531498 0.0809553012931638 0.0 0.0 0.07986411152801667 0.0 0.0 0.0 0.0 0.0 0.08077322151114216 0.0 0.0 0.0726498772717365 0.5140193042637455 0.0 0.0 0.0 0.0 0.0 0.0 0.0 0.08386249890404103 0.08922239195357061 0.0 0.0 0.0 0.0 0.0 0.0 0.106668455830422 0.0 0.0 0.0 0.0 0.0 0.0 0.0 0.06601300147358513 0.0 0.0 0.0 0.0 0.07854228060181626 0.09286138200689008 0.08568412400811476 0.0 0.0 0.42427278208722596 0.0 0.0 0.0 0.0 0.0 0.0 0.0 0.0 0.0 0.08447681542288718 0.0 0.0 0.0 0.33550038881114724 0.4007740355607947 0.0 0.0 0.0 0.0 0.0 0.0 0.0 0.08176781757133332 0.08236137828460252 0.0 0.0 0.0 0.12188035448827005 0.2670080685494441 0.08139990409859071 0.0 0.0 0.0 0.08386249890404103 0.0 0.0 0.0 0.10800333134852194 0.08459580396151661 0.07708152027349915 0.0 0.0 0.3285354410319365 0.3742315863847586 0.3686107162444411 0.607055142507848 0.0 0.0 0.08386249890404103 0.06688093241881883 0.08262042675315122 0.24585166678124104 0.07563207991072135 0.0 0.0 0.06791453482954317 0.0 0.2471319115663388 0.07774808001664954 0.07507998806027216 0.4943617656754108 0.3603408932467365 0.0 0.0 0.0 0.0 0.0 0.0 0.0 0.26821714981630346 0.0 0.0 0.0 0.0 0.0 0.33205073898509224 0.0 0.0 0.0 0.0 0.0 0.0 0.07888863776948554 0.0 0.09029187669354194 0.08960101238325836 0.07387039931930073 0.0 0.0 0.0 0.1151356056676883 0.0789539811357437 0.0 0.3755884711334395 0.0 0.0745082537926231 0.27774502029001275 0.2697656916557045 0.0 0.0 0.0 0.3121333760326828 0.07774808001664954 0.0 0.0 0.0 0.0 0.0 0.0 0.0 0.0 0.0 0.0 0.3029667716647668 0.0 0.0 0.0 0.0 0.09648410936709363 0.2311686614387241 0.0 0.0 0.0 0.3441572183890559 0.0 0.3588928274453168 0.2940983089814221 0.07862688014434854 0.0 0.08417222108733037 0.3982849490706257 0.07817382761669467 0.0 0.0 0.0 0.252222274897905 0.0 0.2953043484231048 0.0 0.0 0.0 0.07406127748804593 0.0 0.0 0.4441580109360349 0.4107001595704385 0.0 0.06927382974802837 0.32272528345969315 0.0 0.0 0.06743350929006696 0.0 0.0 0.3151758034927314 0.0 0.0 0.0 0.0 0.0 0.0 0.0 0.0 0.0 0.0 0.0 0.0 0.0 0.0 0.0976665209227278 0.2905289845715776 0.08341908948007543 0.07494722924575399 0.08386249890404103 0.07609291833021581 0.29576149892667186 0.0 0.0 0.0 0.0 0.0 0.0 0.0 0.0 0.0 0.0 0.0 0.0 0.0 0.0 0.0 0.0 0.0 0.0 0.40322057306627945 0.4097305879329641 0.3863675837011473 0.3625798139941567 0.4255285990337733 0.07949089275286493 0.4435810544550649 0.263564070207485 0.3230103778811966 0.33996172402856195 0.0 0.0 0.0
104130 0.31212047159246303 0.4256318433617602 0.0 0.0 0.0 0.0 0.4046038094509444 0.3865788902764832 0.0 0.0 0.0 0.0 0.0 0.0 0.0 0.0 0.0 0.0 0.4139908735176082 0.249227670511538 0.4014724252683044 0.587556007676189 0.0 0.0 0.0 0.0 0.0 0.0 0.0 0.0 0.0 0.0 0.0 0.0 0.0 0.0 0.0 0.0 0.0 0.0 0.0 0.0 0.0 0.0 0.0 0.0 0.0 0.0 0.0 0.0 0.0 0.0 0.0 0.0 0.0 0.0 0.0 0.35905228880296913 0.0 0.0 0.0 0.0 0.0 0.0 0.0 0.0 0.0 0.4677501289485697 0.0 0.0 0.0 0.0 0.0 0.0 0.0 0.5127793424395459 0.5152209907962306 0.0 0.0 0.0 0.0 0.0 0.0 0.0 0.0 0.0 0.0 0.0 0.0 0.0 0.0 0.3844161256322253 0.0 0.0 0.0 0.0 0.0 0.3419897602393641 0.4985796580991093 0.0 0.0 0.0 0.0 0.0 0.0 0.0 0.0 0.0 0.0 0.0 0.0 0.3851918949622066 0.0 0.0 0.0 0.0 0.5275814061324015 0.0 0.0 0.0 0.0 0.0 0.0 0.0 0.0 0.0 0.0 0.0 0.0 0.0 0.0 0.0 0.0 0.0 0.0 0.4890140849485429 0.0 0.0 0.0 0.0 0.0 0.0 0.0 0.0 0.0 0.4143468037576532 0.3658099995532571 0.5173874321049143 0.0 0.0 0.0 0.29965482370465235 0.0 0.0 0.0 0.0 0.0 0.0 0.0 0.0 0.0 0.0 0.5251923281979881 0.5106430035452411 0.0 0.0 0.0 0.0 0.0 0.0 0.0 0.0 0.0 0.0 0.0 0.0 0.0 0.0 0.0 0.0 0.0 0.0 0.0 0.0 0.21643255934701167 0.0 0.0 0.0 0.32276114323150473 0.0 0.0 0.0 0.33774096643795826 0.3089607501338305 0.0 0.32791920713099604 0.0 0.0 0.3023856553025405 0.0 0.0 0.0 0.0 0.0 0.3319386823905908 0.0 0.0 0.0 0.0 0.0 0.0 0.0 0.0 0.0 0.0 0.3311375992311749 0.0 0.0 0.0 0.0 0.0 0.0 0.0 0.0 0.0 0.0 0.0 0.0 0.378570064483605 0.24694694166643155 0.0 0.0 0.0 0.3081006594809859 0.0 0.0 0.0 0.0 0.0 0.3861493712493939 0.0 0.0 0.0 0.0 0.0 0.0 0.0 0.0 0.0 0.0 0.2773212915424437 0.0 0.0 0.0 0.0 0.0 0.0 0.0 0.0 0.0 0.0 0.0 0.0 0.0 0.0 0.0 0.0 0.0 0.0 0.0 0.0 0.0 0.0 0.0 0.0 0.0 0.3756295091474071 0.33842879617158084 0.0 0.0 0.0 0.0 0.0 0.0 0.0 0.0 0.0 0.0 0.0 0.0 0.0 0.0 0.0 0.0 0.0 0.0 0.0 0.0 0.0 0.0 0.0 0.0 0.4967377360210234 0.2657553297097228 0.38069337685494187 0.5229147576956769 0.0 0.0 0.0
104300 0.0 0.5108888684167452 0.0 0.0 0.0 0.0 0.0 0.3091687752211262 0.0 0.0 0.0 0.0 0.0 0.0 0.0 0.0 0.0 0.0 0.0 0.0 0.3809341273660535 0.22467057301266846 0.0 0.0 0.0 0.0 0.0 0.0 0.0 0.0 0.0 0.0 0.0 0.0 0.0 0.0 0.0 0.0 0.0 0.0 0.0 0.0 0.0 0.0 0.0 0.0 0.0 0.0 0.0 0.0 0.0 0.0 0.0 0.0 0.0 0.0 0.0 0.2476705683690534 0.0 0.0 0.0 0.0 0.0 0.0 0.0 0.0 0.0 0.0 0.0 0.0 0.0 0.0 0.0 0.0 0.0 0.0 0.0 0.0 0.0 0.0 0.0 0.0 0.0 0.0 0.0 0.0 0.0 0.0 0.0 0.0 0.0 0.0 0.0 0.0 0.0 0.0 0.0 0.2259339744017652 0.3892658124812564 0.0 0.0 0.0 0.0 0.0 0.0 0.0 0.0 0.0 0.0 0.0 0.0 0.0 0.0 0.0 0.0 0.0 0.5567394568427306 0.0 0.0 0.0 0.0 0.0 0.0 0.0 0.0 0.0 0.0 0.0 0.0 0.0 0.0 0.0 0.0 0.0 0.0 0.0 0.0 0.0 0.0 0.0 0.0 0.0 0.0 0.0 0.0 0.0 0.0 0.5580230640131937 0.0 0.0 0.0 0.0 0.0 0.0 0.0 0.0 0.0 0.0 0.0 0.0 0.0 0.0 0.0 0.4314166713494969 0.0 0.0 0.0 0.0 0.0 0.0 0.0 0.0 0.0 0.0 0.0 0.0 0.0 0.0 0.0 0.0 0.0 0.0 0.0 0.0 0.2342602843043553 0.0 0.0 0.0 0.0 0.0 0.0 0.0 0.2283802346564292 0.2343097587063644 0.0 0.0 0.0 0.0 0.36106434057711495 0.0 0.0 0.0 0.0 0.0 0.0 0.0 0.0 0.0 0.0 0.0 0.0 0.0 0.0 0.0 0.0 0.3732708974000855 0.0 0.0 0.0 0.0 0.0 0.0 0.0 0.0 0.0 0.0 0.0 0.0 0.3831621836049297 0.2648024367162354 0.0 0.0 0.0 0.3259561545307897 0.0 0.0 0.0 0.0 0.0 0.0 0.0 0.0 0.0 0.0 0.0 0.0 0.0 0.0 0.0 0.0 0.0 0.0 0.0 0.0 0.0 0.0 0.0 0.0 0.0 0.0 0.0 0.0 0.0 0.0 0.0 0.0 0.0 0.0 0.0 0.0 0.0 0.0 0.0 0.0 0.0 0.0 0.3708409041520664 0.4488509631722177 0.0 0.0 0.0 0.0 0.0 0.0 0.0 0.0 0.0 0.0 0.0 0.0 0.0 0.0 0.0 0.0 0.0 0.0 0.0 0.0 0.0 0.0 0.0 0.0 0.0 0.0 0.0 0.4682285458328978 0.0 0.0 0.0
106400 0.0 0.0 0.0 0.0 0.0 0.0 0.0 0.0 0.0 0.0 0.0 0.0 0.0 0.0 0.0 0.0 0.0 0.0 0.0 0.0 0.0 0.0 0.0 0.0 0.0 0.0 0.0 0.0 0.0 0.0 0.0 0.0 0.0 0.0 0.0 0.0 0.0 0.0 0.0 0.0 0.0 0.0 0.0 0.0 0.0 0.0 0.0 0.0 0.0 0.0 0.0 0.0 0.0 0.0 0.0 0.0 0.0 0.3077547524232239 0.0 0.0 0.0 0.0 0.0 0.0 0.0 0.0 0.0 0.0 0.0 0.0 0.0 0.0 0.0 0.0 0.0 0.0 0.0 0.0 0.0 0.0 0.0 0.0 0.0 0.0 0.0 0.0 0.0 0.0 0.0 0.0 0.0 0.0 0.0 0.0 0.0 0.0 0.0 0.435487722660344 0.5872412451242716 0.0 0.0 0.0 0.0 0.0 0.0 0.0 0.0 0.0 0.0 0.0 0.0 0.0 0.0 0.0 0.0 0.0 0.4488610415744832 0.0 0.0 0.0 0.0 0.0 0.0 0.0 0.0 0.0 0.0 0.0 0.0 0.0 0.0 0.0 0.0 0.0 0.0 0.0 0.0 0.0 0.0 0.0 0.0 0.0 0.0 0.0 0.0 0.0 0.0 0.3822252480797524 0.0 0.0 0.0 0.0 0.0 0.0 0.0 0.0 0.0 0.0 0.0 0.0 0.0 0.0 0.0 0.0 0.0 0.0 0.0 0.0 0.0 0.0 0.0 0.0 0.0 0.0 0.0 0.0 0.0 0.0 0.0 0.0 0.0 0.0 0.0 0.0 0.2775977271470216 0.0 0.0 0.0 0.0 0.0 0.0 0.0 0.0 0.3876411291587892 0.0 0.0 0.0 0.0 0.0 0.0 0.0 0.0 0.0 0.0 0.0 0.0 0.0 0.0 0.0 0.0 0.0 0.0 0.0 0.0 0.0 0.0 0.0 0.0 0.0 0.0 0.0 0.0 0.0 0.0 0.0 0.0 0.0 0.0 0.2563460882078644 0.0 0.0 0.0 0.0 0.36925417711476 0.0 0.0 0.0 0.0 0.0 0.0 0.0 0.0 0.0 0.0 0.0 0.0 0.0 0.0 0.0 0.0 0.0 0.0 0.0 0.0 0.0 0.0 0.0 0.0 0.0 0.0 0.0 0.0 0.0 0.0 0.0 0.0 0.0 0.0 0.0 0.0 0.0 0.0 0.0 0.0 0.0 0.0 0.3555530919583613 0.3751732374630382 0.0 0.0 0.0 0.0 0.0 0.0 0.0 0.0 0.0 0.0 0.0 0.0 0.0 0.0 0.0 0.0 0.0 0.0 0.0 0.0 0.0 0.0 0.0 0.0 0.0 0.0 0.0 0.37263339369523424 0.0 0.0 0.0
107320 0.3415803930295319 0.2041339113899763 0.0 0.0 0.07646011783780071 0.2855915868498773 0.1863850196846002 0.24646920373877074 0.0 0.4358709149288261 0.1984239239755752 0.0 0.0 0.0 0.4943887967884006 0.3257496086608417 0.3507328855390288 0.2942798931227847 0.36745128700457375 0.20268808399850352 0.3762884557244219 0.3515315653763667 0.0 0.0 0.0 0.35835183411685645 0.0 0.0 0.0 0.0 0.0 0.0 0.0 0.2472703550988251 0.3260772860379571 0.2485461549431611 0.1784872465910385 0.2409818876280259 0.0 0.0 0.18308692210572547 0.0 0.0 0.0 0.2537233254407772 0.28873691067978985 0.21351342297369008 0.0 0.0 0.0 0.40647324517576094 0.4412550246142042 0.4125691579818072 0.35693137098240363 0.38586766607708217 0.0 0.2472703550988251 0.2485422865943107 0.0 0.0 0.0 0.0 0.0 0.2467605536264261 0.5696860272314748 0.2479173239682872 0.3032057097521238 0.2720360966842824 0.0 0.0 0.0 0.0 0.0 0.1685186243065503 0.2252264108519857 0.3950985229479729 0.32889067783109865 0.0 0.0 0.0 0.0 0.12463459474842792 0.2974825012876618 0.5362943675643933 0.0 0.0 0.0 0.0 0.0 0.24779813718998586 0.3523995223544361 0.4052972640906027 0.0 0.4342484419240472 0.0 0.0 0.525370241434094 0.3544180373697935 0.3265662409989009 0.0 0.0 0.31353330991261963 0.0 0.0 0.0 0.0 0.3900781350863216 0.0 0.0 0.3951720145984521 0.3840418055050003 0.3386523084491722 0.0 0.0 0.38555985468483467 0.12190933861565754 0.3260772860379571 0.0 0.0 0.35123291580000365 0.4027919466859953 0.1836490499380361 0.0 0.2536593919539031 0.2474470205880576 0.247836294410382 0.0 0.0 0.0 0.3452843690777957 0.1385033094000492 0.18599845592304687 0.0 0.5362943675643933 0.1868688954631772 0.3253125838293586 0.0 0.0 0.0 0.4360396405355367 0.5637829854582579 0.513193249568156 0.0 0.342746937032506 0.26739581265854634 0.18514063866571606 0.34922465451230433 0.2615071065061319 0.3405370509686275 0.3403845965694832 0.3253125838293586 0.3648748784359847 0.3676697994203153 0.291482744260529 0.1766516186538203 0.25200113955005604 0.4260415257937947 0.3079524020826321 0.26127520280762784 0.10529701299540034 0.3950730489105635 0.3768090993626196 0.14065584809532486 0.21232932295704168 0.0 0.1908431909186356 0.38137088457671386 0.4165291635414669 0.3506197359027877 0.2837204834745349 0.1465610357709511 0.3673311692712005 0.0 0.0 0.0 0.0 0.3330428974580878 0.1458875643118248 0.11959810574575808 0.0 0.0 0.0 0.0 0.4024322159058037 0.3802331773886145 0.2342824787983261 0.4302387841576497 0.21103595233210576 0.40950037907779263 0.0 0.0 0.0 0.17548743482052714 0.17887167506181267 0.2870813309349236 0.11966363888728422 0.0 0.14516691268523366 0.1746507326608301 0.3871308014743997 0.0 0.0 0.0 0.3324789084395579 0.4175770760299419 0.0 0.2901883743199151 0.18205028993728287 0.0 0.0 0.0 0.0 0.0 0.0 0.13990956540187127 0.10862879208296547 0.0 0.0 0.0 0.2742815445061062 0.3480582143746226 0.16330307083800366 0.0 0.0 0.14546482706103342 0.2988755615893947 0.5198762726240087 0.2547112952271829 0.15760998197934245 0.32565665000728256 0.0 0.27450085256788503 0.4224746016923033 0.27051807088623797 0.0 0.0 0.15485048198449927 0.3995831959348504 0.0 0.2244713864754604 0.35745808824504044 0.12314638638263188 0.14741729034001685 0.19039032821387808 0.27746404153752435 0.2427095193014881 0.1857243350073649 0.17930599019070267 0.0 0.32828492904248285 0.14664614967285095 0.3340497541349309 0.11366441801295428 0.17139550732449652 0.09990051020222526 0.0 0.2823167737876879 0.2972231218621143 0.0 0.0 0.0 0.0 0.0 0.0 0.0 0.0 0.0 0.0 0.4350939386357121 0.2503710925908517 0.26798169607726324 0.2560974309344204 0.4509410156227428 0.49278222733932 0.2712693951364536 0.5220693195562895 0.36089285497554296 0.14926149036219466 0.0 0.447262180213752 0.0 0.0 0.0 0.13213491686687062 0.16977257544209162 0.0 0.0 0.0 0.2557375223260482 0.271487938570928 0.31353330991261963 0.22930429167263475 0.3139650139181599 0.31353330991261963 0.2893045648907571 0.4597698518108762 0.2091794221996076 0.1854059073546444 0.19052844580313627 0.20435670362444447 0.3713265278129969 0.1847206532764234 0.2129899975308497 0.2863520263536273 0.2725224398127121 0.24984963815870825 0.0 0.0 0.0
107550 0.3608222870473365 0.4199068699229102 0.0 0.0 0.26089707683781305 0.4063701532250524 0.3500870792357166 0.3756535108405849 0.0 0.0 0.3667782670118807 0.0 0.0 0.0 0.0 0.37117153092972255 0.3754177036278016 0.0 0.4128732092734546 0.2481100062673844 0.320129269734956 0.3524316613058733 0.0 0.0 0.0 0.0 0.0 0.0 0.0 0.0 0.0 0.0 0.0 0.0 0.0 0.0 0.0 0.3737706433209883 0.0 0.0 0.3615369735363933 0.0 0.0 0.0 0.0 0.0 0.3579092372870847 0.0 0.0 0.0 0.3369170159982929 0.2959156754085636 0.29257759296928304 0.3954629112478817 0.2540823743974747 0.0 0.0 0.3520060362656105 0.0 0.0 0.0 0.0 0.0 0.2921824758953069 0.0 0.2933392462371681 0.5200353287050874 0.3667622579198847 0.0 0.0 0.0 0.0 0.0 0.2139405465754312 0.2549017399836706 0.5702358405194735 0.5061886616506652 0.0 0.0 0.0 0.0 0.0 0.41979979506834975 0.3833585922545861 0.0 0.0 0.0 0.0 0.0 0.2932200594588667 0.397821444623317 0.2581500285331954 0.0 0.3335526583816034 0.0 0.0 0.4057863386360112 0.5292197495611534 0.482050430704949 0.0 0.0 0.32732476994479764 0.0 0.0 0.0 0.0 0.0 0.0 0.0 0.4107258017092002 0.4158197046931681 0.3840742307180531 0.0 0.0 0.0 0.4133830265522147 0.4509289744301152 0.0 0.0 0.0 0.5020204640101558 0.4486716053532507 0.0 0.0 0.29286894285693843 0.29325821667926283 0.0 0.0 0.0 0.4298416011263385 0.3096110145194277 0.2314203781919277 0.0 0.3833585922545861 0.33498349310085257 0.4739242426035165 0.0 0.0 0.0 0.3533222379409877 0.256435990977172 0.2895940153254378 0.0 0.4663441691768152 0.2929325924568493 0.32465185935739405 0.3906761560259128 0.5395758322676786 0.0 0.3855235953256 0.3707345060982395 0.44898567304217984 0.41309172168919617 0.4211246213823996 0.39329559472434505 0.0 0.0 0.1886473377028383 0.3829372700055171 0.2464736459559281 0.3250118612894943 0.2981972086150194 0.35990647056275504 0.4555233448341625 0.0 0.3513502166244099 0.0 0.30465449416961954 0.3952727820372101 0.4645208153794198 0.3636317814048047 0.4171830291745571 0.0 0.0 0.0 0.0 0.4851760834368609 0.3192587886926608 0.0 0.0 0.0 0.0 0.0 0.0 0.2154837959291573 0.33644489418753754 0.368509625923258 0.2472646889113105 0.3556222300236379 0.0 0.0 0.0 0.32454103976313753 0.293662717872859 0.32330578822801964 0.2453103197407591 0.0 0.1817670222326173 0.2862182694053665 0.4523269291810737 0.0 0.0 0.0 0.4747586347528608 0.2453915482078697 0.0 0.2502195985668917 0.0 0.0 0.0 0.0 0.0 0.0 0.0 0.0 0.3646859725625641 0.0 0.0 0.0 0.0 0.3171292910318782 0.2662671711412581 0.0 0.0 0.0 0.31442790246478225 0.3556925456638416 0.3536556580003983 0.2742373910755473 0.24596446261906724 0.0 0.3111009621152686 0.4530121009600983 0.4271978730595912 0.0 0.0 0.0 0.39655314807535225 0.0 0.3500673516379029 0.0 0.0 0.0 0.3520047534201484 0.27519387683074714 0.2863155404175759 0.3270666510809043 0.3003500013067133 0.0 0.16558724501321434 0.23884128023712475 0.0 0.3428511215193135 0.2940413212053313 0.12851662130974534 0.0 0.2996082754392378 0.3451331607638376 0.0 0.0 0.0 0.0 0.0 0.0 0.0 0.0 0.0 0.0 0.0 0.0 0.36051107741180016 0.3013071136635855 0.3231104266242233 0.39833124609571596 0.3166913174053344 0.4648451500589 0.29341709527722304 0.3411438864349077 0.0 0.0 0.0 0.0 0.0 0.0 0.0 0.0 0.0 0.0 0.0 0.4169294144350722 0.32732476994479764 0.3365589413040313 0.3301521687814529 0.32732476994479764 0.3215841775450773 0.454781568479775 0.3686727993414746 0.3502752459662326 0.3356846161152424 0.3403097633348379 0.3353602337755419 0.23014257554530426 0.3436040312810659 0.39564299207851183 0.3046520852089103 0.3611737645597155 0.0 0.0 0.0
107650 0.2471914516225746 0.6225585894563448 0.0 0.0 0.4505876852052247 0.5025720502537215 0.4927830569711477 0.29091938065710776 0.0 0.0 0.0 0.0 0.0 0.0 0.0 0.3701997855791788 0.3414999506369686 0.0 0.4119014639229108 0.2471382609168405 0.3191575243844121 0.2528612229063053 0.0 0.0 0.0 0.0 0.0 0.0 0.0 0.0 0.0 0.0 0.0 0.0 0.0 0.0 0.0 0.4135378863242107 0.0 0.0 0.0 0.0 0.0 0.0 0.0 0.0 0.5685926561938983 0.0 0.0 0.0 0.25201254083303737 0.2949439300580198 0.2916058476187392 0.21330623009295527 0.2531106290469309 0.0 0.0 0.3193549830891429 0.0 0.0 0.0 0.0 0.0 0.2912107305447631 0.0 0.2923675008866242 0.20846976637604792 0.5552708344126362 0.0 0.0 0.0 0.0 0.0 0.2129688012248873 0.2542514119305856 0.4643034619831142 0.3733408547494357 0.0 0.0 0.0 0.0 0.0 0.0 0.3821893582830245 0.0 0.0 0.0 0.0 0.0 0.0 0.3968496992727731 0.2574602902254599 0.0 0.0 0.0 0.0 0.2539181336354682 0.20830814393389724 0.3710164179172379 0.0 0.0 0.5036621606114595 0.0 0.0 0.0 0.0 0.0 0.0 0.0 0.4767772324709904 0.3787387151855109 0.3831024853675093 0.0 0.0 0.0 0.3790397564367708 0.6635825236732784 0.0 0.0 0.0 0.2693941082472995 0.2462241669702065 0.0 0.0 0.29189719750639465 0.292286471328719 0.0 0.0 0.0 0.30839742756171284 0.3347869417815754 0.2304486328413839 0.0 0.3821893582830245 0.5702171971870875 0.3697627607476957 0.0 0.0 0.0 0.3439727257836349 0.2554642456266282 0.3227136570110293 0.0 0.5192023030346024 0.3929073619673534 0.5108664200389269 0.4105938253794241 0.5459004236135552 0.0 0.3842721707628959 0.3697627607476957 0.2982587750635798 0.4121199763386524 0.28621723726324017 0.21237789470821927 0.0 0.0 0.18777350420985367 0.2921912628647402 0.27248772931269744 0.2445177147148851 0.5403420768657197 0.5740292288097263 0.39153527210280825 0.0 0.0 0.0 0.0 0.3837773174038786 0.24458875876284744 0.4532565271615219 0.3377948755097602 0.0 0.0 0.0 0.0 0.0 0.3702421526949096 0.0 0.0 0.0 0.0 0.0 0.0 0.2146289435327246 0.0 0.3370496982923231 0.2460132643486065 0.2289275979484071 0.0 0.0 0.0 0.2099055051967804 0.2145979511162117 0.3220484747513812 0.4182044553012595 0.0 0.1808931887396326 0.3280890582099754 0.3695126007763752 0.0 0.0 0.0 0.4089243918281594 0.2445177147148851 0.0 0.28286523036807065 0.0 0.0 0.0 0.0 0.0 0.0 0.0 0.0 0.3773289296358953 0.0 0.0 0.0 0.0 0.2216435366210633 0.30242080351531603 0.0 0.0 0.0 0.3939609725103841 0.3047153819240308 0.3692012540296841 0.3643262927237558 0.2450906291260826 0.0 0.310227128622284 0.5408076138165786 0.30624434694063696 0.0 0.0 0.0 0.3205875579208521 0.0 0.285215716639905 0.0 0.0 0.0 0.24500123600723245 0.0 0.3698430149211332 0.5765974405082248 0.5155709006453856 0.0 0.12400942535166233 0.3908201253753285 0.0 0.0 0.1993105984634796 0.12787084934536608 0.0 0.3290070006916145 0.3414117406236122 0.0 0.0 0.0 0.0 0.0 0.0 0.0 0.0 0.0 0.0 0.0 0.0 0.2753482825671403 0.30014963774014336 0.3808765544919725 0.3973595007451721 0.3157195720547906 0.3697627607476957 0.29254326178423834 0.3438449404353772 0.0 0.0 0.0 0.0 0.0 0.0 0.0 0.0 0.0 0.0 0.0 0.4255362866417264 0.5036621606114595 0.5431520502310406 0.5081395596065309 0.5036621606114595 0.49562824313569204 0.3861870233716052 0.6665458959690509 0.6259932450380565 0.5740449060610564 0.5640729591868272 0.34910524238533563 0.2291708301947604 0.5369734835222407 0.3076807651450769 0.42805431041061376 0.5524614820539536 0.0 0.0 0.0
109100 0.3526547518404776 0.40910315155462296 0.0 0.4527182096805789 0.08885322004736558 0.5282693415309716 0.3913542598492469 0.4514384439034174 0.6062911369453684 0.3740766106357721 0.3731048652852285 0.0 0.3519630893798581 0.5760174696399741 0.7291861455564821 0.5307188488254884 0.3187062279968066 0.35482398749923216 0.5724205271692204 0.40765732416315015 0.6248894234519821 0.5885713744669002 0.0 0.0 0.461106079566184 0.3320126598129313 0.3198474640248993 0.0 0.0 0.0 0.0 0.5430608124359608 0.35335912071035497 0.4522395952634717 0.5310465262026038 0.4535153951078077 0.3834564867556852 0.2436773472914022 0.0 0.3627605610668354 0.3420877244881379 0.0 0.0 0.0 0.4586925656054238 0.4937061508444365 0.4184826631383367 0.0 0.0 0.4130259335471938 0.412531604079347 0.4554629933043294 0.4521249108650488 0.3738252933392649 0.6285589835251253 0.0 0.4522395952634717 0.3899402370513446 0.0 0.0 0.0 0.0 0.4526834310425116 0.4517297937910728 0.9646886639846272 0.4528865641329339 0.3689888296223576 0.33163868466932434 0.0 0.0 0.0 0.3897182894068161 0.5302818239940053 0.373487864471197 0.35909491510737235 0.5302818239940053 0.5338599179957453 0.0 0.0 0.0 0.3721824490075586 0.3296038349130746 0.33916689199022443 0.8500326014525478 0.0 0.0 0.0 0.0 0.5307188488254884 0.4527673773546325 0.5573687625190828 0.5838539771604566 0.0 0.6549652111153458 0.0 0.3527166537663308 0.4610885920768415 0.3683345812741776 0.5315354811635475 0.0 0.0 0.3642946158333891 0.0 0.0 0.10235578230586836 0.3546454091933594 0.634974946863701 0.0 0.0 0.41393711925087423 0.3739537072960588 0.543621548613819 0.0 0.5317303027902515 0.5421711728197948 0.3125335563923143 0.5310465262026038 0.0 0.2198949779280195 0.4521249108650488 0.32668745538663124 0.3618147758001813 0.20199229403257887 0.3123280632919092 0.4524162607527042 0.4528055345750287 0.5302818239940053 0.5576601124067382 0.0 0.4683226709219809 0.34347254956469586 0.3909676960876936 0.3993708270365547 0.8500326014525478 0.3918381356278239 0.5302818239940053 0.0 0.3748987918990676 0.0 0.5416568273411024 0.7029358309963932 0.3619841116890282 0.0 0.4529138979066472 0.34060762386667 0.3901098788303627 0.3918844003239391 0.4650667041556347 0.44397979687479205 0.5443093405207318 0.5302818239940053 0.40579743914300703 0.5726390395849621 0.33782341471499794 0.3418448240042657 0.2599045428745902 0.6926209079673663 0.3172404335059001 0.3776917056142997 0.26924662759865603 0.3739846440109316 0.5762370938340015 0.3055327706977603 0.32068790967355165 0.0 0.2872314209124409 0.5863401247413605 0.5523298664671297 0.37278764178127416 0.3740556880588939 0.2632876583988958 0.26544467993933885 0.0 0.0 0.0 0.0 0.325442776575864 0.3110807696622703 0.26852668696025445 0.0 0.0 0.0 0.3457345556712476 0.525447828492659 0.3439297326336941 0.3191233636119644 0.3940418590744221 0.3748645164872506 0.2792064344267544 0.0 0.0 0.0 0.3386448309378567 0.3440648804122581 0.4508959454313686 0.2845405614897197 0.4508959454313686 0.3103601180356791 0.3106724596424682 0.34240817191502365 0.0 0.4413405393340638 0.4690872323413937 0.4234320360741723 0.5350010722681957 0.0 0.45412586561478896 0.29180744101738343 0.0 0.0 0.0 0.0 0.0 0.4172408749043389 0.30510277075231673 0.2736463837022485 0.0 0.33895905882542765 0.0 0.30923780826603153 0.35049100730105065 0.30203151882837903 0.0 0.0 0.3106580324114788 0.2553102133408657 0.4926107761774047 0.2587466702062707 0.3228031873297879 0.3745575584221291 0.0 0.4396940579183305 0.37816480784707596 0.4357112762366834 0.0 0.4722128323894591 0.2922172799785345 0.2795530384674331 0.27778631754246114 0.4079441607691654 0.3227895293145827 0.2604181213946197 0.2896746194569048 0.3223412087469304 0.2572865270592665 0.2124885769582788 0.28564127090014946 0.321276472948975 0.0 0.5035719133983342 0.28315394461865845 0.3408977916951313 0.2241871656380432 0.3003710452688597 0.2289947505052812 0.0 0.2547778269534909 0.19790390881357486 0.0 0.0 0.0 0.0 0.0 0.5307188488254884 0.053775957564220433 0.5365337088066457 0.7545388598210601 0.5596711729235366 0.5302818239940053 0.3288225204667485 0.05925766531285887 0.4602572366375335 0.6227384221960995 0.7264294104717737 0.4762386353011002 0.5302818239940053 0.5868051893461406 0.33816503950789034 0.0 0.5190503371989929 0.0 0.0 0.37629628789778014 0.2973281222173161 0.3747418156067383 0.0 0.3073438351852401 0.2311534360009564 0.2700695551665229 0.2584015704055829 0.3642946158333891 0.3666022330547489 0.3647263198389294 0.3642946158333891 0.34888545915093 0.4288016263054791 0.4141486623642542 0.39037514751929103 0.3954976859677829 0.4093259437890912 0.423381278112941 0.3896898934410701 0.4679113508604064 0.347879497175831 0.30127201019200045 0.4548188783233549 0.0 0.0 0.0
109200 0.3461925544574124 0.2752401079318569 0.0 0.30064523859960496 0.06618031239463074 0.6077303822948118 0.26297650956439284 0.42856955747906944 0.22203407963001065 0.3530627856002609 0.2501699668175529 0.0 0.0 0.2749479141657555 0.3500348907935413 0.3500348907935413 0.41678443811468696 0.2385102638604488 0.38444106445721615 0.27443420100812643 0.32301541007197243 0.5717573272817225 0.0 0.0 0.0 0.3815296158445679 0.3698922014543508 0.0 0.0 0.0 0.0 0.6044507272663804 0.2383522429254512 0.43293156396761695 0.35025987620337273 0.3011793817673072 0.25535742915132803 0.17823751873134408 0.0 0.24365298698984386 0.2305391290804785 0.0 0.0 0.0 0.3044899702507726 0.33024895457691683 0.2787648563103356 0.0 0.0 0.0 0.2751506632504289 0.3024289636228886 0.3002472384879153 0.3848559364229379 0.27589759275837483 0.0 0.43293156396761695 0.2608788992637646 0.0 0.0 0.0 0.0 0.0 0.29997690637501745 0.30126237209922857 0.30075648179917824 0.2465931906561269 0.224009783852938 0.0 0.0 0.0 0.0 0.5050915616921473 0.2504191050648 0.2588589000780812 0.5050915616921473 0.5428937912892735 0.0 0.0 0.0 0.4361174662555383 0.22267358624728006 0.32150247842066737 0.3577112872011701 0.0 0.0 0.0 0.0 0.0 0.3041276472963285 0.37238321652093975 0.26470986614256753 0.0 0.3231561485787165 0.0 0.2384219362957562 0.3277988120670761 0.4202976941584534 0.5187452919371602 0.0 0.0 0.24469815743446305 0.0 0.0 0.0 0.0 0.3005822491824846 0.0 0.0 0.2760832555282113 0.2507470394885382 0.3646695237764864 0.0 0.350723070004064 0.2370251785990725 0.2118318003947981 0.35025987620337273 0.0 0.1622762056790975 0.3002472384879153 0.32180452922635544 0.4856718856672365 0.2416821896815055 0.3254572080142564 0.3004493476635922 0.3007030322633619 0.3497317270300261 0.3725853256966166 0.0 0.31111461565328913 0.2314599796973816 0.2615648641589529 0.16319961996307375 0.3577112872011701 0.2632680411001662 0.5050915616921473 0.0 0.0 0.0 0.3541135733312668 0.2774146781062325 0.24298654893444066 0.0 0.30078779196426364 0.2296722826781869 0.2607834124588942 0.26213437354526226 0.3090250915036993 0.19921461456794376 0.3590350558378272 0.3497317270300261 0.2918765572136174 0.3845926463389737 0.22783130167544816 0.3509930286866967 0.18138976230530526 0.2626805592890409 0.2175259821376272 0.2822766704967643 0.188235673582676 0.25548382092237 0.2343495490585771 0.2112196044588711 0.38572006747300464 0.0 0.19930559049098576 0.3908514699344247 0.4321113041381972 0.250547743914773 0.2555304048362958 0.1836949887063339 0.185024062350762 0.0 0.0 0.0 0.0 0.22398665177399185 0.3326799599514944 0.18719692358986714 0.0 0.0 0.0 0.2394231376367651 0.22205346161898745 0.2360192184114833 0.22059145240059425 0.2902282635873048 0.2547406412421868 0.29278671352945645 0.0 0.0 0.0 0.4068225777895073 0.3692650190948692 0.3057822328533009 0.19758502650348875 0.3057822328533009 0.21417381466663613 0.21437545360992727 0.2349720173653556 0.0 0.0 0.22822379024769185 0.2963522704676283 0.25548382092237 0.0 0.1891811269853785 0.2983379460892622 0.0 0.0 0.0 0.0 0.0 0.279031170232781 0.2108265959450004 0.2932789248990109 0.0 0.3253588731635237 0.0 0.4144003594953787 0.2408265587433957 0.20882929809810835 0.0 0.0 0.2143564297971604 0.1785851399721576 0.2438694352119723 0.18079819564140395 0.2222432012844013 0.255855819016656 0.0 0.2981555316238631 0.2583411277055911 0.29551825872990944 0.0 0.0 0.2117044156292576 0.3069173168300883 0.0 0.3185059989481149 0.33389567827389216 0.4094160762384733 0.31556724288869625 0.5270835265262519 0.1875673821878387 0.3081135986996085 0.21030264959553813 0.2301001824301148 0.0 0.26605939411236923 0.20613923907682408 0.4571665421545384 0.16663579584354393 0.3697512668725857 0.16983711047138186 0.0 0.18584513918283266 0.1519578212552897 0.0 0.0 0.0 0.0 0.0 0.0 0.0 0.3544616127519421 0.3721061491034753 0.3735614632843761 0.3497317270300261 0.22223172124340684 0.04898365138351591 0.3057943963120695 0.2345011309403348 0.37273531596983744 0.3193332825046977 0.3497317270300261 0.2890177268971699 0.2288081363303136 0.0 0.3827971438758628 0.0 0.0 0.2570281715994654 0.20550860482995997 0.2512241238368401 0.0 0.0 0.0 0.18875225741710355 0.1804206781359524 0.24469815743446305 0.2624919247976644 0.244983716939663 0.24469815743446305 0.2349190669989893 0.28812074262998266 0.2762522546557061 0.2611852509014975 0.2662531473586812 0.27525057412021603 0.2938977783836602 0.2607115846871044 0.22495187881620488 0.2342303948067868 0.20811168586534767 0.30169711778905234 0.0 0.0 0.0
109350 0.231315782732071 0.2877144892969499 0.0 0.0 0.07891438416326378 0.35415120191779603 0.2699655975915737 0.3300497816457443 0.3292685798875044 0.2526879483780992 0.2517162030275553 0.0 0.0 0.0 0.5822238887151847 0.5402707664779667 0.19740503663480047 0.23343532524155905 0.5362725095165316 0.6854487189239278 0.6546190702177725 0.3966784310794575 0.0 0.0 0.0 0.21062399755525807 0.0 0.0 0.0 0.0 0.0 0.0 0.0 0.3308509330057986 0.4096578639449305 0.3321267328501346 0.2620678244980121 0.16255798850400716 0.0 0.0 0.4986100008224923 0.0 0.0 0.0 0.33730390334775073 0.3723174885867634 0.2970940008806636 0.0 0.0 0.0 0.5637700754646001 0.3340743310466563 0.3307362486073757 0.25243663108159176 0.517563268494872 0.0 0.3308509330057986 0.6110766775162609 0.0 0.0 0.0 0.0 0.0 0.43223236311145996 0.5389589723679529 0.33149790187526074 0.31863403786883804 0.2102500224116512 0.0 0.0 0.0 0.0 0.0 0.25209920221352383 0.4159943485914748 0.40889316173633217 0.4124712557380722 0.0 0.0 0.0 0.0 0.20821517265540146 0.2177782297325513 0.5969899350311257 0.0 0.0 0.0 0.0 0.0 0.3313787150969594 0.5354275189672246 0.4665422523693946 0.0 0.3670281024013017 0.0 0.0 0.2804285498288006 0.3668429873166164 0.5466857395651874 0.0 0.0 0.5092689411566423 0.0 0.0 0.0 0.0 0.4658664342378819 0.0 0.0 0.2925484569932011 0.2525650450383857 0.42223288635614575 0.0 0.4103416405325784 0.423094287923758 0.1911448941346412 0.4096578639449305 0.0 0.0 0.3307362486073757 0.3030580759768666 0.2404261135425082 0.0 0.5577090370119031 0.7813183712700926 0.7171429810580308 0.0 0.0 0.0 0.34670406830077993 0.22208388730702275 0.2695790338300204 0.0 0.5969899350311257 0.27044947337015074 0.5367541286438086 0.0 0.0 0.0 0.44251044910492704 0.38768272129240056 0.2405954494313551 0.0 0.3315252356489741 0.3715010503232704 0.2687212165726896 0.4818046745695077 0.34361407926490245 0.6340346796246302 0.422980955584986 0.40889316173633217 0.32446020504006673 0.5386169347393037 0.21643475245732485 0.2438502148553033 0.3923697505349887 0.3965359648032663 0.2192458243569377 0.34017215594104666 0.17133577576125575 0.4546617119581322 0.3899496058938745 0.2076908197345944 0.2227777052214428 0.0 0.42348400942662 0.5501921070886717 0.38990484466475217 0.251398979523601 0.2760610789099315 0.3922420332502778 0.16759603247013333 0.0 0.0 0.0 0.0 0.22744816742690155 0.38354141188861385 0.1706847359970886 0.0 0.0 0.0 0.0 0.724145120492616 0.24608152089113244 0.22118080792313974 0.3390089824510876 0.27692556976589866 0.4268540394529505 0.0 0.0 0.0 0.4100868587519 0.4902591762644981 0.352953389742544 0.4258978518711764 0.0 0.21236550888671665 0.21267785049350574 0.2444135627660612 0.0 0.0 0.0 0.3743918242566846 0.4860355028853821 0.0 0.4481559924546779 0.1938648853285588 0.0 0.0 0.0 0.0 0.0 0.29585221264666584 0.20710816160335427 0.3663595409554676 0.0 0.0 0.0 0.1878491460083584 0.3793732585359423 0.20418628143418985 0.0 0.0 0.2126634232625164 0.3587702564875261 0.496317850075507 0.3705209712350984 0.22480857818082545 0.27656294927316666 0.0 0.4923798149618575 0.2803228568839101 0.4659066470713769 0.0 0.0 0.3160584116458349 0.4272006434936293 0.0 0.44740209978779705 0.22479492016562025 0.3316450216200717 0.19168001030794235 0.224346599597968 0.4454780881847909 0.13611192649064455 0.209230518924272 0.2371501876300748 0.0 0.4824247761582791 0.20228829759654585 0.3395504581754773 0.4126062267709621 0.4270470613344989 0.15249965166258306 0.0 0.17412179338536524 0.30272273152589474 0.0 0.0 0.0 0.0 0.0 0.0 0.0 0.0 0.0 0.0 0.6142679152456252 0.2074338582090754 0.05528419885912306 0.4789169414534351 0.33941575722549305 0.5829710939098316 0.35484997304342714 0.40889316173633217 0.41743266968463777 0.21677637725021728 0.0 0.3372457016720048 0.0 0.0 0.0 0.1993335130683536 0.2533531533490652 0.0 0.0 0.0 0.4401892079944021 0.3871103963371533 0.5092689411566423 0.2852649989518087 0.5097006451621826 0.5092689411566423 0.4764287882691582 0.30741296404780605 0.2927600001065811 0.26898648526161795 0.2741090237101098 0.2879372815314181 0.3769383154854051 0.2683012311833969 0.2919886828696199 0.5266823845866629 0.203277401043038 0.3334302160656818 0.0 0.0 0.0
109543 0.34879493213741397 0.4061980718485733 0.0 0.0 0.08449089620689895 0.4889668764872887 0.3884491801431972 0.4485333641973677 0.0 0.37117153092972255 0.3701997855791788 0.0 0.0 0.0 0.0 0.7070268533058652 0.3158498113018359 0.0 0.7004560273733222 0.6309878770209385 0.6210833243550095 0.5308076443938987 0.0 0.0 0.0 0.0 0.0 0.0 0.0 0.0 0.0 0.0 0.0 0.0 0.0 0.0 0.0 0.2411582768453921 0.0 0.0 0.3391826447820882 0.0 0.0 0.0 0.4557874858993741 0.4908010711383868 0.4155775834322871 0.0 0.0 0.0 0.6284298356608549 0.6912076601142347 0.6546839189794673 0.5730805858537982 0.6511606038138482 0.0 0.4493345155574221 0.5092172302726707 0.0 0.0 0.0 0.0 0.0 0.5981689509070451 0.6725725240988498 0.4499814844268842 0.4824268181884999 0.32873360496327464 0.0 0.0 0.0 0.0 0.0 0.3705827847651473 0.5448408719006012 0.5273767442879556 0.5309548382896956 0.0 0.0 0.0 0.0 0.0 0.33626181228417473 0.7851937058581535 0.0 0.0 0.0 0.0 0.0 0.4498622976485828 0.700001774361144 0.7629163953766759 0.0 0.5666382109368646 0.0 0.0 0.6143392325673978 0.5334413678164899 0.7160106374468308 0.0 0.0 0.3613895361273394 0.0 0.0 0.0 0.0 0.5891250122059365 0.0 0.0 0.4110320395448245 0.3710486275900091 0.5407164689077693 0.0 0.0 0.0 0.3096284766862646 0.5281414464965541 0.0 0.0 0.0 0.4990033772735714 0.3589096960941316 0.0 0.5207832805008266 0.5988554178686767 0.6127556606216586 0.0 0.0 0.0 0.4633864229505407 0.34056746985864617 0.3880626163816439 0.0 0.7851937058581535 0.3889330559217742 0.7021098591119852 0.0 0.0 0.0 0.6612778068560076 0.6652772850917007 0.5481657200270895 0.0 0.4500088182005975 0.4547381492998733 0.38720479912431305 0.3889793206178894 0.4607043803151681 0.0 0.5405056194372104 0.5273767442879556 0.4038295083264303 0.7041437730187321 0.33491833500894824 0.33925223149182115 0.0 0.0 0.5144742395792463 0.3812451018797304 0.2656057649059181 0.3713920514984871 0.5163648721880351 0.3028911127192149 0.3170510980276343 0.0 0.2845897629338955 0.7143756249454623 0.5643633628987208 0.3698825620752245 0.3714630955464493 0.26076858795288577 0.3709879729075107 0.0 0.0 0.0 0.0 0.32285018406341937 0.3084881771498256 0.0 0.0 0.0 0.0 0.0 0.0 0.5905768609029634 0.4461965305748475 0.4834441444292374 0.3710607954037293 0.5387902046556694 0.0 0.0 0.0 0.3337085829664165 0.34147228789981354 0.4470728243764664 0.28189890351117425 0.0 0.3077675255232345 0.30807986713002355 0.339815579402579 0.0 0.0 0.0 0.3948216768477272 0.766435462346042 0.0 0.4621459120043229 0.0 0.0 0.0 0.0 0.0 0.0 0.0 0.0 0.2711273132562385 0.0 0.0 0.0 0.30633272855998184 0.5192057805417518 0.29945899714468743 0.0 0.0 0.0 0.25266855536232025 0.6202638976118247 0.25610501222772525 0.3202105948173433 0.5383526517065472 0.0 0.6458399765055987 0.3755231498685305 0.60855210625441 0.0 0.0 0.0 0.5379787930954444 0.0 0.6033986125124843 0.0 0.0 0.0 0.3197486162344857 0.25523447942715805 0.2098469189797333 0.2833762001742044 0.3192061219231008 0.0 0.4316850260629535 0.2812032307071652 0.3080522146566331 0.22194356052270747 0.29841900671713395 0.2271198924397739 0.0 0.2523933721899063 0.19519600401640547 0.0 0.0 0.0 0.0 0.0 0.0 0.0 0.0 0.0 0.0 0.0 0.0 0.05738280724735155 0.6665122725040172 0.5118425557615185 0.8456894580087225 0.4733335555950505 0.5273767442879556 0.5455402481541527 0.33525995980184065 0.0 0.4671665070637159 0.0 0.0 0.0 0.0 0.0 0.0 0.0 0.0 0.2662097354634592 0.25575991242703744 0.3613895361273394 0.3646343022381722 0.3618212401328797 0.3613895361273394 0.3459803794448803 0.5412484571701528 0.4112435826582045 0.3874700678132413 0.3925926062617332 0.4064208640830415 0.5166446855772795 0.3867848137350204 0.4331077639099934 0.3449744174697813 0.29867941767955586 0.4519137986173052 0.0 0.0 0.0
109800 0.34879493213741397 0.4061980718485733 0.0 0.0 0.08449089620689895 0.37228919517387615 0.3884491801431972 0.4485333641973677 0.0 0.0 0.0 0.0 0.0 0.0 0.0 0.0 0.4215425246938034 0.0 0.7004560273733222 0.853243547835602 0.5931145761968641 0.3636571066925206 0.0 0.0 0.0 0.0 0.0 0.0 0.0 0.0 0.0 0.0 0.0 0.0 0.0 0.0 0.0 0.34622851409500577 0.0 0.0 0.0 0.0 0.0 0.0 0.0 0.0 0.0 0.0 0.0 0.0 0.4096265243732973 0.4525579135982797 0.4492198311589991 0.3709202136332152 0.4107246125871909 0.0 0.0 0.5092172302726707 0.0 0.0 0.0 0.0 0.0 0.5981689509070451 0.0 0.4499814844268842 0.4824268181884999 0.32873360496327464 0.0 0.0 0.0 0.0 0.0 0.3705827847651473 0.7266292292964744 0.5273767442879556 0.5309548382896956 0.0 0.0 0.0 0.0 0.0 0.0 0.5387528720537669 0.0 0.0 0.0 0.0 0.0 0.0 0.0 0.5012334131188567 0.0 0.0 0.0 0.0 0.4314747937622325 0.5334413678164899 0.7160106374468308 0.0 0.0 0.3613895361273394 0.0 0.0 0.0 0.0 0.0 0.0 0.0 0.4110320395448245 0.3710486275900091 0.5407164689077693 0.0 0.0 0.0 0.3096284766862646 0.5281414464965541 0.0 0.0 0.0 0.5153918799915882 0.0 0.0 0.0 0.5988554178686767 0.6127556606216586 0.0 0.0 0.0 0.4633864229505407 0.4529692033725488 0.529936593030185 0.0 0.0 0.3889330559217742 0.7021098591119852 0.0 0.0 0.0 0.4976333998495317 0.4130782291668881 0.3590790319829785 0.0 0.0 0.43604553978496174 0.38720479912431305 0.3889793206178894 0.4607043803151681 0.0 0.7612654143037181 0.6726331969166622 0.4038295083264303 0.8363061725026362 0.33491833500894824 0.33925223149182115 0.0 0.0 0.31464784099345555 0.0 0.2656057649059181 0.3713920514984871 0.33886988038752186 0.3028911127192149 0.3170510980276343 0.0 0.0 0.0 0.0 0.0 0.0 0.0 0.3442167111735308 0.0 0.0 0.0 0.0 0.0 0.3084881771498256 0.0 0.0 0.0 0.0 0.0 0.0 0.34140445634726724 0.0 0.3629242690445536 0.5564230512051189 0.3659992785522211 0.0 0.0 0.0 0.3337085829664165 0.34147228789981354 0.0 0.3746216679345222 0.0 0.4903086538730603 0.4054721349781419 0.339815579402579 0.0 0.0 0.0 0.3955007009773535 0.5952373110296848 0.0 0.3830116108457676 0.0 0.0 0.0 0.0 0.0 0.0 0.0 0.0 0.2711273132562385 0.0 0.0 0.0 0.0 0.5192057805417518 0.29945899714468743 0.0 0.0 0.0 0.3382659340446996 0.0 0.3582731505216017 0.4252244154595271 0.4936394800011678 0.0 0.6458399765055987 0.3755231498685305 0.60855210625441 0.0 0.0 0.0 0.3663458825928997 0.0 0.4875787399504872 0.0 0.0 0.0 0.3197486162344857 0.0 0.0 0.2833762001742044 0.3192061219231008 0.0 0.22285485710157293 0.39945838928973787 0.0 0.0 0.29841900671713395 0.0 0.0 0.3546685476034823 0.19519600401640547 0.0 0.0 0.0 0.0 0.0 0.0 0.0 0.0 0.0 0.0 0.0 0.0 0.05738280724735155 0.7161853739021325 0.3390883928032634 0.7071295222358336 0.4733335555950505 0.5273767442879556 0.4194175985678402 0.4153377514615151 0.0 0.0 0.0 0.0 0.0 0.0 0.0 0.0 0.0 0.0 0.0 0.0 0.3613895361273394 0.3646343022381722 0.3618212401328797 0.3613895361273394 0.3459803794448803 0.42589654659942944 0.4112435826582045 0.3874700678132413 0.3925926062617332 0.4064208640830415 0.3718160338755376 0.3867848137350204 0.3305157792187807 0.4360417700329927 0.29867941767955586 0.4519137986173052 0.0 0.0 0.0
110100 0.3459694411578356 0.2744001896590497 0.0 0.0 0.0 0.4220922479633442 0.28045196098085784 0.30753376648213804 0.0 0.0 0.0 0.0 0.0 0.0 0.0 0.0 0.0 0.0 0.4714982044020104 0.3346941012729677 0.264817201026435 0.4028810571134707 0.0 0.0 0.0 0.0 0.0 0.0 0.0 0.0 0.0 0.0 0.0 0.0 0.0 0.0 0.0 0.0 0.0 0.0 0.0 0.0 0.0 0.0 0.0 0.0 0.0 0.0 0.0 0.0 0.0 0.0 0.0 0.0 0.19874922929037053 0.0 0.0 0.3549004797505248 0.0 0.0 0.0 0.0 0.0 0.3899186819152373 0.0 0.0 0.15412384071422452 0.35903853314871953 0.0 0.0 0.0 0.0 0.0 0.0 0.0 0.5279066977925231 0.4474618593896085 0.0 0.0 0.0 0.0 0.0 0.0 0.0 0.0 0.0 0.0 0.0 0.0 0.0 0.0 0.22053710881663208 0.0 0.0 0.0 0.0 0.0 0.4068444841161101 0.4281574686706872 0.0 0.0 0.299089581614568 0.0 0.0 0.0 0.0 0.0 0.0 0.0 0.0 0.0 0.3287248945424633 0.0 0.0 0.0 0.0 0.3781170377783661 0.0 0.0 0.0 0.0 0.0 0.0 0.0 0.0 0.0 0.0 0.0 0.0 0.0 0.2196296466847724 0.2708802897426745 0.0 0.0 0.0 0.4176449386181021 0.0 0.0 0.0 0.209652196138293 0.20109717803327007 0.1471439816722701 0.0 0.0 0.0 0.2493493490915622 0.4275383271747564 0.3664441998792423 0.0 0.0 0.0 0.26186419198222666 0.4248100595872548 0.15078556856428707 0.0 0.0 0.0 0.0 0.0 0.0 0.0 0.2902317141814388 0.26820060671288976 0.3353347484317427 0.0 0.0 0.0 0.0 0.0 0.0 0.0 0.0 0.0 0.0 0.0 0.0 0.0 0.2441957090209275 0.0 0.0 0.0 0.0 0.0 0.0 0.1710452754732464 0.0 0.0 0.322538525624776 0.33584326337672504 0.0 0.0 0.0 0.2741392038445029 0.23522971594764205 0.0 0.18640342094417026 0.0 0.0 0.30026076365250565 0.0 0.0 0.0 0.0 0.0 0.20093699988547656 0.0 0.0 0.0 0.0 0.0 0.0 0.0 0.0 0.0 0.0 0.24361452747411225 0.0 0.0 0.0 0.0 0.0 0.2319234759780453 0.0 0.0 0.0 0.0 0.0 0.27084928446489825 0.3343105244736748 0.2797083621723425 0.0 0.0 0.0 0.26268467857460426 0.0 0.0 0.0 0.0 0.0 0.2397463960745096 0.0 0.0 0.0 0.4498393639855031 0.0 0.0 0.0 0.0 0.0 0.18314363398623826 0.28015307831306985 0.0 0.0 0.0 0.0 0.0 0.3836455183012477 0.0 0.0 0.0 0.0 0.0 0.0 0.0 0.0 0.0 0.0 0.0 0.0 0.0 0.0 0.0 0.0 0.34298563256743864 0.2613419812297447 0.4773534622184229 0.2489520237231419 0.2912413669901885 0.0 0.0 0.0 0.0 0.0 0.0 0.0 0.0 0.0 0.0 0.0 0.0 0.0 0.0 0.0 0.0 0.0 0.0 0.0 0.0 0.0 0.0 0.0 0.1748336789814952 0.22397936662082385 0.36749991237595975 0.3273224235296872 0.28707991563404983 0.0 0.0 0.0
113610 0.2386765801440925 0.5244784668565746 0.0 0.0 0.3556197062582698 0.3599986877953481 0.5139766997085033 0.2726385028711115 0.0 0.39237307615912587 0.4007424468863875 0.0 0.0 0.0 0.3519189077931825 0.3519189077931825 0.3816505921713879 0.0 0.3936205861369145 0.2288573831308443 0.3008766465984159 0.1885700758442715 0.0 0.0 0.0 0.0 0.0 0.0 0.0 0.0 0.0 0.0 0.0 0.0 0.0 0.0 0.0 0.4804831372109124 0.0 0.0 0.4799468055367261 0.0 0.0 0.0 0.5084957064610435 0.5361969622556872 0.5752900176199152 0.0 0.0 0.0 0.23373166304704115 0.27666305227202354 0.2733249698327429 0.195025352306959 0.2348297512609347 0.0 0.4077808873115206 0.21114029601903872 0.0 0.0 0.0 0.0 0.0 0.2729298527587669 0.27486657256279995 0.27408662310062804 0.19018888859005165 0.6513892307780567 0.0 0.0 0.0 0.0 0.0 0.19468792343889105 0.2423202785987154 0.3514818829616994 0.35505997696343944 0.0 0.0 0.0 0.0 0.0 0.670710127043962 0.3641593533775498 0.0 0.0 0.0 0.0 0.0 0.2739674363223266 0.3785688214867769 0.2450536040569813 0.0 0.2790215150001831 0.0 0.0 0.16437030488835933 0.2874249940577791 0.3527355401312417 0.0 0.0 0.4075383532707881 0.0 0.0 0.0 0.0 0.4457715782601235 0.0 0.0 0.4901215727964618 0.4381045258221169 0.36482160758151294 0.0 0.0 0.0 0.487257522598922 0.5115720683369098 0.0 0.0 0.0 0.3046786179688625 0.1830148347678754 0.0 0.3172511598185367 0.27361631972039835 0.27400559354272275 0.0 0.0 0.0 0.2911836047652311 0.3561675215408191 0.21216775505538765 0.0 0.3641593533775498 0.416429049738244 0.3514818829616994 0.0 0.0 0.0 0.2161701136789717 0.2371833678406319 0.2757980128511257 0.0 0.4803113717828688 0.28634731639161426 0.5513829110247683 0.6439094484702196 0.5141483015888137 0.0 0.3664030132176133 0.3514818829616994 0.2860359631238488 0.3938390985526561 0.28026508270492984 0.2903046447430561 0.0 0.0 0.17318675537505046 0.3242619161178092 0.2778691072165942 0.3447019184492868 0.1974087947691168 0.5546769748333515 0.4274040558553371 0.0 0.3435375985811018 0.40754018370905465 0.27700505827256344 0.360603199103036 0.3172779382733667 0.3179241652841554 0.5113668557467297 0.0 0.0 0.0 0.0 0.4904799900504573 0.33490100453643545 0.5344701999459582 0.0 0.0 0.0 0.0 0.0 0.19999674153899047 0.39796987105009 0.18246126256739534 0.2320423465057229 0.13515275629590467 0.0 0.0 0.0 0.1965899221026976 0.2000112022814084 0.3080890529975091 0.3063077617692121 0.0 0.16630643990482935 0.3314795917437567 0.3767362028329256 0.0 0.0 0.0 0.3957686756727404 0.2299309658800819 0.0 0.2285904609338693 0.0 0.0 0.0 0.0 0.0 0.0 0.0 0.0 0.3466013290493025 0.0 0.0 0.0 0.38703334416537705 0.2678878499142826 0.2929954030553768 0.0 0.0 0.0 0.5056830321727483 0.3005084942000589 0.4323288486280886 0.3476052030439236 0.23050388029127936 0.0 0.2956403797874808 0.4890488152534957 0.397098742847094 0.0 0.0 0.0 0.2593784882370944 0.0 0.3425459926497155 0.0 0.0 0.3666142082553508 0.17828753061608066 0.3633516336286212 0.2972046337684505 0.3644717005557228 0.4804836777151678 0.0 0.16781521908721714 0.3136685191031225 0.44079254305788096 0.5227293164376983 0.18775614409303945 0.11626422479052025 0.0 0.5401448826503895 0.4351941533744916 0.0 0.0 0.0 0.0 0.0 0.0 0.0 0.0 0.0 0.0 0.0 0.5827699824603705 0.3711279023790379 0.2820965572522143 0.4382580402913428 0.3790786229591759 0.2974386942687943 0.4880219535552743 0.3757215446939111 0.4719954605146614 0.0 0.20543182596023835 0.0 0.0 0.0 0.0 0.0 0.0 0.0 0.0 0.5687310799646281 0.6223128301211285 0.4075383532707881 0.4020271175439079 0.4719930678124286 0.4075383532707881 0.4880431803235002 0.38721952216967415 0.44239995722608494 0.4254160681494379 0.4943509591464447 0.5574970513300621 0.2805909020874705 0.21088995240876413 0.582305340188199 0.34453748172734594 0.5709797334904184 0.5953095847501981 0.0 0.0 0.0
114480 0.0 0.5065282349997158 0.0 0.0 0.0 0.0 0.4861144121667301 0.4902350425410997 0.0 0.0 0.0 0.0 0.0 0.0 0.0 0.0 0.0 0.0 0.0 0.6804516897714097 0.7163843350403356 0.4047781104081453 0.0 0.0 0.0 0.0 0.0 0.0 0.0 0.0 0.0 0.0 0.0 0.0 0.0 0.0 0.0 0.0 0.0 0.0 0.0 0.0 0.0 0.0 0.0 0.0 0.0 0.0 0.0 0.0 0.0 0.0 0.0 0.0 0.0 0.0 0.0 0.5054534158335129 0.0 0.0 0.0 0.0 0.0 0.0 0.0 0.0 0.0 0.0 0.0 0.0 0.0 0.0 0.0 0.0 0.0 0.0 0.5726565166334276 0.0 0.0 0.0 0.0 0.0 0.0 0.0 0.0 0.0 0.0 0.0 0.0 0.0 0.0 0.5966426666940203 0.0 0.0 0.0 0.0 0.0 0.5248279560936132 0.7068710004605427 0.0 0.0 0.0 0.0 0.0 0.0 0.0 0.0 0.0 0.0 0.0 0.0 0.6445998735623912 0.0 0.0 0.0 0.0 0.5698431248402862 0.0 0.0 0.0 0.0 0.0 0.0 0.0 0.0 0.0 0.0 0.0 0.0 0.0 0.0 0.0 0.0 0.0 0.0 0.0 0.0 0.0 0.0 0.0 0.0 0.0 0.0 0.0 0.0 0.4289064774680451 0.4306809989616215 0.5007257184504801 0.0 0.0 0.0 0.0 0.0 0.0 0.0 0.0 0.0 0.0 0.0 0.0 0.0 0.0 0.3578236866640811 0.3708577508240952 0.0 0.0 0.0 0.0 0.0 0.0 0.0 0.0 0.0 0.0 0.0 0.0 0.0 0.0 0.0 0.0 0.0 0.0 0.0 0.0 0.3964836856041544 0.0 0.0 0.0 0.0 0.0 0.0 0.0 0.3862893751272052 0.3966192209368835 0.0 0.0 0.0 0.0 0.3632268001670936 0.0 0.0 0.0 0.0 0.0 0.5954318563773647 0.0 0.0 0.0 0.0 0.0 0.0 0.0 0.0 0.0 0.0 0.3262144692515618 0.0 0.0 0.0 0.0 0.0 0.0 0.0 0.0 0.0 0.0 0.0 0.0 0.3753575278544133 0.4271118989467545 0.0 0.0 0.0 0.6164555967449648 0.0 0.0 0.0 0.0 0.0 0.4852837353460441 0.0 0.0 0.0 0.0 0.0 0.0 0.0 0.0 0.0 0.0 0.0 0.0 0.0 0.0 0.0 0.0 0.0 0.0 0.0 0.0 0.0 0.0 0.0 0.0 0.0 0.0 0.0 0.0 0.0 0.0 0.0 0.0 0.0 0.0 0.0 0.0 0.5544271653737268 0.4221252077819033 0.0 0.0 0.0 0.0 0.0 0.0 0.0 0.0 0.0 0.0 0.0 0.0 0.0 0.0 0.0 0.0 0.0 0.0 0.0 0.0 0.0 0.0 0.0 0.0 0.0 0.38667609581351337 0.3538263507166259 0.4936154769610373 0.0 0.0 0.0
114500 0.0 0.28313654718623504 0.0 0.0 0.0 0.0 0.26538765548085896 0.3254718395350295 0.0 0.0 0.0 0.0 0.0 0.0 0.0 0.0 0.0 0.0 0.0 0.0 0.6755497075778131 0.2411092395135997 0.0 0.0 0.0 0.0 0.0 0.0 0.0 0.0 0.0 0.0 0.0 0.0 0.0 0.0 0.0 0.0 0.0 0.0 0.0 0.0 0.0 0.0 0.0 0.0 0.0 0.0 0.0 0.0 0.0 0.0 0.0 0.0 0.0 0.0 0.0 0.596779341941645 0.0 0.0 0.0 0.0 0.0 0.0 0.0 0.0 0.0 0.0 0.0 0.0 0.0 0.0 0.0 0.0 0.0 0.0 0.0 0.0 0.0 0.0 0.0 0.0 0.0 0.0 0.0 0.0 0.0 0.0 0.0 0.0 0.0 0.5379939760857255 0.0 0.0 0.0 0.0 0.0 0.4933862222285178 0.6812914976536333 0.0 0.0 0.0 0.0 0.0 0.0 0.0 0.0 0.0 0.0 0.0 0.0 0.41765494424543104 0.0 0.0 0.0 0.0 0.4050799218342159 0.0 0.0 0.0 0.0 0.0 0.0 0.0 0.0 0.0 0.0 0.0 0.0 0.0 0.0 0.0 0.0 0.0 0.0 0.0 0.0 0.0 0.0 0.0 0.0 0.0 0.0 0.0 0.0 0.26414327446197483 0.3839004368812853 0.33914956560950177 0.0 0.0 0.0 0.0 0.0 0.0 0.0 0.0 0.0 0.0 0.0 0.0 0.0 0.0 0.0 0.2253685346085036 0.0 0.0 0.0 0.0 0.0 0.0 0.0 0.0 0.0 0.0 0.0 0.0 0.0 0.0 0.0 0.0 0.0 0.0 0.0 0.0 0.2485810775754427 0.0 0.0 0.0 0.0 0.0 0.0 0.0 0.3359272088514623 0.4119129693281589 0.0 0.0 0.0 0.0 0.31326424985693624 0.0 0.0 0.0 0.0 0.0 0.5575690957205675 0.0 0.0 0.0 0.0 0.0 0.0 0.0 0.0 0.0 0.0 0.2428702531524524 0.0 0.0 0.0 0.0 0.0 0.0 0.0 0.0 0.0 0.0 0.0 0.0 0.3401050281303907 0.40774561911934254 0.0 0.0 0.0 0.6459457395209506 0.0 0.0 0.0 0.0 0.0 0.5068496069963275 0.0 0.0 0.0 0.0 0.0 0.0 0.0 0.0 0.0 0.0 0.0 0.0 0.0 0.0 0.0 0.0 0.0 0.0 0.0 0.0 0.0 0.0 0.0 0.0 0.0 0.0 0.0 0.0 0.0 0.0 0.0 0.0 0.0 0.0 0.0 0.0 0.3265397009852194 0.2887212897279345 0.0 0.0 0.0 0.0 0.0 0.0 0.0 0.0 0.0 0.0 0.0 0.0 0.0 0.0 0.0 0.0 0.0 0.0 0.0 0.0 0.0 0.0 0.0 0.0 0.0 0.4411367963156283 0.20580152009693506 0.32885227395496697 0.0 0.0 0.0
114550 0.0 0.4013479501990392 0.0 0.0 0.0 0.0 0.0 0.3974911030026012 0.0 0.0 0.0 0.0 0.0 0.0 0.0 0.0 0.0 0.0 0.0 0.0 0.0 0.44333675466479583 0.0 0.0 0.0 0.0 0.0 0.0 0.0 0.0 0.0 0.0 0.0 0.0 0.0 0.0 0.0 0.0 0.0 0.0 0.0 0.0 0.0 0.0 0.0 0.0 0.0 0.0 0.0 0.0 0.0 0.0 0.0 0.0 0.0 0.0 0.0 0.5366042761531775 0.0 0.0 0.0 0.0 0.0 0.0 0.0 0.0 0.0 0.0 0.0 0.0 0.0 0.0 0.0 0.0 0.0 0.0 0.0 0.0 0.0 0.0 0.0 0.0 0.0 0.0 0.0 0.0 0.0 0.0 0.0 0.0 0.0 0.0 0.0 0.0 0.0 0.0 0.0 0.4182405915419254 0.5988167744966159 0.0 0.0 0.0 0.0 0.0 0.0 0.0 0.0 0.0 0.0 0.0 0.0 0.0 0.0 0.0 0.0 0.0 0.4770991853017875 0.0 0.0 0.0 0.0 0.0 0.0 0.0 0.0 0.0 0.0 0.0 0.0 0.0 0.0 0.0 0.0 0.0 0.0 0.0 0.0 0.0 0.0 0.0 0.0 0.0 0.0 0.0 0.0 0.0 0.0 0.4095345374728183 0.0 0.0 0.0 0.0 0.0 0.0 0.0 0.0 0.0 0.0 0.0 0.0 0.0 0.0 0.0 0.0 0.0 0.0 0.0 0.0 0.0 0.0 0.0 0.0 0.0 0.0 0.0 0.0 0.0 0.0 0.0 0.0 0.0 0.0 0.0 0.0 0.31470437166251336 0.0 0.0 0.0 0.0 0.0 0.0 0.0 0.4934970390645431 0.6010455819478602 0.0 0.0 0.0 0.0 0.0 0.0 0.0 0.0 0.0 0.0 0.0 0.0 0.0 0.0 0.0 0.0 0.0 0.0 0.0 0.0 0.0 0.3434449836252029 0.0 0.0 0.0 0.0 0.0 0.0 0.0 0.0 0.0 0.0 0.0 0.0 0.2935054535102782 0.3452598246026194 0.0 0.0 0.0 0.5202870772746058 0.0 0.0 0.0 0.0 0.0 0.0 0.0 0.0 0.0 0.0 0.0 0.0 0.0 0.0 0.0 0.0 0.0 0.0 0.0 0.0 0.0 0.0 0.0 0.0 0.0 0.0 0.0 0.0 0.0 0.0 0.0 0.0 0.0 0.0 0.0 0.0 0.0 0.0 0.0 0.0 0.0 0.0 0.536183295983897 0.3169449229812267 0.0 0.0 0.0 0.0 0.0 0.0 0.0 0.0 0.0 0.0 0.0 0.0 0.0 0.0 0.0 0.0 0.0 0.0 0.0 0.0 0.0 0.0 0.0 0.0 0.0 0.0 0.0 0.40087153742253867 0.0 0.0 0.0
114580 0.0 0.2426290020133713 0.0 0.0 0.0 0.0 0.0 0.3837916014188788 0.0 0.0 0.0 0.0 0.0 0.0 0.0 0.0 0.0 0.0 0.0 0.0 0.0 0.0 0.0 0.0 0.0 0.0 0.0 0.0 0.0 0.0 0.0 0.0 0.0 0.0 0.0 0.0 0.0 0.0 0.0 0.0 0.0 0.0 0.0 0.0 0.0 0.0 0.0 0.0 0.0 0.0 0.0 0.0 0.0 0.0 0.0 0.0 0.0 0.346534825307827 0.0 0.0 0.0 0.0 0.0 0.0 0.0 0.0 0.0 0.0 0.0 0.0 0.0 0.0 0.0 0.0 0.0 0.0 0.0 0.0 0.0 0.0 0.0 0.0 0.0 0.0 0.0 0.0 0.0 0.0 0.0 0.0 0.0 0.0 0.0 0.0 0.0 0.0 0.0 0.346227001607301 0.5001121942776603 0.0 0.0 0.0 0.0 0.0 0.0 0.0 0.0 0.0 0.0 0.0 0.0 0.0 0.0 0.0 0.0 0.0 0.3640238360968763 0.0 0.0 0.0 0.0 0.0 0.0 0.0 0.0 0.0 0.0 0.0 0.0 0.0 0.0 0.0 0.0 0.0 0.0 0.0 0.0 0.0 0.0 0.0 0.0 0.0 0.0 0.0 0.0 0.0 0.0 0.3024314049802968 0.0 0.0 0.0 0.0 0.0 0.0 0.0 0.0 0.0 0.0 0.0 0.0 0.0 0.0 0.0 0.0 0.0 0.0 0.0 0.0 0.0 0.0 0.0 0.0 0.0 0.0 0.0 0.0 0.0 0.0 0.0 0.0 0.0 0.0 0.0 0.0 0.21067068945084325 0.0 0.0 0.0 0.0 0.0 0.0 0.0 0.0 0.3650199301889903 0.0 0.0 0.0 0.0 0.0 0.0 0.0 0.0 0.0 0.0 0.0 0.0 0.0 0.0 0.0 0.0 0.0 0.0 0.0 0.0 0.0 0.3109614892928736 0.0 0.0 0.0 0.0 0.0 0.0 0.0 0.0 0.0 0.0 0.0 0.0 0.2803146406867365 0.0 0.0 0.0 0.0 0.30142885931833197 0.0 0.0 0.0 0.0 0.0 0.0 0.0 0.0 0.0 0.0 0.0 0.0 0.0 0.0 0.0 0.0 0.0 0.0 0.0 0.0 0.0 0.0 0.0 0.0 0.0 0.0 0.0 0.0 0.0 0.0 0.0 0.0 0.0 0.0 0.0 0.0 0.0 0.0 0.0 0.0 0.0 0.0 0.4751484256576194 0.3016608320417835 0.0 0.0 0.0 0.0 0.0 0.0 0.0 0.0 0.0 0.0 0.0 0.0 0.0 0.0 0.0 0.0 0.0 0.0 0.0 0.0 0.0 0.0 0.0 0.0 0.0 0.0 0.0 0.2880045405807485 0.0 0.0 0.0
115000 0.24773759497626724 0.4630353601795473 0.0 0.4574305727893979 0.5080410117847762 0.4075278624576229 0.4508256044494709 0.34055313099137463 0.2714239777991956 0.4252963517239266 0.454034000457238 0.42339458706725697 0.2824830413486461 0.3019419621765247 0.4190322632267903 0.4190322632267903 0.26128941485309753 0.4051140271172787 0.4590536013621024 0.29747744852112395 0.36786242038444056 0.2602878354914825 0.0 0.5236086844268988 0.3567038371659512 0.22352955466600133 0.2827657936448551 0.4744721950458821 0.5301303252265821 0.4469331411128428 0.5039044979619147 0.4397257855746507 0.3361749997655825 0.3417081849938788 0.4195080496248308 0.3436152166172239 0.2721167684691538 0.33575131775342953 0.2441658125613524 0.4645950630371927 0.4110867566743349 0.0 0.0 0.3029258024206883 0.5917972366633893 0.4721759249096798 0.5074593420583173 0.0 0.4215980043230994 0.30309066792758177 0.4066870183531338 0.3466449774366426 0.3415477270515658 0.3949400586740991 0.3039828793064248 0.3415477270515658 0.4453073454173479 0.2805889317399515 0.0 0.4553683895634981 0.3727867697283903 0.3417675477274238 0.4948772966887034 0.3409720625266132 0.34388027842025765 0.34268255659081925 0.3615923124483481 0.464706609485971 0.0 0.0 0.35880999685542103 0.34531900317514463 0.4184038659239324 0.2640239731041222 0.2870283488480766 0.4184038659239324 0.4237637589734621 0.0 0.0 0.0 0.2626168244780402 0.22123953113319614 0.43931852065002575 0.43821978923301896 0.0 0.0 0.0 0.3087877935830565 0.4190322632267903 0.34240743403366314 0.4444981592909798 0.29123107868514136 0.0 0.3576587837088417 0.0 0.3158414332048396 0.29589112933879463 0.26367974574115105 0.42022549102800616 0.2816805930022338 0.4188641728497745 0.4158097610861972 0.0 0.0 0.6545968950747632 0.3055991846751066 0.3422866091525757 0.0 0.4601089593305362 0.4156684791160181 0.3640007184297088 0.4316550806769561 0.2870463020136268 0.4205138802447887 0.2542456928129838 0.3219259283787359 0.5540527477526502 0.0 0.34709339956433616 0.3415477270515658 0.4508847997524752 0.2522808688990033 0.22977846639342026 0.2667247194894172 0.3419666585868044 0.3425602193000736 0.4184038659239324 0.4449170908262184 0.4043172131985249 0.4920487361559249 0.31081916579996344 0.28212472431052554 0.21028787113473127 0.43821978923301896 0.4689956064214317 0.4184038659239324 0.0 0.3849782208551239 0.2641826363333133 0.3801729440551901 0.3076233819747776 0.33459699505698826 0.0 0.4462950900960135 0.406266349305172 0.4432897395701417 0.4342172406304721 0.668406761888069 0.3003913503588349 0.4421996102708442 0.4184038659239324 0.41071756460714337 0.4593678000135314 0.6268251862111374 0.2543961040626883 0.31874232810300074 0.304350079449432 0.2288021565663135 0.40606171766022425 0.239928516194719 0.2863061081939444 0.2538440122122392 0.4748210213597461 0.4321922559393312 0.0 0.4254775139633165 0.4729731989342425 0.28940847000394504 0.39731345714623023 0.3626229297901584 0.3517644562585325 0.2869086910523378 0.0 0.34935250904473314 0.0 0.0 0.3909382794641031 0.34373247970179643 0.3683940565766241 0.0 0.3553464920151961 0.4264171223545829 0.5455150409821038 0.33185828315385385 0.2575773732078029 0.3363635740518366 0.2720016249052616 0.292733285394132 0.28231786549087856 0.25527531511017243 0.315294689964309 0.25293319966020233 0.2652168429990408 0.2577180052877107 0.3723209000273548 0.3068287186181853 0.3723209000273548 0.22347827391926228 0.31255820633229914 0.4599422913953262 0.4795883097789052 0.2741786646893424 0.24997662277274504 0.3576934949805037 0.2863061081939444 0.18421051430950555 0.2815646266043813 0.21029922817008706 0.4028339120490608 0.0 0.1265689910632638 0.3383952141504116 0.28649086219381964 0.4955760756412732 0.4644477637198705 0.2959025775823728 0.2802562892739041 0.4090702082745288 0.0 0.2829386981280317 0.2697362718576127 0.27985911322510104 0.2354761603638941 0.2493262818909807 0.4366978886454419 0.27970531529629605 0.3998106537035013 0.3791862682389249 0.3447231994199205 0.2871849083216434 0.21814340849440533 0.3523182573152809 0.4468447853842819 0.3463198638446452 0.0 0.3666264239932421 0.22566415215879976 0.3639606994892034 0.3645915089883063 0.3065232065426122 0.2356025903939426 0.239117296394476 0.30795949280365625 0.2349488992248163 0.3501228719577949 0.2379530231261117 0.3935590504182908 0.39864958555873936 0.0 0.15906678602602164 0.3002553170671093 0.2648566674286596 0.3848900031387113 0.2322032158364284 0.1620923013415072 0.0 0.289095616742856 0.3867543077256064 0.0 0.0 0.0 0.0 0.2800491939722931 0.4190322632267903 0.28188979963993593 0.2639559184342737 0.4439773817309336 0.4469281513430169 0.5741293437297519 0.4541483031066494 0.35643980226592376 0.3550403901713847 0.34769570354257395 0.44523428175824536 0.3636659890376919 0.4184038659239324 0.3323644742822779 0.3258032080923121 0.2622872218990947 0.2665203101177644 0.0 0.0 0.4897448457633261 0.4004624005479649 0.4934537913404027 0.4886134270571062 0.3355770327079869 0.3342737356473852 0.3356970334194086 0.35805820181995024 0.4158097610861972 0.4211416392412156 0.4239345027123772 0.4158097610861972 0.4160351955805893 0.5936196246012244 0.49940011049151795 0.4836073675568766 0.4599150240663168 0.4552577457308937 0.3968880089836049 0.2802157129647997 0.4311183386477928 0.4036199141851936 0.3532050941308986 0.4676835559992093 0.0 0.5936196246012244 0.5783785055206657
115195 0.3498610581030123 0.4070147041866325 0.0 0.4506297623125885 0.08568412400811476 0.3731058275119353 0.3892658124812564 0.44934999653542695 0.434772254422397 0.5283762876472327 0.3710164179172379 0.5315354811635475 0.3505919540058162 0.4101468189058745 0.5286304014574978 0.5286304014574978 0.3166367198812128 0.3527355401312417 0.5703320798012299 0.4055688767951597 0.4775881402627313 0.3645722092165153 0.0 0.0 0.4584783491003746 0.32992421244494075 0.3177590166569088 0.0 0.0 0.0 0.0 0.5404330819701515 0.3505927658895112 0.4501511478954813 0.5289580788346133 0.4514269477398173 0.3813680393876947 0.2418749158323393 0.0 0.36067211369884494 0.33999927712014744 0.0 0.0 0.0 0.4566041182374334 0.4916177034764461 0.4163942157703463 0.0 0.0 0.41093748617920334 0.5173722535188711 0.45337454593633897 0.4500364634970584 0.5195150421973389 0.4115412449252501 0.0 0.4501511478954813 0.38785178968335415 0.0 0.0 0.5243005411065458 0.4501857679817885 0.4505949836745212 0.4496413464230823 0.4515780662271154 0.4507981167649434 0.5477442531969139 0.3295502373013339 0.0 0.0 0.4725894372490838 0.5223665701716279 0.5281933766260148 0.3713994171032065 0.35774780407234513 0.5281933766260148 0.5317714706277549 0.0 0.0 0.0 0.3700940016395682 0.3275153875450841 0.4172948199034834 0.5397355672390058 0.0 0.0 0.0 0.4147024258966463 0.5286304014574978 0.4506789299866421 0.5552803151510923 0.3652636043937541 0.0 0.45025581271808623 0.0 0.3506282063983404 0.4619361504929851 0.3655408875367123 0.5294470337955571 0.0 0.4139407432259665 0.36220616846539866 0.0 0.0 0.09918668626661756 0.3525569618253689 0.4505349285847523 0.0 0.0 0.41184867188288377 0.3718652599280684 0.5415331012458284 0.0 0.5296418554222609 0.3169335739826131 0.3104451090243238 0.5289580788346133 0.0 0.2183463197253357 0.4500364634970584 0.4834887749984226 0.3597263284321908 0.20028845378510124 0.31023961592391874 0.4503278133847138 0.4507170872070382 0.5281933766260148 0.5555716650387477 0.0 0.5790251778305644 0.3413841021967054 0.3888792487197031 0.2193381336967839 0.5397355672390058 0.38974968825983336 0.5281933766260148 0.0 0.3728103445310771 0.0 0.4895919129621755 0.4138948615049473 0.4513700819889727 0.0 0.4508254505386567 0.4396558061498549 0.3880214314623723 0.3897959529559487 0.4618976081163839 0.3784309350434519 0.5415574334780409 0.5281933766260148 0.5571356239079603 0.5705505922169716 0.7038520290173762 0.3399865171968952 0.2580462360672197 0.3814843150779683 0.3153821266985296 0.4021452731342722 0.2666158859550771 0.3721263372035611 0.3396041660925959 0.3036403967410156 0.59581814357879 0.0 0.4033186247221832 0.5842516773733701 0.3055147215661458 0.6090829748284861 0.737995079944973 0.5387318938604089 0.5191974104337258 0.0 0.0 0.0 0.0 0.3235844697684934 0.3092224628548997 0.2666343130035098 0.0 0.0 0.0 0.6492021113257146 0.4240241970964893 0.3421227515884645 0.3163570087911206 0.3662050068668571 0.3721126094445597 0.38454132860125295 0.0 0.0 0.0 0.3350446835710277 0.3422065736048876 0.4481295906105248 0.28264818753297505 0.4481295906105248 0.3085018112283085 0.3088141528350976 0.4691890191497796 0.5841470763449159 0.27816482193639125 0.3282222849263443 0.476315924892181 0.3721263372035611 0.0 0.394315118745617 0.2890410861965397 0.0 0.0 0.0 0.0 0.3672655998043837 0.4151524275363485 0.3032444639449461 0.2718439522431856 0.0 0.4291984927398794 0.0 0.3071493608980411 0.3477246524802069 0.3001898887468209 0.0 0.0 0.3087997256041083 0.253417839384121 0.4829563470223344 0.3509432429353447 0.3209448805224173 0.3726992516147585 0.0 0.4378357511109599 0.3762724338903313 0.4338529694293128 0.0 0.4694464775686153 0.2894509251576908 0.4126078121419678 0.3640241776444889 0.27154065199550376 0.3209312225072121 0.25779039092881034 0.2878163126495342 0.3204829019395598 0.25582531077695736 0.2105962030015341 0.2840247074434786 0.3198005246717829 0.0 0.22345908651886776 0.2817651591480573 0.2118197076593536 0.22258627862075564 0.2989825839017262 0.2276623566678929 0.0 0.2530739867060133 0.3408452495544436 0.0 0.0 0.0 0.0 0.0 0.5286304014574978 0.052629166280897886 0.3710054493691112 0.5543808923013585 0.5575827255555461 0.6711833914258816 0.3267340730987581 0.2979866774295257 0.4577342149689253 0.3398226785083375 0.5557901166234913 0.4741501879331098 0.5281933766260148 0.4201518842729143 0.3360765921398999 0.0 0.41063701277184494 0.0 0.0 0.3744379810904096 0.2954698154099455 0.37265336823874784 0.0 0.30599672415021284 0.4816969677174852 0.2672758614290575 0.4514865734765287 0.36220616846539866 0.36520091443687397 0.3626378724709389 0.36220616846539866 0.34679701178293953 0.5941087858937832 0.4120602149962637 0.3882867001513006 0.3934092385997925 0.40723749642110063 0.4856446830663073 0.3876014460730796 0.3313324115568399 0.43713919477766827 0.2994137033846299 0.4527304309553645 0.0 0.0 0.0
115300 0.4054249982412384 0.3368637985857084 0.0 0.3802537948765072 0.09993964556544664 0.4427653816843993 0.31876266005676324 0.5304551825139364 0.2570571818915508 0.4146613128243824 0.3010332250268343 0.0 0.5115709712999406 0.3398064368996814 0.4574692679202666 0.4574692679202666 0.3695430507663552 0.2830647135049642 0.4982019606533517 0.33527088759787005 0.40636112491234055 0.5145189928992682 0.0 0.0 0.0 0.3449080350678607 0.3698011681658404 0.0 0.0 0.0 0.0 0.8438306887075161 0.3828839723555369 0.6362208734486573 0.5810974988118566 0.5379901844386155 0.4184789215900196 0.1982794728300164 0.0 0.2909946949512726 0.27037325214112656 0.0 0.0 0.0 0.3878482288712646 0.4202031694248837 0.3473280917160656 0.0 0.0 0.0 0.34017210211820736 0.3837266443139653 0.3795149341979112 0.4616392242995564 0.3415308473540419 0.0 0.5373421848854519 0.31801269053454795 0.0 0.0 0.0 0.0 0.0 0.3790273805732097 0.38145192167048797 0.38046494837344536 0.29642679199081057 0.26079909829510955 0.0 0.0 0.0 0.5234090314339771 0.6480760094574242 0.4777032501710669 0.3116935600620777 0.6480760094574242 0.7134158011482192 0.0 0.0 0.0 0.4067179462276795 0.35559565353737943 0.3534549005994857 0.4734920808565354 0.0 0.0 0.0 0.0 0.6559018278579576 0.38023250311184825 0.4834402503001832 0.3171502515337131 0.0 0.3676631682118828 0.0 0.40085634933925385 0.3753485312864947 0.5161206598308725 0.6706390157930471 0.0 0.0 0.2928914459848123 0.0 0.0 0.0 0.0 0.3801351447687824 0.0 0.0 0.34193204449941017 0.30208390148984376 0.4701415900510871 0.0 0.4587205949844064 0.2760931289795091 0.3050336117658972 0.4578729418456775 0.0 0.17492787314692548 0.590714902642395 0.4415478555286711 0.5440178161741012 0.25543851006711216 0.3694193127147357 0.3798721658987261 0.380363236502926 0.4569334203690443 0.4837974820009982 0.0 0.4048913968101038 0.3547115075608025 0.4604523480249284 0.2606598881650021 0.4734920808565354 0.3193958800476687 0.6480760094574242 0.0 0.0 0.0 0.41857508272344496 0.3445190965499786 0.28983688785466355 0.0 0.3804879462670584 0.35913442098570525 0.3179394394140551 0.3204795018434703 0.3991485589921142 0.2273777371109432 0.4767042591084327 0.4569334203690443 0.3564925162965213 0.4984698844289628 0.2661558123873497 0.5050173926743073 0.266934282901735 0.4743283772573169 0.259254151721562 0.3862772988502374 0.2684714645847193 0.3164142102026467 0.2839615964948965 0.2496593752349489 0.4896070492907314 0.0 0.23099541923539801 0.5121215582254918 0.4273146244233359 0.3009128336262007 0.316503641476215 0.2988020874869413 0.2778261549920338 0.0 0.0 0.0 0.0 0.3569968822883586 0.4639917910348778 0.34902159243366565 0.0 0.0 0.0 0.29451740036893753 0.26519252495474643 0.2870768320396309 0.3757170774340953 0.3275182841363137 0.32113364264579003 0.3293312883226112 0.0 0.0 0.0 0.5906885812174072 0.5339686574957827 0.5748353252903903 0.31169721493692304 0.5748353252903903 0.2532721464388496 0.348811644375728 0.2851500240555445 0.0 0.4226399154296761 0.27810569395775275 0.4083531664419162 0.3164142102026467 0.0 0.2938311412800542 0.43656459443058704 0.0 0.0 0.0 0.0 0.0 0.3450424288989886 0.2490392586537097 0.3287454705171948 0.0 0.4465725184678721 0.0 0.38357937131509545 0.423539055689558 0.24518632503691445 0.0 0.0 0.2536584597670662 0.199178869661384 0.2880352262098349 0.2802668110490598 0.2655525649460717 0.4122825018405512 0.0 0.38218725678665455 0.32175369730433256 0.3771946011598117 0.0 0.5188885163798722 0.3472213246342515 0.3506529397561555 0.0 0.3675142595378524 0.6434957824804255 0.4357706638903106 0.5530524480659975 0.4229504435735487 0.21096408046613965 0.24929499335507915 0.2420847651124944 0.271421681964713 0.0 0.36731450125132503 0.3249809820000851 0.3176123279877888 0.18163314470413688 0.5369740761154169 0.2767688507215912 0.0 0.20960743388243752 0.2306222101071938 0.0 0.0 0.0 0.0 0.0 0.0 0.0 0.4830395381919874 0.4827350084916415 0.4858085425177966 0.4569334203690443 0.2578351441879453 0.06434600604095668 0.3909883278731463 0.2842295202705077 0.4840665979512721 0.4736868942671924 0.4569334203690443 0.3632201994359077 0.3358558947378054 0.0 0.552563772547479 0.0 0.0 0.3192993208188796 0.2407061256787953 0.30311344045622224 0.0 0.0 0.18622672870550566 0.2170823480186772 0.2675210935221851 0.2928914459848123 0.31776087262351194 0.2934326612058525 0.2928914459848123 0.27749756352306554 0.3565734710677243 0.34217167689296624 0.31854187128084543 0.3233553638229192 0.3369230677484676 0.3325082005244392 0.31770035590831824 0.32073161035153364 0.27625679385093443 0.2440470762949995 0.3823727895761013 0.0 0.0 0.0
115645 0.4261444432908795 0.20749188283601613 0.0 0.0 0.07770383058040763 0.3942354160126299 0.18974299113064005 0.30783209956512864 0.0 0.4055141416737373 0.3140635725183657 0.0 0.0 0.0 0.3291075801068816 0.3291075801068816 0.6021234090300931 0.21622311023562613 0.3708092584506136 0.20604605544454327 0.2780653189121149 0.3612685544222412 0.0 0.0 0.0 0.0 0.0 0.0 0.0 0.0 0.0 0.0 0.0 0.0 0.0 0.0 0.0 0.15846074136458393 0.0 0.0 0.25935914177508057 0.0 0.0 0.0 0.25708129688681697 0.2920948821258297 0.2168713944197299 0.0 0.0 0.0 0.2109203353607402 0.2538517245857226 0.25051364214644195 0.2317009720764021 0.2120184235746337 0.0 0.31002358067851843 0.3652859858817941 0.0 0.0 0.0 0.0 0.0 0.2501185250724659 0.2520552448764991 0.251275295414327 0.16737756090375072 0.1850982879970502 0.0 0.0 0.0 0.0 0.0 0.17187659575259012 0.22742379808033736 0.5952631450065803 0.4285938607705953 0.0 0.0 0.0 0.0 0.0 0.2468292120790022 0.3416594827683518 0.0 0.0 0.0 0.0 0.0 0.3801155486642824 0.35575749380047594 0.2295371438955351 0.0 0.15685770243240932 0.0 0.0 0.2941188799769607 0.3582570799455522 0.4169529686737996 0.0 0.0 0.2257827602653418 0.0 0.0 0.0 0.0 0.2510121072341359 0.0 0.0 0.4240711341249482 0.3243739704839983 0.34201027989521204 0.0 0.0 0.0 0.200369909871258 0.3294352574839969 0.0 0.0 0.0 0.22159170958326468 0.4492120982183043 0.0 0.2875559839569209 0.25080499203409745 0.2511942658564218 0.0 0.0 0.0 0.2688977120384711 0.20616016763042366 0.3183158673973434 0.0 0.3416594827683518 0.19022686690921706 0.4102672942371885 0.0 0.0 0.0 0.21979842636292607 0.21437204015433087 0.16037284297042134 0.0 0.4332080135890962 0.20081736818839369 0.1884986101117559 0.2717940624765757 0.2652016717543791 0.0 0.3439488511365753 0.3286705552753985 0.2707593240405916 0.3710277708663552 0.13621214599639114 0.2257398599738123 0.0 0.0 0.15481871273876585 0.2952065534447623 0.1083092676041631 0.3211400255483906 0.3375295659567201 0.1434360531828668 0.26861168188750084 0.0 0.20761453924203752 0.38472885602275375 0.22680869218575825 0.3447370601021672 0.2116339672917596 0.14087740675697918 0.25336369567589545 0.0 0.0 0.0 0.0 0.3482771610891754 0.18726853611728514 0.29105021081074844 0.0 0.0 0.0 0.0 0.0 0.18167273677451906 0.15836347192389216 0.2956387581489326 0.21408615331206832 0.28532947098984524 0.0 0.0 0.0 0.25870606438297705 0.2333329733791171 0.2901360537432964 0.1224438439748262 0.0 0.14793839726854474 0.23937423196115565 0.2470543560617749 0.0 0.0 0.0 0.568377926727857 0.21156292324379727 0.0 0.1093984906535416 0.0 0.0 0.0 0.0 0.0 0.0 0.0 0.0 0.1424587758657099 0.0 0.0 0.0 0.5244646439016191 0.2557993267219347 0.23703282547958746 0.0 0.0 0.0 0.4626462654502511 0.15824446202090592 0.19866510320769165 0.2536055684847984 0.2121358376549948 0.0 0.2772723371511961 0.3073520891889371 0.27328955546954914 0.0 0.0 0.0 0.29793874273082144 0.0 0.1617494153344508 0.0 0.2900333426379041 0.3053914146184478 0.5031843789568233 0.18714081032218666 0.4319766879849636 0.2570113713453094 0.1816510776625854 0.0 0.12154373652353098 0.14889157913309878 0.4294272263223866 0.18390238953959734 0.23852246441707844 0.10203254630542552 0.0 0.3580018616336037 0.25061534199638424 0.0 0.0 0.0 0.0 0.0 0.0 0.0 0.0 0.0 0.0 0.0 0.17037156305804324 0.05502437746355486 0.259589968068708 0.17925926454857374 0.3562672952728749 0.356454766114764 0.4596341317007597 0.2595884703131505 0.2597219986420457 0.0 0.4439320736160689 0.0 0.0 0.0 0.0 0.0 0.0 0.0 0.0 0.16590567981147206 0.2282858506037333 0.2257827602653418 0.2315641179523336 0.2262144642708821 0.2257827602653418 0.2030095300281008 0.2271903575868723 0.21253739364564736 0.18876387880068424 0.1938864172491761 0.2077146750704843 0.16172098435868415 0.18807862472246328 0.13180959020622354 0.2413356488523536 0.20057810223184205 0.2532076096047481 0.0 0.0 0.0
119500 0.3597003116564661 0.31156805094467305 0.0 0.0 0.28025242652375776 0.4333423142603232 0.3794656897205731 0.4456894438423241 0.1583404693989886 0.35361078228735143 0.3823263428645204 0.0 0.0 0.1984588017672262 0.3169423843188496 0.4454387635139385 0.4691440807766737 0.2880959921666723 0.35864406266258164 0.364292414540097 0.265900123124083 0.3257366823139144 0.0 0.0 0.0 0.34361756366263363 0.0 0.0 0.0 0.0 0.0 0.0 0.3830994525530496 0.3301834983697481 0.31727006169596506 0.2397389306011689 0.1696800222490464 0.2935573262411245 0.0 0.3874851090202342 0.3553748542721483 0.0 0.0 0.0 0.4063968172177723 0.33825267075964505 0.3306052326130326 0.0 0.0 0.0 0.19875513957270827 0.2416865287976907 0.2383484463584101 0.33107487393644885 0.2725820511809061 0.0 0.4557380181817585 0.4493496118187962 0.0 0.0 0.0 0.0 0.0 0.237953329284434 0.23989004908846714 0.4049190786939117 0.20176012536132976 0.32656922996465776 0.0 0.0 0.0 0.0 0.5133061565797097 0.1597113999645582 0.35397212073895257 0.51619575761446 0.4590098144561575 0.0 0.0 0.0 0.0 0.35443596417112283 0.3964522078060947 0.3294301133926326 0.0 0.0 0.0 0.0 0.0 0.3092747058429305 0.5296557996886169 0.2212442674578977 0.0 0.30487595223648745 0.0 0.0 0.3338741000323772 0.3154760220666941 0.4341819386029756 0.0 0.0 0.2681667012975146 0.0 0.0 0.0 0.0 0.238846911446104 0.0 0.0 0.37494295663349897 0.24153173119005986 0.4138414993154586 0.0 0.3779076783136388 0.1953630609036872 0.3149034726716644 0.4174486555545933 0.0 0.0 0.2383484463584101 0.2895750072698673 0.401818820441633 0.2654807185832381 0.2824175934175525 0.2386397962460655 0.2390290700683899 0.0 0.0 0.0 0.32310103514469585 0.29544392275851034 0.29561338982712937 0.2762544411961493 0.3294301133926326 0.3428070105522515 0.4255816514251815 0.0 0.0 0.0 0.2592193879711942 0.20220684436629904 0.14820764718238946 0.0 0.4080730449600892 0.2346625689051932 0.3347945493834137 0.2710040665426625 0.3899632532085781 0.1315311236681147 0.526029455372062 0.5576272246882015 0.26259769463932786 0.4466618730446991 0.15617524826958384 0.2454216594787795 0.26567316269119645 0.21349641719609802 0.14496341837652552 0.3550881340620712 0.3135224686684989 0.20170762888155694 0.2457502845422595 0.3687072952262963 0.32043390919298737 0.0 0.2225234020411153 0.37256366023472176 0.2908307347639775 0.39105400717414257 0.2017786729295193 0.16859327236695065 0.1782546588504112 0.0 0.0 0.0 0.0 0.28279918851575103 0.2854849874739141 0.3443389367511516 0.0 0.0 0.0 0.4362215263200777 0.15023900355014902 0.17183860723202946 0.2467938726085321 0.2268536864830168 0.35783901081677777 0.3327512117203517 0.0 0.0 0.0 0.32631875193994603 0.2566059449921062 0.2801416927286546 0.2322939390225375 0.2801416927286546 0.4446470934813686 0.3779427691465685 0.22507986787451512 0.0 0.0 0.0 0.4960672832535438 0.20170762888155694 0.0 0.2544994088171276 0.4513025412643126 0.0 0.0 0.0 0.0 0.0 0.3449546112649049 0.3893496761741635 0.26494398339130343 0.0 0.0 0.0 0.4705450408990616 0.21451002444796355 0.31450215588654123 0.0 0.0 0.29559381486159275 0.4164813582417501 0.18073971582552176 0.2447591639095818 0.37924008538014575 0.30142765049003994 0.0 0.26741704278895584 0.29697396176063817 0.2634342611073088 0.0 0.0 0.3956007096418819 0.3794060826318282 0.0 0.27805746645576185 0.3001385734590639 0.31767236737119803 0.3159587092953211 0.4027920644734159 0.23339836778996706 0.3692129092333501 0.36212125088884894 0.286266907400586 0.0 0.138167687058717 0.2920692905724287 0.4810508141024806 0.3184713851053288 0.2666546820299736 0.2982023058990727 0.0 0.2719761100846569 0.1665320931022912 0.0 0.0 0.0 0.0 0.0 0.0 0.0 0.21436393642276014 0.3426928751627102 0.4472597001261781 0.3165053594873665 0.33017117014831504 0.2455001322759905 0.4134430900366539 0.2286571101079903 0.344102099484843 0.2624621707944615 0.3165053594873665 0.2497331759509102 0.37267489864357584 0.0 0.2930216735972846 0.0 0.0 0.0 0.2856236314194624 0.32466643306629683 0.0 0.0 0.0 0.34770742565195445 0.2107927785806886 0.2681667012975146 0.31961795909787405 0.27142508862404763 0.2681667012975146 0.2677770631500965 0.26035529026191484 0.34926856733539463 0.3331071781920925 0.3095127809145405 0.3104981519626445 0.2132495710213068 0.3273245509680857 0.27946550751136834 0.2886146094867844 0.23651244299207946 0.32059164595643863 0.0 0.0 0.0
121200 0.2327336313662967 0.554407652170291 0.0 0.4965081985096733 0.3840740819309918 0.5746341034898167 0.505340383094073 0.3312442521124365 0.20846049657591045 0.3512418297368997 0.5572681874767234 0.4134297367405571 0.27784261241011177 0.29204107448288397 0.4105246570345074 0.4105246570345074 0.2755041346373229 0.5154861036042677 0.5044589854793871 0.28746313237216925 0.3992787006787104 0.2468687710262744 0.0 0.4113412893725665 0.3411373596274017 0.21181846802195028 0.3241253510097333 0.0 0.0 0.5433207354463858 0.5249346698723779 0.4230920924971785 0.33725110783146944 0.3320454034724908 0.4108523344116228 0.3333212033168268 0.35099011239992484 0.3729142570990345 0.2333255520698481 0.4914391027589093 0.4982662698860731 0.0 0.0 0.0 0.7144044997657345 0.6482781278347269 0.7372865086995029 0.0 0.4122598125472991 0.29283174175621285 0.2923374122883661 0.3352688015133485 0.3319307190740679 0.25363110154828394 0.29343550050225964 0.3319307190740679 0.4850971039692738 0.2697460452603637 0.0 0.0 0.29397458354764305 0.33208002355879795 0.4804954660615038 0.3315356020000918 0.3334723218041249 0.3326923723419529 0.2487946378313766 0.564203272979607 0.0 0.0 0.4148901293691624 0.2695240976158351 0.4100876322030244 0.253293672680216 0.2893121372414749 0.4100876322030244 0.4136657262047644 0.0 0.0 0.0 0.26984928276211473 0.20940964312209365 0.4982544811962119 0.4222942075153591 0.0 0.0 0.0 0.2965966814736558 0.4105246570345074 0.3325731855636516 0.4371745707281017 0.2937425973473545 0.0 0.4195902502659719 0.0 0.3858870456319029 0.22297605412968427 0.24841346079999674 0.4113412893725665 0.0 0.5402796468511786 0.4492565179252924 0.0 0.0 0.41720989035640016 0.440239395491791 0.3324291841617618 0.0 0.4932896254206829 0.5381875755080957 0.3959508765524508 0.4881723957571609 0.20026450433238555 0.4115361109992705 0.2573236801884283 0.3746386224248532 0.592409713060527 0.0 0.4535160446947579 0.3319307190740679 0.2902753639105062 0.2416205840092004 0.2455259048523404 0.3123098906246537 0.3322220689617233 0.3326113427840477 0.4100876322030244 0.4374659206157572 0.2478890829292581 0.3485519160536012 0.3503534550430935 0.2707735042967126 0.2634230913025976 0.4222942075153591 0.539406315054883 0.4100876322030244 0.0 0.42345694684389296 0.24881294799847906 0.2735384249673418 0.2957891170819568 0.3168047430994313 0.0 0.5244729085753315 0.43064280313028624 0.5953005740356139 0.4573281735510582 0.573607987481151 0.20300394938556487 0.4243768516362819 0.4100876322030244 0.33407052035677803 0.5046774978951285 0.3057523295988928 0.28960541790705635 0.5360124777116724 0.3401891265417191 0.26032313976581195 0.3705737299500049 0.3212588047172261 0.3295417173185201 0.2892230668027571 0.6557298221121362 0.5047987972692531 0.0 0.5507020436490286 0.4988911464505309 0.3309958577515898 0.4545488148638618 0.32961276136648243 0.33538788717052065 0.4336325173911048 0.0 0.5167393776341034 0.0 0.0 0.4161594316580589 0.4142288982957304 0.5593973817060643 0.0 0.3608905279810423 0.4659691187921957 0.4635121821917829 0.2655987249394354 0.2917545588931305 0.3687923737824579 0.20030815430635765 0.3307989967724806 0.21137406951994914 0.29016876581781426 0.0 0.288596238217986 0.2822666781914802 0.29182547431504874 0.42242736088387145 0.4439548811065985 0.42242736088387145 0.2503242325336717 0.3557697859877204 0.4231505247152591 0.5072474095262184 0.33932320753508544 0.2744343052065885 0.4233594399801364 0.3295417173185201 0.19999618729506868 0.28013192949683274 0.29163806237018114 0.37751805346719935 0.0 0.060317146677820926 0.27429215742408297 0.3100833049250704 0.7219655192593559 0.6718473591614302 0.3523575084481631 0.0 0.4400447151518794 0.0 0.36467908709331975 0.29863298453915976 0.32499159359478663 0.20921286211166745 0.2744164876836224 0.4868439696963746 0.47956810874088 0.3254228567102924 0.43461880554012106 0.4769069506620726 0.3301146317297177 0.0 0.4108440900355148 0.6393483524147399 0.4068613083538678 0.0 0.3803516457199588 0.21991650873910606 0.3025598568630645 0.3709399378374348 0.3289692782955881 0.2658722355744945 0.4486808174437392 0.38091276509057104 0.2654239150068422 0.3937866046597469 0.3660453131947811 0.5690731670998507 0.5593984576472688 0.0 0.2007370606918525 0.3456576192115278 0.4603433603973147 0.5487366149365949 0.23319778843174266 0.16177535164123666 0.0 0.4343588235752101 0.3909018738269223 0.0 0.0 0.0 0.0 0.3683819404369186 0.4105246570345074 0.2479833364342667 0.2707607304916577 0.436275147878368 0.5041459764958812 0.4100876322030244 0.5034526639357777 0.2695898199758573 0.3402549695453144 0.43351723021545374 0.4376843722005008 0.3809931776054727 0.4100876322030244 0.5056406018935931 0.4256204289186266 0.4573186568110193 0.20318877361139853 0.0 0.0 0.7611325365332576 0.7716523593348159 0.5766027568668699 0.6290357475259197 0.5511418951151106 0.30232699863765056 0.5220007957107483 0.4860495583761754 0.4492565179252924 0.4709410775334959 0.4568743906357807 0.4492565179252924 0.4488668797778743 0.44670056042333545 0.7598275288909924 0.7081731584269948 0.7699547418114963 0.7482519368869971 0.3358731139457001 0.2694957016500891 0.5936568262298504 0.3294311529114493 0.6337692141212135 0.7973337722386874 0.0 0.0 0.0
