509 509
DB00014 0.7325581395348837 0.5747126436781609 0.6551724137931034 0.313953488372093 0.3614457831325301 0.4022988505747127 0.3218390804597701 0.2441860465116279 0.3764705882352941 0.39325842696629215 0.4065934065934066 0.6 0.5529411764705883 0.425531914893617 0.2413793103448276 0.15853658536585366 0.3516483516483517 0.4534883720930232 0.4712643678160919 0.4705882352941176 0.2073170731707317 0.4418604651162791 0.4470588235294118 0.4835164835164835 0.4767441860465117 0.6095238095238096 0.4795918367346938 0.5617977528089888 0.29347826086956524 0.2558139534883721 0.5 0.405940594059406 0.3762376237623761 0.3870967741935484 0.42857142857142855 0.5684210526315789 0.5631067961165048 0.3626373626373626 0.2619047619047619 0.3925233644859813 0.4130434782608696 0.5591397849462365 0.2558139534883721 0.36046511627906974 0.4545454545454545 0.5955056179775281 0.43373493975903615 0.26436781609195403 0.4044943820224719 0.4470588235294118 0.4597701149425287 0.3829787234042553 0.39 0.5955056179775281 0.4767441860465117 0.6336633663366337 0.3295454545454545 0.4523809523809524 0.3563218390804598 0.3793103448275862 0.3888888888888889 0.4404761904761905 0.3333333333333333 0.4044943820224719 0.3411764705882353 0.6237623762376238 0.4606741573033708 0.4431818181818182 0.26506024096385544 0.2888888888888889 0.25 0.43 0.3883495145631068 0.17647058823529413 0.5287356321839081 0.25 0.4719101123595506 0.6593406593406593 0.24719101123595505 0.3297872340425532 0.3695652173913043 0.4606741573033708 0.4606741573033708 0.25 0.4835164835164835 0.2906976744186047 0.4939759036144578 0.5208333333333334 0.4375 0.5106382978723404 0.6847826086956522 0.425531914893617 0.5444444444444444 0.2808988764044944 0.4204545454545455 0.6 0.3578947368421053 0.31 0.4186046511627907 0.3146067415730337 0.30952380952380953 0.38372093023255816 0.6391752577319587 0.4022988505747127 0.3809523809523809 0.30952380952380953 0.5058823529411764 0.4081632653061225 0.2727272727272727 0.5638297872340425 0.2976190476190476 0.4615384615384616 0.392156862745098 0.39361702127659576 0.2988505747126437 0.1951219512195122 0.4021739130434783 0.4712643678160919 0.33663366336633666 0.33695652173913043 0.3958333333333333 0.5543478260869565 0.37777777777777777 0.5232558139534884 0.32608695652173914 0.32941176470588235 0.4597701149425287 0.4946236559139785 0.3263157894736842 0.27472527472527475 0.37142857142857133 0.4047619047619048 0.4044943820224719 0.5212765957446809 0.43478260869565216 0.3548387096774194 0.5222222222222223 0.42424242424242425 0.4137931034482759 0.3295454545454545 0.375 0.5869565217391305 0.3409090909090909 0.27710843373493976 0.2708333333333333 0.3928571428571429 0.4367816091954023 0.32222222222222224 0.3617021276595745 0.3333333333333333 0.36781609195402293 0.3125 0.5517241379310345 0.4831460674157304 0.3076923076923077 0.4111111111111111 0.3711340206185567 0.5287356321839081 0.4941176470588236 0.5505617977528089 0.42 0.5505617977528089 0.28125 0.3882352941176471 0.4318181818181818 0.3888888888888889 0.4022988505747127 0.5647058823529412 0.6046511627906976 0.2183908045977012 0.3831775700934579 0.4395604395604396 0.4767441860465117 0.22549019607843135 0.5 0.15853658536585366 0.5 0.2247191011235955 0.6559139784946236 0.5568181818181818 0.3522727272727273 0.3522727272727273 0.4021739130434783 0.21686746987951808 0.5 0.3888888888888889 0.6222222222222222 0.2717391304347826 0.4044943820224719 0.5238095238095238 0.5730337078651685 0.2906976744186047 0.4230769230769231 0.6344086021505376 0.43373493975903615 0.4597701149425287 0.1927710843373494 0.3595505617977528 0.297029702970297 0.2840909090909091 0.5529411764705883 0.4313725490196079 0.2111111111111111 0.3402061855670103 0.5978260869565217 0.425531914893617 0.3855421686746988 0.3406593406593407 0.5421686746987951 0.33707865168539325 0.22549019607843135 0.3804347826086957 0.4651162790697674 0.4588235294117647 0.4831460674157304 0.43478260869565216 0.4257425742574257 0.41935483870967744 0.3333333333333333 0.15476190476190474 0.36781609195402293 0.5 0.4431818181818182 0.5617977528089888 0.3956043956043956 0.5747126436781609 0.8658536585365854 0.3488372093023256 0.6590909090909091 0.6436781609195402 0.44943820224719105 0.09278350515463918 0.3647058823529412 0.3333333333333333 0.24705882352941175 0.3541666666666667 0.4318181818181818 0.313953488372093 0.46875 0.38235294117647056 0.4943820224719101 0.3636363636363637 0.5217391304347826 0.3440860215053764 0.30612244897959184 0.4239130434782609 0.5176470588235295 0.4777777777777778 0.3584905660377358 0.6382978723404256 0.4 0.5340909090909091 0.5 0.42857142857142855 0.12359550561797752 0.4252873563218391 0.425531914893617 0.5 0.3181818181818182 0.3522727272727273 0.5542168674698795 0.372093023255814 0.2637362637362637 0.4047619047619048 0.2808988764044944 0.4947368421052632 0.4375 0.4431818181818182 0.3555555555555556 0.2777777777777778 0.4606741573033708 0.4659090909090909 0.36781609195402293 0.4761904761904762 0.2183908045977012 0.4523809523809524 0.3617021276595745 0.6344086021505376 0.24444444444444444 0.39130434782608703 0.3493975903614458 0.3888888888888889 0.5306122448979592 0.3764705882352941 0.35714285714285715 0.2261904761904762 0.5647058823529412 0.4418604651162791 0.3786407766990291 0.5842696629213483 0.3736263736263736 0.3448275862068966 0.6091954022988506 0.3942307692307692 0.3563218390804598 0.4528301886792453 0.3780487804878049 0.3564356435643564 0.532608695652174 0.18888888888888888 0.3956043956043956 0.35106382978723405 0.46 0.4252873563218391 0.5227272727272727 0.44680851063829785 0.1927710843373494 0.4431818181818182 0.20224719101123595 0.45 0.5434782608695652 0.2261904761904762 0.3595505617977528 0.3980582524271845 0.4146341463414634 0.44565217391304346 0.3428571428571429 0.5517241379310345 0.3296703296703297 0.3478260869565217 0.3181818181818182 0.4607843137254902 0.5 0.4888888888888889 0.24468085106382975 0.4534883720930232 0.4588235294117647 0.3695652173913043 0.4482758620689655 0.4367816091954023 0.3645833333333333 0.5777777777777777 0.1927710843373494 0.32558139534883723 0.4591836734693878 0.5666666666666667 0.24719101123595505 0.36046511627906974 0.4343434343434344 0.5842696629213483 0.3793103448275862 0.2023809523809524 0.25 0.4642857142857143 0.2 0.2261904761904762 0.3894736842105263 0.32142857142857145 0.4848484848484849 0.4761904761904762 0.4719101123595506 0.4545454545454545 0.4939759036144578 0.26666666666666666 0.4545454545454545 0.3764705882352941 0.5287356321839081 0.5113636363636364 0.35294117647058826 0.2183908045977012 0.4534883720930232 0.5666666666666667 0.32142857142857145 0.3448275862068966 0.2840909090909091 0.36046511627906974 0.29411764705882354 0.31683168316831684 0.28865979381443296 0.3132530120481928 0.5222222222222223 0.38372093023255816 0.3679245283018868 0.4578313253012048 0.4431818181818182 0.3372093023255814 0.26744186046511625 0.27710843373493976 0.1566265060240964 0.3684210526315789 0.4807692307692308 0.3218390804597701 0.3409090909090909 0.35869565217391297 0.2708333333333333 0.5909090909090909 0.6333333333333333 0.2333333333333333 0.3793103448275862 0.25 0.4883720930232558 0.2261904761904762 0.1686746987951807 0.3793103448275862 0.35714285714285715 0.5050505050505051 0.3939393939393939 0.3076923076923077 0.5567010309278351 0.3333333333333333 0.5483870967741935 0.21176470588235294 0.4090909090909091 0.3863636363636364 0.19767441860465115 0.4111111111111111 0.41121495327102797 0.3076923076923077 0.5816326530612245 0.1978021978021978 0.25274725274725274 0.36781609195402293 0.313953488372093 0.2871287128712871 0.4615384615384616 0.494949494949495 0.4183673469387755 0.36538461538461536 0.4795918367346938 0.4886363636363637 0.1914893617021277 0.5581395348837209 0.5157894736842106 0.32222222222222224 0.34444444444444444 0.4772727272727273 0.3636363636363637 0.19767441860465115 0.4719101123595506 0.3440860215053764 0.6086956521739131 0.5157894736842106 0.5979381443298969 0.35294117647058826 0.4352941176470588 0.3870967741935484 0.3176470588235294 0.4719101123595506 0.4712643678160919 0.3516483516483517 0.3977272727272727 0.3555555555555556 0.05882352941176471 0.5393258426966292 0.5517241379310345 0.5333333333333333 0.5287356321839081 0.5168539325842697 0.4588235294117647 0.6262626262626263 0.4642857142857143 0.5238095238095238 0.5 0.5238095238095238 0.4418604651162791 0.4705882352941176 0.3855421686746988 0.5106382978723404 0.3076923076923077 0.4505494505494506 0.6627906976744186 0.43157894736842106 0.48 0.4782608695652174 0.4731182795698925 0.43478260869565216 0.32941176470588235 0.5108695652173914 0.3522727272727273 0.3647058823529412 0.32608695652173914 0.4186046511627907 0.4731182795698925 0.5257731958762887 0.3780487804878049 0.490566037735849 0.4666666666666667 0.5333333333333333 0.6067415730337079 0.5789473684210527 0.5212765957446809 0.28735632183908044 0.5238095238095238 0.5909090909090909 0.5353535353535354 0.5176470588235295 0.0 0.4823529411764706 0.1927710843373494 0.25882352941176473 0.0 0.3863636363636364 0.3076923076923077 0.2380952380952381 0.3111111111111111 0.3804347826086957 0.4130434782608696 0.4505494505494506 0.5056179775280899 0.15853658536585366 0.1686746987951807 0.3522727272727273 0.5934065934065934 0.3904761904761905 0.3636363636363637 0.2380952380952381 0.4659090909090909 0.3956043956043956 0.6043956043956044
DB00035 0.0 0.5443037974683544 0.6973684210526315 0.2405063291139241 0.4411764705882353 0.2891566265060241 0.2195121951219512 0.15 0.3783783783783784 0.3132530120481928 0.3614457831325301 0.5176470588235295 0.5394736842105263 0.3076923076923077 0.2916666666666667 0.15942028985507245 0.38461538461538464 0.41025641025641024 0.4487179487179487 0.41025641025641024 0.1506849315068493 0.37974683544303794 0.42105263157894735 0.3793103448275862 0.4177215189873418 0.5247524752475248 0.42857142857142855 0.5121951219512195 0.35064935064935066 0.2077922077922078 0.5205479452054794 0.4111111111111111 0.3191489361702128 0.2954545454545455 0.4204545454545455 0.5581395348837209 0.5208333333333334 0.2823529411764706 0.2465753424657534 0.3958333333333333 0.3068181818181818 0.5662650602409639 0.2916666666666667 0.36 0.5176470588235295 0.4941176470588236 0.4444444444444444 0.26666666666666666 0.41025641025641024 0.38461538461538464 0.4545454545454545 0.3068181818181818 0.30526315789473685 0.4941176470588236 0.4358974358974359 0.6129032258064516 0.3783783783783784 0.3896103896103896 0.35526315789473684 0.4 0.3924050632911392 0.37662337662337664 0.3 0.3580246913580247 0.32 0.5851063829787234 0.41975308641975306 0.4358974358974359 0.3235294117647059 0.2469135802469136 0.14457831325301204 0.4065934065934066 0.39130434782608703 0.1643835616438356 0.4567901234567901 0.2857142857142857 0.3975903614457832 0.6 0.1851851851851852 0.3414634146341464 0.2906976744186047 0.41975308641975306 0.41975308641975306 0.25 0.3953488372093023 0.21518987341772156 0.472972972972973 0.4555555555555556 0.4137931034482759 0.4767441860465117 0.6091954022988506 0.4691358024691358 0.4939759036144578 0.2857142857142857 0.41025641025641024 0.5054945054945055 0.3411764705882353 0.3181818181818182 0.3048780487804878 0.275 0.37681159420289856 0.3 0.6 0.35443037974683544 0.4225352112676056 0.26666666666666666 0.527027027027027 0.3977272727272727 0.27631578947368424 0.4505494505494506 0.323943661971831 0.3409090909090909 0.3229166666666667 0.27472527472527475 0.20987654320987653 0.22058823529411764 0.3902439024390244 0.4868421052631579 0.2765957446808511 0.3012048192771085 0.38372093023255816 0.5609756097560976 0.3974358974358974 0.5263157894736842 0.25882352941176473 0.3611111111111111 0.4358974358974359 0.4761904761904762 0.3373493975903614 0.2469135802469136 0.4021739130434783 0.35526315789473684 0.375 0.5238095238095238 0.3295454545454545 0.3373493975903614 0.4523809523809524 0.4 0.35 0.3783783783783784 0.308641975308642 0.5783132530120482 0.2875 0.21333333333333332 0.2441860465116279 0.4166666666666667 0.42857142857142855 0.20930232558139536 0.313953488372093 0.3116883116883117 0.3684210526315789 0.2906976744186047 0.6 0.5394736842105263 0.3010752688172043 0.4358974358974359 0.3409090909090909 0.5324675324675324 0.5555555555555556 0.5185185185185185 0.4111111111111111 0.4642857142857143 0.2558139534883721 0.3918918918918919 0.4605263157894737 0.42857142857142855 0.32098765432098764 0.5526315789473685 0.5 0.1375 0.3711340206185567 0.3647058823529412 0.4545454545454545 0.25 0.5168539325842697 0.19402985074626866 0.5180722891566265 0.18987341772151897 0.5617977528089888 0.5641025641025641 0.3684210526315789 0.3164556962025317 0.3103448275862069 0.2647058823529412 0.4387755102040816 0.42857142857142855 0.6375 0.275 0.4473684210526316 0.4646464646464646 0.5822784810126582 0.2972972972972973 0.4148936170212766 0.5393258426966292 0.3684210526315789 0.4358974358974359 0.2 0.4324324324324325 0.30337078651685395 0.225 0.581081081081081 0.4239130434782609 0.2533333333333333 0.2637362637362637 0.5529411764705883 0.3076923076923077 0.3333333333333333 0.3896103896103896 0.5694444444444444 0.2380952380952381 0.2222222222222222 0.3176470588235294 0.48 0.4155844155844156 0.4810126582278481 0.3448275862068966 0.3723404255319149 0.4625 0.2625 0.17142857142857146 0.38666666666666666 0.5 0.3493975903614458 0.569620253164557 0.2727272727272727 0.6266666666666667 0.8157894736842105 0.2625 0.7236842105263158 0.6 0.35714285714285715 0.12345679012345677 0.3466666666666667 0.27631578947368424 0.16666666666666666 0.3855421686746988 0.35365853658536583 0.3424657534246575 0.38461538461538464 0.3695652173913043 0.4047619047619048 0.2962962962962963 0.4705882352941176 0.3414634146341464 0.313953488372093 0.3333333333333333 0.6056338028169014 0.3882352941176471 0.4021739130434783 0.5795454545454546 0.4567901234567901 0.5384615384615384 0.4375 0.3855421686746988 0.13333333333333333 0.4155844155844156 0.4166666666666667 0.4625 0.2625 0.3333333333333333 0.6764705882352942 0.3205128205128205 0.25 0.410958904109589 0.2692307692307692 0.4767441860465117 0.4137931034482759 0.3493975903614458 0.35443037974683544 0.35135135135135137 0.41975308641975306 0.3734939759036144 0.35064935064935066 0.5138888888888888 0.1375 0.4657534246575342 0.3950617283950617 0.5568181818181818 0.27631578947368424 0.313953488372093 0.3472222222222222 0.30952380952380953 0.5168539325842697 0.3972602739726027 0.3026315789473684 0.1891891891891892 0.5128205128205128 0.4533333333333333 0.3804347826086957 0.5 0.41025641025641024 0.2911392405063291 0.5243902439024389 0.3684210526315789 0.410958904109589 0.4479166666666667 0.3611111111111111 0.3707865168539326 0.5180722891566265 0.21052631578947367 0.4 0.3493975903614458 0.4555555555555556 0.4155844155844156 0.5256410256410257 0.3296703296703297 0.2 0.3493975903614458 0.22666666666666666 0.4444444444444444 0.4767441860465117 0.2054794520547945 0.325 0.3870967741935484 0.3466666666666667 0.4936708860759494 0.3695652173913043 0.5384615384615384 0.308641975308642 0.3132530120481928 0.3116883116883117 0.4408602150537633 0.4430379746835443 0.451219512195122 0.24390243902439024 0.42857142857142855 0.5138888888888888 0.4415584415584416 0.4230769230769231 0.42857142857142855 0.3647058823529412 0.5301204819277109 0.16666666666666666 0.32 0.4065934065934066 0.4651162790697674 0.1851851851851852 0.34210526315789475 0.4941176470588236 0.6153846153846154 0.2962962962962963 0.22857142857142854 0.2328767123287671 0.5 0.2236842105263158 0.2222222222222222 0.3764705882352941 0.3333333333333333 0.43478260869565216 0.37974683544303794 0.3975903614457832 0.34523809523809523 0.4155844155844156 0.32 0.4125 0.3783783783783784 0.5128205128205128 0.5324675324675324 0.2987012987012987 0.1375 0.4473684210526316 0.5949367088607594 0.39130434782608703 0.3076923076923077 0.20987654320987653 0.4166666666666667 0.3013698630136986 0.3111111111111111 0.25 0.3428571428571429 0.4523809523809524 0.3684210526315789 0.3978494623655914 0.37662337662337664 0.4358974358974359 0.3157894736842105 0.2533333333333333 0.28169014084507044 0.17391304347826084 0.2777777777777778 0.4787234042553192 0.3888888888888889 0.2875 0.3253012048192771 0.2441860465116279 0.5060240963855421 0.5172413793103449 0.24675324675324675 0.4 0.1875 0.527027027027027 0.15789473684210525 0.1232876712328767 0.3291139240506329 0.3561643835616438 0.5056179775280899 0.4137931034482759 0.2682926829268293 0.5111111111111111 0.27631578947368424 0.5542168674698795 0.2571428571428571 0.34567901234567894 0.3717948717948718 0.1891891891891892 0.36585365853658536 0.3877551020408163 0.3333333333333333 0.5217391304347826 0.175 0.17857142857142858 0.38666666666666666 0.2564102564102564 0.2637362637362637 0.372093023255814 0.4615384615384616 0.37777777777777777 0.3804347826086957 0.42857142857142855 0.5263157894736842 0.19753086419753085 0.5454545454545454 0.44943820224719105 0.2530120481927711 0.4133333333333333 0.4556962025316456 0.3461538461538461 0.14285714285714285 0.3975903614457832 0.3253012048192771 0.5833333333333334 0.44943820224719105 0.5053763440860215 0.28205128205128205 0.4266666666666667 0.2954545454545455 0.3287671232876712 0.3975903614457832 0.4675324675324675 0.27058823529411763 0.38461538461538464 0.35443037974683544 0.04166666666666666 0.4878048780487805 0.4814814814814815 0.4897959183673469 0.5526315789473685 0.4634146341463415 0.5352112676056338 0.5368421052631579 0.5428571428571428 0.4125 0.52 0.4125 0.3974358974358974 0.375 0.2987012987012987 0.5301204819277109 0.3 0.3448275862068966 0.620253164556962 0.475609756097561 0.4777777777777778 0.3595505617977528 0.4523809523809524 0.3295454545454545 0.4 0.5308641975308642 0.3164556962025317 0.2625 0.27380952380952384 0.3896103896103896 0.3555555555555556 0.5833333333333334 0.42028985507246375 0.4591836734693878 0.3448275862068966 0.5185185185185185 0.6410256410256411 0.5697674418604651 0.4883720930232558 0.2278481012658228 0.4303797468354431 0.5625 0.5568181818181818 0.425 0.0 0.4050632911392405 0.2 0.2777777777777778 0.0 0.3375 0.2380952380952381 0.2535211267605634 0.2716049382716049 0.3493975903614458 0.3218390804597701 0.3146067415730337 0.43373493975903615 0.15942028985507245 0.1388888888888889 0.3333333333333333 0.5116279069767442 0.3505154639175257 0.3815789473684211 0.2361111111111111 0.4074074074074074 0.4358974358974359 0.5057471264367817
DB00091 0.0 0.0 0.5394736842105263 0.36507936507936506 0.30303030303030304 0.3970588235294117 0.29411764705882354 0.25 0.38461538461538464 0.4477611940298508 0.2948717948717949 0.5394736842105263 0.5671641791044776 0.4078947368421053 0.265625 0.1724137931034483 0.3333333333333333 0.4848484848484849 0.4852941176470588 0.42028985507246375 0.2 0.4696969696969697 0.4328358208955224 0.6363636363636364 0.42857142857142855 0.4791666666666667 0.4047619047619048 0.5342465753424658 0.22666666666666666 0.20895522388059698 0.546875 0.35294117647058826 0.28735632183908044 0.3246753246753247 0.3780487804878049 0.4878048780487805 0.4725274725274725 0.4057971014492754 0.3620689655172414 0.32608695652173914 0.410958904109589 0.475 0.2857142857142857 0.34328358208955223 0.36046511627906974 0.5540540540540541 0.373134328358209 0.2028985507246377 0.3424657534246575 0.476923076923077 0.4925373134328358 0.3376623376623377 0.28735632183908044 0.4743589743589744 0.42857142857142855 0.4375 0.34328358208955223 0.4393939393939394 0.4918032786885246 0.3478260869565217 0.4411764705882353 0.4461538461538462 0.22093023255813954 0.38028169014084506 0.359375 0.5568181818181818 0.4305555555555556 0.5151515151515151 0.25806451612903225 0.2714285714285714 0.2028985507246377 0.45 0.2888888888888889 0.23728813559322035 0.5142857142857142 0.3 0.4246575342465753 0.631578947368421 0.2727272727272727 0.32432432432432434 0.3561643835616438 0.4305555555555556 0.4507042253521127 0.2380952380952381 0.44 0.3770491803278688 0.515625 0.6301369863013698 0.3703703703703704 0.5333333333333333 0.5421686746987951 0.3048780487804878 0.5555555555555556 0.22535211267605634 0.4411764705882353 0.5625 0.2911392405063291 0.2380952380952381 0.41791044776119396 0.3043478260869565 0.3387096774193548 0.373134328358209 0.5 0.35714285714285715 0.3692307692307693 0.3387096774193548 0.6833333333333333 0.4415584415584416 0.18055555555555555 0.5384615384615384 0.3898305084745763 0.4133333333333333 0.3855421686746988 0.3684210526315789 0.2647058823529412 0.2241379310344828 0.36 0.4428571428571429 0.35 0.21518987341772156 0.3375 0.5064935064935064 0.27631578947368424 0.625 0.28378378378378377 0.3230769230769231 0.42857142857142855 0.4933333333333334 0.3026315789473684 0.2714285714285714 0.2717391304347826 0.2638888888888889 0.3611111111111111 0.4320987654320987 0.4 0.3026315789473684 0.4864864864864865 0.3103448275862069 0.476923076923077 0.34328358208955223 0.3623188405797101 0.451219512195122 0.3582089552238806 0.234375 0.25 0.3636363636363637 0.42028985507246375 0.29577464788732394 0.32894736842105265 0.3088235294117647 0.3142857142857143 0.32 0.5 0.4 0.1978021978021978 0.2195121951219512 0.37662337662337664 0.4133333333333333 0.5625 0.5416666666666666 0.4743589743589744 0.5205479452054794 0.2631578947368421 0.4677419354838709 0.33783783783783783 0.38028169014084506 0.37681159420289856 0.5588235294117647 0.5205479452054794 0.25396825396825395 0.3010752688172043 0.3684210526315789 0.5384615384615384 0.20987654320987653 0.3977272727272727 0.0967741935483871 0.4430379746835443 0.22388059701492535 0.6282051282051282 0.5714285714285714 0.3142857142857143 0.4153846153846154 0.36 0.2542372881355932 0.3870967741935484 0.3611111111111111 0.5454545454545454 0.16883116883116886 0.38028169014084506 0.3854166666666667 0.547945205479452 0.2537313432835821 0.4069767441860465 0.6025641025641025 0.3939393939393939 0.42857142857142855 0.18032786885245905 0.2368421052631579 0.20930232558139536 0.4576271186440678 0.5909090909090909 0.4 0.24242424242424246 0.35526315789473684 0.4814814814814815 0.4078947368421053 0.4915254237288136 0.26666666666666666 0.5538461538461539 0.29577464788732394 0.225 0.3698630136986301 0.4142857142857143 0.4696969696969697 0.4583333333333333 0.4 0.40963855421686746 0.3291139240506329 0.3088235294117647 0.16666666666666666 0.3333333333333333 0.425 0.4084507042253521 0.5135135135135135 0.4084507042253521 0.42857142857142855 0.6153846153846154 0.4126984126984127 0.5256410256410257 0.5675675675675675 0.4366197183098591 0.0821917808219178 0.4126984126984127 0.25 0.234375 0.35526315789473684 0.43478260869565216 0.4098360655737705 0.3902439024390244 0.3103448275862069 0.4324324324324325 0.4090909090909091 0.3780487804878049 0.3424657534246575 0.2625 0.38666666666666666 0.4166666666666667 0.4929577464788733 0.3 0.6075949367088608 0.20454545454545456 0.4594594594594595 0.4157303370786517 0.4927536231884058 0.12307692307692307 0.4477611940298508 0.32098765432098764 0.5217391304347826 0.2898550724637681 0.373134328358209 0.5454545454545454 0.3 0.23943661971830985 0.4677419354838709 0.2608695652173913 0.3855421686746988 0.3703703703703704 0.4084507042253521 0.25 0.29411764705882354 0.4507042253521127 0.3972602739726027 0.4603174603174603 0.5396825396825397 0.25396825396825395 0.41791044776119396 0.3116883116883117 0.5243902439024389 0.25 0.3835616438356164 0.3709677419354839 0.3424657534246575 0.4470588235294118 0.34328358208955223 0.2794117647058824 0.20634920634920634 0.6060606060606061 0.4477611940298508 0.2921348314606741 0.4074074074074074 0.32432432432432434 0.34328358208955223 0.547945205479452 0.2967032967032967 0.3787878787878788 0.4111111111111111 0.4576271186440678 0.26436781609195403 0.5616438356164384 0.25 0.4084507042253521 0.2987012987012987 0.36781609195402293 0.3857142857142857 0.4459459459459459 0.3974358974358974 0.2631578947368421 0.4084507042253521 0.21212121212121213 0.4390243902439024 0.6428571428571429 0.288135593220339 0.38235294117647056 0.3295454545454545 0.459016393442623 0.4722222222222222 0.2258064516129032 0.5652173913043478 0.3428571428571429 0.27631578947368424 0.2898550724637681 0.3863636363636364 0.4166666666666667 0.5285714285714286 0.2857142857142857 0.42028985507246375 0.5645161290322581 0.39436619718309857 0.4558823529411765 0.42028985507246375 0.2530120481927711 0.5972222222222222 0.14285714285714285 0.45 0.3809523809523809 0.52 0.2727272727272727 0.34328358208955223 0.2637362637362637 0.5 0.4761904761904762 0.2333333333333333 0.3448275862068966 0.4328358208955224 0.2272727272727273 0.2459016393442623 0.2962962962962963 0.3125 0.3953488372093023 0.3857142857142857 0.4246575342465753 0.4225352112676056 0.4264705882352941 0.29850746268656714 0.4225352112676056 0.40625 0.4929577464788733 0.3947368421052632 0.2753623188405797 0.25396825396825395 0.5076923076923077 0.5 0.3125 0.4516129032258064 0.2463768115942029 0.34328358208955223 0.3387096774193548 0.24705882352941175 0.32432432432432434 0.28125 0.4864864864864865 0.3333333333333333 0.2553191489361702 0.46875 0.5151515151515151 0.29411764705882354 0.2058823529411765 0.1791044776119403 0.1694915254237288 0.35526315789473684 0.3655913978494624 0.2753623188405797 0.4444444444444444 0.2894736842105263 0.3380281690140845 0.4125 0.6216216216216216 0.16666666666666666 0.4307692307692308 0.22058823529411764 0.4852941176470588 0.20634920634920634 0.20689655172413796 0.3478260869565217 0.4262295081967213 0.3707865168539326 0.35365853658536583 0.373134328358209 0.4252873563218391 0.3492063492063492 0.56 0.26666666666666666 0.5396825396825397 0.4615384615384616 0.20634920634920634 0.42857142857142855 0.39325842696629215 0.2432432432432433 0.5238095238095238 0.18840579710144928 0.2794117647058824 0.29577464788732394 0.30303030303030304 0.3037974683544304 0.4133333333333333 0.34444444444444444 0.3493975903614458 0.3690476190476191 0.3882352941176471 0.4444444444444444 0.14864864864864866 0.4657534246575342 0.4810126582278481 0.3142857142857143 0.2702702702702703 0.4305555555555556 0.36764705882352944 0.20634920634920634 0.38666666666666666 0.3611111111111111 0.4578313253012048 0.4810126582278481 0.4382022471910113 0.375 0.41791044776119396 0.3246753246753247 0.3492063492063492 0.4647887323943662 0.4852941176470588 0.3333333333333333 0.39130434782608703 0.28378378378378377 0.032786885245901634 0.5277777777777778 0.5882352941176471 0.4408602150537633 0.4520547945205479 0.44 0.515625 0.5952380952380952 0.5737704918032787 0.4428571428571429 0.4571428571428571 0.4225352112676056 0.4923076923076923 0.4848484848484849 0.29411764705882354 0.4375 0.3142857142857143 0.4189189189189189 0.5263157894736842 0.32926829268292684 0.4235294117647059 0.4931506849315068 0.5277777777777778 0.4 0.3870967741935484 0.4736842105263158 0.4153846153846154 0.3484848484848485 0.3380281690140845 0.3970588235294117 0.4666666666666667 0.4404761904761905 0.3870967741935484 0.3505154639175257 0.4189189189189189 0.35365853658536583 0.5064935064935064 0.4819277108433735 0.5263157894736842 0.14864864864864866 0.5074626865671642 0.4868421052631579 0.4705882352941176 0.5223880597014925 0.0 0.39436619718309857 0.2631578947368421 0.19402985074626866 0.0 0.41791044776119396 0.2602739726027397 0.2419354838709677 0.3582089552238806 0.4084507042253521 0.3205128205128205 0.4 0.4657534246575342 0.1724137931034483 0.2280701754385965 0.4153846153846154 0.6388888888888888 0.3522727272727273 0.32857142857142857 0.3050847457627119 0.4782608695652174 0.35135135135135137 0.6301369863013698
DB00104 0.0 0.0 0.0 0.25675675675675674 0.3478260869565217 0.3783783783783784 0.28378378378378377 0.20833333333333331 0.4696969696969697 0.40540540540540543 0.3333333333333333 0.4939759036144578 0.5774647887323944 0.4074074074074074 0.29411764705882354 0.19047619047619047 0.3918918918918919 0.4788732394366197 0.4794520547945205 0.4383561643835616 0.19696969696969696 0.3333333333333333 0.4714285714285714 0.4375 0.4078947368421053 0.5204081632653061 0.4204545454545455 0.5454545454545454 0.32 0.23943661971830985 0.582089552238806 0.4352941176470588 0.33707865168539325 0.32926829268292684 0.42857142857142855 0.573170731707317 0.5 0.3684210526315789 0.2835820895522388 0.3870967741935484 0.41025641025641024 0.5432098765432098 0.3333333333333333 0.3287671232876712 0.4939759036144578 0.5061728395061729 0.43478260869565216 0.21621621621621626 0.3461538461538461 0.4507042253521127 0.4657534246575342 0.3924050632911392 0.36781609195402293 0.4523809523809524 0.4266666666666667 0.5263157894736842 0.3857142857142857 0.4166666666666667 0.38028169014084506 0.3698630136986301 0.4788732394366197 0.32894736842105265 0.3023255813953488 0.3815789473684211 0.3623188405797101 0.6551724137931034 0.41025641025641024 0.4459459459459459 0.328125 0.2972972972972973 0.2328767123287671 0.3977272727272727 0.4137931034482759 0.19402985074626866 0.547945205479452 0.328125 0.4050632911392405 0.6582278481012658 0.2297297297297297 0.3461538461538461 0.35897435897435903 0.3924050632911392 0.4473684210526316 0.13333333333333333 0.41975308641975306 0.21333333333333332 0.5522388059701493 0.4823529411764706 0.4567901234567901 0.5061728395061729 0.6071428571428571 0.35714285714285715 0.5657894736842105 0.323943661971831 0.5 0.5348837209302325 0.2976190476190476 0.3058823529411765 0.34210526315789475 0.3287671232876712 0.3636363636363637 0.39436619718309857 0.5795454545454546 0.4166666666666667 0.3333333333333333 0.3235294117647059 0.5 0.4567901234567901 0.29577464788732394 0.5487804878048781 0.3283582089552239 0.4487179487179487 0.3555555555555556 0.3703703703703704 0.273972602739726 0.25806451612903225 0.3974358974358974 0.4025974025974026 0.3068181818181818 0.2716049382716049 0.3411764705882353 0.5769230769230769 0.4647887323943662 0.5205479452054794 0.3246753246753247 0.3880597014925373 0.4459459459459459 0.4691358024691358 0.325 0.24675324675324675 0.37777777777777777 0.38028169014084506 0.4 0.4642857142857143 0.4358974358974359 0.4324324324324325 0.56 0.4404761904761905 0.37333333333333335 0.3857142857142857 0.3116883116883117 0.5365853658536586 0.2894736842105263 0.2835820895522388 0.24390243902439024 0.4477611940298508 0.4383561643835616 0.3026315789473684 0.38461538461538464 0.3150684931506849 0.43478260869565216 0.308641975308642 0.5753424657534246 0.4933333333333334 0.2888888888888889 0.4078947368421053 0.3780487804878049 0.4487179487179487 0.5070422535211268 0.4936708860759494 0.4186046511627907 0.475 0.25609756097560976 0.4 0.4324324324324325 0.3461538461538461 0.3246753246753247 0.5915492957746479 0.5945945945945946 0.1780821917808219 0.3617021276595745 0.4605263157894737 0.4266666666666667 0.2804878048780488 0.4942528735632184 0.10294117647058824 0.5125 0.2714285714285714 0.5764705882352941 0.581081081081081 0.33783783783783783 0.2857142857142857 0.3974358974358974 0.24615384615384614 0.4623655913978494 0.4 0.5949367088607594 0.2597402597402597 0.3815789473684211 0.4736842105263158 0.5584415584415584 0.2465753424657534 0.4545454545454545 0.5529411764705883 0.4776119402985074 0.4459459459459459 0.2153846153846154 0.3648648648648649 0.32142857142857145 0.2236842105263158 0.5774647887323944 0.38461538461538464 0.2714285714285714 0.3253012048192771 0.5301204819277109 0.4074074074074074 0.41791044776119396 0.3246753246753247 0.6119402985074627 0.3026315789473684 0.2804878048780488 0.3717948717948718 0.4133333333333333 0.4857142857142857 0.4358974358974359 0.4545454545454545 0.39325842696629215 0.4 0.3333333333333333 0.203125 0.3561643835616438 0.4938271604938271 0.4657534246575342 0.5866666666666667 0.35443037974683544 0.6027397260273972 0.7051282051282052 0.24675324675324675 0.6153846153846154 0.5974025974025974 0.3625 0.10256410256410256 0.39130434782608703 0.3142857142857143 0.2647058823529412 0.3924050632911392 0.34177215189873417 0.3478260869565217 0.4235294117647059 0.3595505617977528 0.4125 0.2987012987012987 0.4457831325301205 0.3461538461538461 0.3170731707317073 0.4415584415584416 0.5138888888888888 0.4868421052631579 0.39325842696629215 0.6341463414634146 0.4303797468354431 0.4935064935064935 0.4615384615384616 0.3580246913580247 0.15942028985507245 0.40540540540540543 0.4805194805194805 0.4933333333333334 0.3150684931506849 0.375 0.6029411764705882 0.3424657534246575 0.21794871794871795 0.4848484848484849 0.2207792207792208 0.4523809523809524 0.4567901234567901 0.4657534246575342 0.36 0.35714285714285715 0.4473684210526316 0.5138888888888888 0.4558823529411765 0.4647887323943662 0.1780821917808219 0.4571428571428571 0.38461538461538464 0.5714285714285714 0.22666666666666666 0.38461538461538464 0.373134328358209 0.4189189189189189 0.5116279069767442 0.3287671232876712 0.3428571428571429 0.2575757575757576 0.547945205479452 0.4444444444444444 0.3707865168539326 0.4578313253012048 0.4383561643835616 0.2933333333333333 0.5189873417721519 0.3888888888888889 0.3424657534246575 0.5056179775280899 0.4307692307692308 0.3764705882352941 0.5125 0.20833333333333331 0.35443037974683544 0.32098765432098764 0.4157303370786517 0.40540540540540543 0.4805194805194805 0.4320987654320987 0.25396825396825395 0.4657534246575342 0.24285714285714285 0.3736263736263736 0.5061728395061729 0.22058823529411764 0.4027777777777778 0.4588235294117647 0.4117647058823529 0.4675324675324675 0.3296703296703297 0.5753424657534246 0.3116883116883117 0.3 0.2972972972972973 0.4827586206896552 0.4931506849315068 0.425 0.2597402597402597 0.4788732394366197 0.5522388059701493 0.4133333333333333 0.4324324324324325 0.4383561643835616 0.3703703703703704 0.5061728395061729 0.2153846153846154 0.3623188405797101 0.4137931034482759 0.475609756097561 0.2297297297297297 0.3287671232876712 0.4186046511627907 0.5316455696202531 0.35135135135135137 0.24615384615384614 0.25 0.5147058823529411 0.2753623188405797 0.2575757575757576 0.382716049382716 0.3787878787878788 0.4431818181818182 0.40540540540540543 0.3875 0.4594594594594595 0.5522388059701493 0.3428571428571429 0.42105263157894735 0.4057971014492754 0.547945205479452 0.4675324675324675 0.3380281690140845 0.1780821917808219 0.5217391304347826 0.5316455696202531 0.4 0.27631578947368424 0.273972602739726 0.4477611940298508 0.34328358208955223 0.2988505747126437 0.3125 0.3283582089552239 0.56 0.5 0.3736263736263736 0.463768115942029 0.4459459459459459 0.37681159420289856 0.2191780821917808 0.22857142857142854 0.20634920634920634 0.3414634146341464 0.4565217391304348 0.28378378378378377 0.2564102564102564 0.3125 0.3076923076923077 0.4457831325301205 0.5487804878048781 0.28169014084507044 0.4492753623188406 0.21621621621621626 0.5428571428571428 0.2388059701492537 0.16666666666666666 0.35135135135135137 0.4029850746268657 0.5 0.3882352941176471 0.3026315789473684 0.4886363636363637 0.29577464788732394 0.55 0.2575757575757576 0.40540540540540543 0.3783783783783784 0.2575757575757576 0.4078947368421053 0.37894736842105264 0.3026315789473684 0.5168539325842697 0.2714285714285714 0.175 0.33783783783783783 0.3478260869565217 0.2790697674418605 0.4303797468354431 0.4545454545454545 0.4 0.4022988505747127 0.5060240963855421 0.5857142857142857 0.1794871794871795 0.6285714285714286 0.5121951219512195 0.3026315789473684 0.3466666666666667 0.4473684210526316 0.3333333333333333 0.18571428571428567 0.48 0.3636363636363637 0.5421686746987951 0.5121951219512195 0.4673913043478261 0.3013698630136986 0.4166666666666667 0.32926829268292684 0.29577464788732394 0.5 0.5 0.3376623376623377 0.410958904109589 0.3246753246753247 0.029411764705882356 0.4810126582278481 0.5972222222222222 0.532608695652174 0.5694444444444444 0.4375 0.4857142857142857 0.5842696629213483 0.4714285714285714 0.5 0.6029411764705882 0.5 0.4647887323943662 0.4788732394366197 0.28378378378378377 0.4352941176470588 0.33783783783783783 0.4545454545454545 0.618421052631579 0.4146341463414634 0.5058823529411764 0.4871794871794872 0.5 0.4358974358974359 0.4090909090909091 0.5063291139240507 0.39436619718309857 0.3150684931506849 0.275 0.3972602739726027 0.4625 0.5421686746987951 0.4761904761904762 0.5164835164835165 0.4545454545454545 0.4390243902439024 0.5375 0.5294117647058824 0.5569620253164557 0.2777777777777778 0.5211267605633803 0.5 0.5348837209302325 0.4533333333333333 0.0 0.4722222222222222 0.25396825396825395 0.3384615384615385 0.0 0.4571428571428571 0.3026315789473684 0.2727272727272727 0.2564102564102564 0.3375 0.41025641025641024 0.4177215189873418 0.425 0.19047619047619047 0.203125 0.33783783783783783 0.5625 0.3548387096774194 0.3888888888888889 0.2537313432835821 0.3974358974358974 0.4459459459459459 0.5555555555555556
DB00122 0.0 0.0 0.0 0.0 0.2916666666666667 0.26785714285714285 0.28 0.4 0.2 0.21666666666666667 0.4 0.30985915492957744 0.2857142857142857 0.2388059701492537 0.2391304347826087 0.1891891891891892 0.09090909090909093 0.4230769230769231 0.203125 0.1935483870967742 0.2631578947368421 0.46 0.4117647058823529 0.3548387096774194 0.16923076923076924 0.2553191489361702 0.3623188405797101 0.2753623188405797 0.2363636363636364 0.1176470588235294 0.29310344827586204 0.1518987341772152 0.1139240506329114 0.4444444444444444 0.2898550724637681 0.2564102564102564 0.2359550561797753 0.21666666666666667 0.375 0.15294117647058825 0.234375 0.18987341772151897 0.09615384615384616 0.2692307692307692 0.2077922077922078 0.3188405797101449 0.07936507936507936 0.11320754716981132 0.2542372881355932 0.5 0.3333333333333333 0.12857142857142856 0.1891891891891892 0.3 0.15151515151515152 0.25274725274725274 0.15789473684210525 0.33962264150943394 0.3958333333333333 0.3018867924528302 0.21311475409836064 0.4893617021276596 0.15714285714285714 0.2333333333333333 0.4318181818181818 0.313953488372093 0.31666666666666665 0.35714285714285715 0.2558139534883721 0.2037037037037037 0.2553191489361702 0.373134328358209 0.08235294117647059 0.225 0.4137931034482759 0.125 0.3333333333333333 0.2987012987012987 0.42857142857142855 0.15625 0.20967741935483872 0.3389830508474576 0.234375 0.2272727272727273 0.42372881355932196 0.42857142857142855 0.35185185185185186 0.3380281690140845 0.1917808219178082 0.3382352941176471 0.3333333333333333 0.22058823529411764 0.3538461538461539 0.05 0.1935483870967742 0.2948717948717949 0.25806451612903225 0.14285714285714285 0.5777777777777777 0.2 0.2553191489361702 0.2830188679245283 0.3333333333333333 0.2241379310344828 0.4130434782608696 0.3111111111111111 0.3050847457627119 0.3181818181818182 0.03389830508474576 0.28 0.3809523809523809 0.22388059701492535 0.3188405797101449 0.25 0.19230769230769232 0.175 0.11428571428571427 0.2419354838709677 0.2352941176470588 0.14285714285714285 0.296875 0.3142857142857143 0.19672131147540986 0.42857142857142855 0.18333333333333326 0.2653061224489796 0.3333333333333333 0.2054794520547945 0.29310344827586204 0.32653061224489793 0.09411764705882353 0.030769230769230767 0.13846153846153847 0.1794871794871795 0.265625 0.15384615384615385 0.2463768115942029 0.18421052631578946 0.38461538461538464 0.15789473684210525 0.4583333333333333 0.23376623376623376 0.3958333333333333 0.25 0.2456140350877193 0.2692307692307692 0.32142857142857145 0.2363636363636364 0.2222222222222222 0.4130434782608696 0.36 0.3392857142857143 0.2 0.3064516129032258 0.08974358974358974 0.15151515151515152 0.3225806451612903 0.24242424242424246 0.3818181818181817 0.359375 0.2465753424657534 0.359375 0.16129032258064516 0.34 0.2711864406779661 0.34545454545454546 0.36538461538461536 0.28125 0.359375 0.2790697674418605 0.10227272727272728 0.2698412698412698 0.2258064516129032 0.12121212121212123 0.11235955056179776 0.047619047619047616 0.2328767123287671 0.3488372093023256 0.3205128205128205 0.30303030303030304 0.030303030303030307 0.2830188679245283 0.2786885245901639 0.19047619047619047 0.1797752808988764 0.13846153846153847 0.23376623376623376 0.03125 0.3962264150943397 0.25287356321839083 0.3088235294117647 0.1111111111111111 0.19753086419753085 0.32894736842105265 0.36 0.3333333333333333 0.09090909090909093 0.16666666666666666 0.06666666666666668 0.631578947368421 0.3278688524590164 0.3194444444444444 0.16 0.19696969696969696 0.2631578947368421 0.2388059701492537 0.2307692307692308 0.059701492537313425 0.3050847457627119 0.19298245614035087 0.1746031746031746 0.3333333333333333 0.3636363636363637 0.4313725490196079 0.3064516129032258 0.24615384615384614 0.36764705882352944 0.3728813559322034 0.22641509433962265 0.09523809523809523 0.3076923076923077 0.16883116883116886 0.26666666666666666 0.1891891891891892 0.2459016393442623 0.16216216216216214 0.3076923076923077 0.4444444444444444 0.25 0.2777777777777778 0.41818181818181815 0.0784313725490196 0.2037037037037037 0.19607843137254904 0.25 0.29508196721311475 0.4423076923076923 0.3478260869565217 0.3636363636363637 0.2 0.3898305084745763 0.5681818181818182 0.3088235294117647 0.32142857142857145 0.14925373134328354 0.25 0.3 0.22388059701492535 0.1625 0.2875 0.1388888888888889 0.3125 0.3076923076923077 0.4363636363636363 0.08888888888888889 0.3272727272727273 0.22058823529411764 0.265625 0.2037037037037037 0.44680851063829785 0.3 0.21818181818181814 0.2307692307692308 0.28846153846153844 0.18867924528301888 0.21333333333333332 0.1917808219178082 0.26666666666666666 0.12698412698412698 0.16363636363636366 0.29508196721311475 0.25806451612903225 0.3333333333333333 0.1774193548387097 0.2790697674418605 0.2033898305084746 0.2833333333333333 0.27848101265822783 0.12962962962962962 0.2419354838709677 0.24489795918367346 0.1935483870967742 0.3026315789473684 0.11864406779661014 0.21153846153846154 0.13043478260869565 0.3225806451612903 0.140625 0.08333333333333333 0.18421052631578946 0.2333333333333333 0.5 0.2898550724637681 0.11904761904761905 0.3137254901960784 0.13186813186813187 0.3478260869565217 0.08860759493670886 0.25 0.3333333333333333 0.2258064516129032 0.3103448275862069 0.20253164556962025 0.3272727272727273 0.31746031746031744 0.26865671641791045 0.2307692307692308 0.26666666666666666 0.05660377358490566 0.3623188405797101 0.3582089552238806 0.40540540540540543 0.42857142857142855 0.17721518987341772 0.3829787234042553 0.26153846153846155 0.05882352941176471 0.3125 0.42857142857142855 0.15873015873015872 0.16071428571428573 0.2405063291139241 0.2380952380952381 0.38333333333333336 0.15789473684210525 0.27586206896551724 0.25862068965517243 0.3157894736842105 0.25 0.32142857142857145 0.1267605633802817 0.3582089552238806 0.11627906976744184 0.21153846153846154 0.3142857142857143 0.3636363636363637 0.42857142857142855 0.43478260869565216 0.16666666666666666 0.18421052631578946 0.2777777777777778 0.06382978723404255 0.42105263157894735 0.3333333333333333 0.1176470588235294 0.08333333333333333 0.24615384615384614 0.15384615384615385 0.2972972972972973 0.35185185185185186 0.3333333333333333 0.2833333333333333 0.3272727272727273 0.14545454545454545 0.3275862068965517 0.2222222222222222 0.28125 0.3442622950819672 0.2075471698113208 0.2790697674418605 0.32142857142857145 0.18421052631578946 0.2765957446808511 0.3469387755102041 0.16981132075471694 0.2 0.3409090909090909 0.1388888888888889 0.2542372881355932 0.3181818181818182 0.2463768115942029 0.1724137931034483 0.09302325581395347 0.4 0.35714285714285715 0.16363636363636366 0.09433962264150944 0.0784313725490196 0.0975609756097561 0.234375 0.1839080459770115 0.12280701754385966 0.4888888888888889 0.1935483870967742 0.18333333333333326 0.2361111111111111 0.3150684931506849 0.01694915254237288 0.38 0.1346153846153846 0.18461538461538465 0.18181818181818185 0.2432432432432433 0.4081632653061225 0.3404255319148936 0.18072289156626506 0.16 0.3333333333333333 0.16279069767441862 0.6486486486486487 0.273972602739726 0.2682926829268293 0.3035714285714285 0.26785714285714285 0.18181818181818185 0.2258064516129032 0.19047619047619047 0.04615384615384616 0.2235294117647059 0.1836734693877551 0.4 0.25925925925925924 0.16981132075471694 0.16176470588235295 0.3898305084745763 0.19753086419753085 0.23943661971830985 0.18181818181818185 0.2533333333333333 0.17647058823529413 0.07017543859649122 0.31746031746031744 0.30985915492957744 0.4782608695652174 0.2962962962962963 0.31666666666666665 0.38 0.20930232558139536 0.19402985074626866 0.3962264150943397 0.2597402597402597 0.30985915492957744 0.2682926829268293 0.6410256410256411 0.09230769230769233 0.4444444444444444 0.3555555555555556 0.19402985074626866 0.3508771929824561 0.22033898305084745 0.3090909090909091 0.12698412698412698 0.08333333333333333 0.34375 0.3770491803278688 0.2790697674418605 0.22388059701492535 0.3548387096774194 0.35185185185185186 0.29411764705882354 0.2631578947368421 0.3508771929824561 0.3 0.4 0.35185185185185186 0.2333333333333333 0.2549019607843137 0.1518987341772152 0.2363636363636364 0.265625 0.2777777777777778 0.328125 0.18292682926829268 0.2318840579710145 0.34375 0.265625 0.16981132075471694 0.2571428571428571 0.19298245614035087 0.32653061224489793 0.36538461538461536 0.42 0.22857142857142854 0.3108108108108108 0.2916666666666667 0.27380952380952384 0.2857142857142857 0.24285714285714285 0.1948051948051948 0.2692307692307692 0.2777777777777778 0.03389830508474576 0.375 0.18666666666666668 0.2023809523809524 0.2 0.030303030303030307 0.4150943396226415 0.2307692307692308 0.21739130434782608 0.030303030303030307 0.2033898305084746 0.1724137931034483 0.06 0.3137254901960784 0.3103448275862069 0.19696969696969696 0.265625 0.3606557377049181 0.1891891891891892 0.2777777777777778 0.4782608695652174 0.4029850746268657 0.3013698630136986 0.1694915254237288 0.15217391304347827 0.3928571428571429 0.26666666666666666 0.37681159420289856
DB00125 0.0 0.0 0.0 0.0 0.0 0.18333333333333326 0.12280701754385966 0.16666666666666666 0.2452830188679245 0.21666666666666667 0.375 0.2916666666666667 0.35 0.16901408450704225 0.4615384615384616 0.2222222222222222 0.2631578947368421 0.3962264150943397 0.2833333333333333 0.3703703703703704 0.2 0.23728813559322035 0.3584905660377358 0.2537313432835821 0.15151515151515152 0.20408163265306126 0.2207792207792208 0.23943661971830985 0.13333333333333333 0.1176470588235294 0.3888888888888889 0.18181818181818185 0.15789473684210525 0.16417910447761194 0.20270270270270271 0.2894736842105263 0.25 0.1774193548387097 0.4864864864864865 0.18072289156626506 0.1791044776119403 0.2702702702702703 0.26666666666666666 0.13793103448275862 0.2077922077922078 0.28169014084507044 0.25925925925925924 0.0925925925925926 0.4230769230769231 0.3584905660377358 0.26666666666666666 0.16176470588235295 0.15789473684210525 0.3 0.16923076923076924 0.35714285714285715 0.375 0.2909090909090909 0.2641509433962264 0.4680851063829787 0.2982456140350877 0.25 0.0945945945945946 0.2542372881355932 0.26 0.313953488372093 0.2153846153846154 0.26666666666666666 0.5428571428571428 0.16071428571428573 0.1568627450980392 0.2777777777777778 0.1794871794871795 0.2894736842105263 0.36666666666666653 0.2272727272727273 0.19402985074626866 0.28205128205128205 0.15384615384615385 0.1935483870967742 0.171875 0.19696969696969696 0.16176470588235295 0.3170731707317073 0.21739130434782608 0.1320754716981132 0.40384615384615385 0.25 0.1917808219178082 0.21333333333333332 0.3164556962025317 0.2575757575757576 0.31343283582089554 0.16666666666666666 0.2982456140350877 0.2625 0.2 0.14285714285714285 0.2241379310344828 0.2 0.372093023255814 0.36 0.2558139534883721 0.2456140350877193 0.27450980392156865 0.2553191489361702 0.26229508196721313 0.3384615384615385 0.19607843137254904 0.2972972972972973 0.3488372093023256 0.2058823529411765 0.1973684210526316 0.17647058823529413 0.08771929824561403 0.3055555555555556 0.21875 0.3050847457627119 0.18309859154929575 0.16129032258064516 0.22058823529411764 0.2777777777777778 0.35185185185185186 0.3333333333333333 0.109375 0.4090909090909091 0.2459016393442623 0.3333333333333333 0.15384615384615385 0.1206896551724138 0.19230769230769232 0.13559322033898305 0.2542372881355932 0.2432432432432433 0.20895522388059698 0.15384615384615385 0.3230769230769231 0.18421052631578946 0.3090909090909091 0.375 0.2280701754385965 0.25 0.17543859649122806 0.14583333333333334 0.18333333333333326 0.3469387755102041 0.27586206896551724 0.13333333333333333 0.2419354838709677 0.27450980392156865 0.2363636363636364 0.15384615384615385 0.2923076923076923 0.2272727272727273 0.11842105263157895 0.3818181818181817 0.28125 0.24242424242424246 0.35714285714285715 0.2608695652173913 0.21333333333333332 0.24285714285714285 0.16129032258064516 0.24074074074074076 0.4150943396226415 0.2542372881355932 0.16393442622950818 0.3442622950819672 0.359375 0.1702127659574468 0.1411764705882353 0.19402985074626866 0.2258064516129032 0.08823529411764706 0.2531645569620253 0.41935483870967744 0.2857142857142857 0.23404255319148934 0.2716049382716049 0.34375 0.19298245614035087 0.19298245614035087 0.2 0.35135135135135137 0.1797752808988764 0.2982456140350877 0.3194444444444444 0.17857142857142858 0.32142857142857145 0.2111111111111111 0.4354838709677419 0.2 0.2435897435897436 0.27848101265822783 0.3333333333333333 0.2459016393442623 0.14285714285714285 0.42857142857142855 0.1111111111111111 0.2653061224489796 0.3728813559322034 0.28378378378378377 0.3181818181818182 0.14492753623188406 0.24675324675324675 0.16901408450704225 0.2307692307692308 0.2909090909090909 0.4259259259259259 0.11475409836065575 0.12121212121212123 0.2258064516129032 0.3157894736842105 0.35185185185185186 0.265625 0.2272727272727273 0.24 0.2857142857142857 0.18181818181818185 0.1794871794871795 0.4782608695652174 0.2328767123287671 0.2258064516129032 0.2753623188405797 0.16923076923076924 0.43333333333333335 0.4166666666666667 0.18181818181818185 0.4393939393939394 0.2777777777777778 0.18181818181818185 0.0576923076923077 0.25 0.1509433962264151 0.1702127659574468 0.3389830508474576 0.19047619047619047 0.3191489361702128 0.25 0.3235294117647059 0.17142857142857146 0.1896551724137931 0.2714285714285714 0.15625 0.14925373134328354 0.21212121212121213 0.3928571428571429 0.28125 0.25675675675675674 0.2716049382716049 0.3442622950819672 0.2923076923076923 0.24390243902439024 0.31666666666666665 0.13953488372093026 0.25862068965517243 0.2575757575757576 0.265625 0.18181818181818185 0.36 0.4716981132075472 0.17543859649122806 0.1851851851851852 0.425531914893617 0.14545454545454545 0.18181818181818185 0.1917808219178082 0.2258064516129032 0.26785714285714285 0.2307692307692308 0.2153846153846154 0.3 0.3877551020408163 0.2807017543859649 0.1702127659574468 0.2456140350877193 0.2222222222222222 0.23170731707317074 0.12962962962962962 0.203125 0.4186046511627907 0.15625 0.33783783783783783 0.2 0.18867924528301888 0.13043478260869565 0.3442622950819672 0.2807017543859649 0.1973684210526316 0.2328767123287671 0.2982456140350877 0.2692307692307692 0.2191780821917808 0.18987341772151897 0.21818181818181814 0.15730337078651685 0.3478260869565217 0.1780821917808219 0.21621621621621626 0.16666666666666666 0.1875 0.16923076923076924 0.28378378378378377 0.19672131147540986 0.2769230769230769 0.19718309859154928 0.2631578947368421 0.2258064516129032 0.14285714285714285 0.3055555555555556 0.2638888888888889 0.15555555555555556 0.3461538461538461 0.2077922077922078 0.32653061224489793 0.3015873015873016 0.16883116883116886 0.3548387096774194 0.1864406779661017 0.12307692307692307 0.22641509433962265 0.32432432432432434 0.2 0.2388059701492537 0.15789473684210525 0.21311475409836064 0.37735849056603776 0.2711864406779661 0.171875 0.27586206896551724 0.17647058823529413 0.2638888888888889 0.2 0.26 0.21052631578947367 0.21621621621621626 0.15384615384615385 0.2222222222222222 0.3382352941176471 0.3235294117647059 0.23214285714285715 0.16279069767441862 0.2 0.38461538461538464 0.2391304347826087 0.13043478260869565 0.19117647058823528 0.3636363636363637 0.2307692307692308 0.23728813559322035 0.17647058823529413 0.2222222222222222 0.3272727272727273 0.3125 0.2833333333333333 0.40425531914893614 0.24242424242424246 0.36666666666666653 0.1851851851851852 0.1702127659574468 0.34545454545454546 0.3043478260869565 0.4634146341463415 0.2452830188679245 0.08771929824561403 0.29411764705882354 0.4390243902439024 0.1388888888888889 0.1044776119402985 0.5263157894736842 0.3230769230769231 0.2830188679245283 0.18987341772151897 0.3207547169811321 0.26666666666666666 0.1851851851851852 0.3809523809523809 0.1 0.15384615384615385 0.1791044776119403 0.2875 0.4222222222222222 0.34 0.15625 0.18333333333333326 0.2361111111111111 0.21518987341772156 0.1320754716981132 0.35294117647058826 0.0925925925925926 0.2419354838709677 0.18181818181818185 0.1794871794871795 0.2777777777777778 0.3404255319148936 0.30666666666666664 0.20833333333333331 0.13333333333333333 0.25 0.22 0.2916666666666667 0.5294117647058824 0.25862068965517243 0.2241379310344828 0.3 0.20634920634920634 0.20481927710843373 0.21428571428571427 0.2682926829268293 0.1836734693877551 0.125 0.1724137931034483 0.12727272727272726 0.16176470588235295 0.18840579710144928 0.2597402597402597 0.3333333333333333 0.2465753424657534 0.20512820512820512 0.2698412698412698 0.10909090909090907 0.3606557377049181 0.2077922077922078 0.1724137931034483 0.42857142857142855 0.2153846153846154 0.2545454545454545 0.15555555555555556 0.2698412698412698 0.32142857142857145 0.2435897435897436 0.2077922077922078 0.20930232558139536 0.2075471698113208 0.2456140350877193 0.16417910447761194 0.17307692307692307 0.2903225806451613 0.375 0.18032786885245905 0.22033898305084745 0.14516129032258066 0.08333333333333333 0.2647058823529412 0.3548387096774194 0.2222222222222222 0.36666666666666653 0.2923076923076923 0.37735849056603776 0.25 0.3333333333333333 0.2833333333333333 0.3928571428571429 0.3508771929824561 0.35185185185185186 0.2542372881355932 0.16363636363636366 0.2465753424657534 0.2363636363636364 0.20895522388059698 0.3142857142857143 0.328125 0.27631578947368424 0.21428571428571427 0.30303030303030304 0.20895522388059698 0.4418604651162791 0.2571428571428571 0.2363636363636364 0.22641509433962265 0.16393442622950818 0.2241379310344828 0.22857142857142854 0.3108108108108108 0.5121951219512195 0.2159090909090909 0.20895522388059698 0.24285714285714285 0.3142857142857143 0.2531645569620253 0.2432432432432433 0.1509433962264151 0.3275862068965517 0.2898550724637681 0.2625 0.2786885245901639 0.0 0.3392857142857143 0.2631578947368421 0.3333333333333333 0.0 0.2241379310344828 0.11475409836065575 0.15217391304347827 0.17543859649122806 0.13432835820895522 0.14492753623188406 0.17391304347826084 0.22058823529411764 0.2222222222222222 0.1794871794871795 0.19298245614035087 0.2876712328767123 0.15853658536585366 0.3269230769230769 0.2926829268292683 0.2 0.3333333333333333 0.26666666666666666
DB00136 0.0 0.0 0.0 0.0 0.0 0.0 0.825 0.5116279069767442 0.3636363636363637 0.7446808510638298 0.2463768115942029 0.3246753246753247 0.34328358208955223 0.6140350877192983 0.2222222222222222 0.1276595744680851 0.19117647058823528 0.38333333333333336 0.2112676056338028 0.3387096774193548 0.2127659574468085 0.5185185185185185 0.3965517241379311 0.453125 0.19718309859154928 0.2828282828282828 0.2875 0.3661971830985916 0.18461538461538465 0.375 0.3125 0.25 0.18292682926829268 0.359375 0.2894736842105263 0.3048780487804878 0.33707865168539325 0.64 0.30612244897959184 0.18888888888888888 0.6923076923076923 0.3037974683544304 0.2692307692307692 0.3157894736842105 0.21428571428571427 0.35135135135135137 0.203125 0.11475409836065575 0.136986301369863 0.3965517241379311 0.328125 0.2753623188405797 0.27631578947368424 0.3333333333333333 0.18055555555555555 0.26804123711340205 0.2711864406779661 0.2698412698412698 0.1875 0.25806451612903225 0.38333333333333336 0.490566037735849 0.38461538461538464 0.5660377358490566 0.3333333333333333 0.3406593406593407 0.41935483870967744 0.25 0.2857142857142857 0.7209302325581395 0.5454545454545454 0.32894736842105265 0.21686746987951808 0.3488372093023256 0.3188405797101449 0.21153846153846154 0.4126984126984127 0.3974358974358974 0.3018867924528302 0.22058823529411764 0.7142857142857143 0.3968253968253968 0.31343283582089554 0.08620689655172414 0.4090909090909091 0.3269230769230769 0.3015873015873016 0.4647887323943662 0.28 0.28205128205128205 0.3614457831325301 0.16455696202531644 0.3108108108108108 0.16129032258064516 0.38333333333333336 0.4473684210526316 0.16 0.2361111111111111 0.3114754098360656 0.7045454545454546 0.2830188679245283 0.3050847457627119 0.3146067415730337 0.5686274509803921 0.32142857142857145 0.2830188679245283 0.30303030303030304 0.3150684931506849 0.12903225806451613 0.4583333333333333 0.28846153846153844 0.6851851851851852 0.28205128205128205 0.6481481481481481 0.6511627906976745 0.16666666666666666 0.1917808219178082 0.2112676056338028 0.2236842105263158 0.1095890410958904 0.1948051948051948 0.27848101265822783 0.24242424242424246 0.4126984126984127 0.5686274509803921 0.2456140350877193 0.3709677419354839 0.2435897435897436 0.18309859154929575 0.2542372881355932 0.18604651162790695 0.15151515151515152 0.296875 0.23170731707317074 0.7307692307692307 0.3333333333333333 0.4393939393939394 0.2531645569620253 0.3728813559322034 0.2711864406779661 0.27419354838709675 0.2380952380952381 0.2459016393442623 0.4222222222222222 0.2903225806451613 0.25 0.3387096774193548 0.6382978723404256 0.4827586206896552 0.2982456140350877 0.3275862068965517 0.2 0.30985915492957744 0.3235294117647059 0.10588235294117647 0.18055555555555555 0.2465753424657534 0.2638888888888889 0.3709677419354839 0.3333333333333333 0.25 0.4545454545454545 0.14084507042253522 0.26666666666666666 0.21739130434782608 0.31746031746031744 0.3559322033898305 0.3582089552238806 0.4328358208955224 0.5238095238095238 0.16483516483516486 0.3088235294117647 0.2318840579710145 0.2388059701492537 0.2413793103448276 0.019230769230769232 0.2857142857142857 0.28846153846153844 0.4358974358974359 0.3194444444444444 0.14925373134328354 0.18461538461538465 0.6730769230769231 0.3409090909090909 0.3103448275862069 0.22058823529411764 0.2839506172839506 0.08695652173913042 0.22058823529411764 0.2553191489361702 0.2727272727272727 0.1129032258064516 0.24705882352941175 0.4473684210526316 0.375 0.3709677419354839 0.26666666666666666 0.14492753623188406 0.14102564102564102 0.3148148148148148 0.3043478260869565 0.2530120481927711 0.24074074074074076 0.5714285714285714 0.25 0.6140350877192983 0.35185185185185186 0.08108108108108109 0.43333333333333335 0.6382978723404256 0.3387096774193548 0.2878787878787879 0.4 0.4137931034482759 0.21621621621621626 0.6981132075471698 0.25925925925925924 0.2328767123287671 0.7619047619047619 0.12244897959183673 0.26229508196721313 0.2531645569620253 0.7708333333333334 0.27631578947368424 0.7 0.3013698630136986 0.3875 0.34545454545454546 0.2682926829268293 0.27848101265822783 0.5 0.06666666666666668 0.6444444444444445 0.5909090909090909 0.39130434782608703 0.2222222222222222 0.42372881355932196 0.3148148148148148 0.2857142857142857 0.1927710843373494 0.4444444444444444 0.3684210526315789 0.225 0.2388059701492537 0.2647058823529412 0.7115384615384616 0.29850746268656714 0.4444444444444444 0.1724137931034483 0.4177215189873418 0.1518987341772152 0.4090909090909091 0.32142857142857145 0.3538461538461539 0.1836734693877551 0.36666666666666653 0.3333333333333333 0.3636363636363637 0.7209302325581395 0.2222222222222222 0.2608695652173913 0.16923076923076924 0.12307692307692307 0.4074074074074074 0.09090909090909093 0.25 0.28 0.7708333333333334 0.14285714285714285 0.140625 0.29411764705882354 0.5 0.26229508196721313 0.18840579710144928 0.5238095238095238 0.25 0.2112676056338028 0.3580246913580247 0.060606060606060615 0.72 0.3461538461538461 0.38333333333333336 0.3012048192771085 0.171875 0.6744186046511628 0.32608695652173914 0.3787878787878788 0.26153846153846155 0.19047619047619047 0.2222222222222222 0.3387096774193548 0.3157894736842105 0.32432432432432434 0.1839080459770115 0.16923076923076924 0.25842696629213485 0.392156862745098 0.09195402298850576 0.2692307692307692 0.08333333333333333 0.1643835616438356 0.19718309859154928 0.18181818181818185 0.3442622950819672 0.4153846153846154 0.6491228070175439 0.1875 0.7708333333333334 0.3 0.3037974683544304 0.5151515151515151 0.17307692307692307 0.29508196721311475 0.24390243902439024 0.4509803921568628 0.3188405797101449 0.1511627906976744 0.32857142857142857 0.3389830508474576 0.2058823529411765 0.2542372881355932 0.27380952380952384 0.24285714285714285 0.2777777777777778 0.3392857142857143 0.296875 0.4909090909090909 0.3125 0.3770491803278688 0.3387096774193548 0.17105263157894735 0.35135135135135137 0.2127659574468085 0.6 0.2625 0.5 0.3018867924528302 0.29310344827586204 0.16279069767441862 0.2375 0.6595744680851063 0.3111111111111111 0.16666666666666666 0.42105263157894735 0.2 0.2708333333333333 0.5254237288135594 0.1694915254237288 0.2962962962962963 0.22388059701492535 0.390625 0.7916666666666666 0.3442622950819672 0.2631578947368421 0.30303030303030304 0.3636363636363637 0.28169014084507044 0.2638888888888889 0.6590909090909091 0.5238095238095238 0.3387096774193548 0.2375 0.3018867924528302 0.2295081967213115 0.6511627906976745 0.29310344827586204 0.2830188679245283 0.1097560975609756 0.2769230769230769 0.3673469387755102 0.4393939393939394 0.3050847457627119 0.15730337078651685 0.462962962962963 0.25 0.3272727272727273 0.06349206349206349 0.06666666666666668 0.2272727272727273 0.6296296296296297 0.25842696629213485 0.140625 0.20634920634920634 0.2575757575757576 0.2307692307692308 0.2405063291139241 0.4 0.1129032258064516 0.21875 0.3076923076923077 0.2835820895522388 0.2978723404255319 0.2790697674418605 0.3684210526315789 0.3584905660377358 0.20224719101123595 0.1566265060240964 0.18461538461538465 0.23863636363636365 0.2727272727272727 0.36 0.2708333333333333 0.4137931034482759 0.2307692307692308 0.12962962962962962 0.3934426229508197 0.26744186046511625 0.1 0.2988505747126437 0.24074074074074076 0.2857142857142857 0.16666666666666666 0.3148148148148148 0.1891891891891892 0.4 0.20454545454545456 0.2278481012658228 0.25 0.3205128205128205 0.2898550724637681 0.16666666666666666 0.3939393939393939 0.2911392405063291 0.3275862068965517 0.234375 0.31343283582089554 0.2380952380952381 0.19607843137254904 0.3088235294117647 0.22058823529411764 0.24705882352941175 0.2911392405063291 0.25555555555555554 0.3035714285714285 0.2698412698412698 0.359375 0.16666666666666666 0.4354838709677419 0.43333333333333335 0.7608695652173914 0.265625 0.2307692307692308 0.06666666666666668 0.4615384615384616 0.36764705882352944 0.29347826086956524 0.3188405797101449 0.4761904761904762 0.3015873015873016 0.4166666666666667 0.265625 0.4827586206896552 0.359375 0.4827586206896552 0.36666666666666653 0.5370370370370371 0.15873015873015872 0.16279069767441862 0.375 0.6666666666666666 0.2625 0.2207792207792208 0.24705882352941175 0.46875 0.3013698630136986 0.7307692307692307 0.2909090909090909 0.27631578947368424 0.6382978723404256 0.5416666666666666 0.2307692307692308 0.25 0.4615384615384616 0.2325581395348837 0.2241379310344828 0.27472527472527475 0.6981132075471698 0.2 0.27848101265822783 0.3333333333333333 0.3466666666666667 0.09375 0.4098360655737705 0.2405063291139241 0.25 0.4262295081967213 0.0 0.4482758620689655 0.1875 0.25 0.0 0.3559322033898305 0.5714285714285714 0.2916666666666667 0.20634920634920634 0.25 0.5714285714285714 0.6666666666666666 0.4603174603174603 0.1276595744680851 0.1702127659574468 0.2419354838709677 0.4927536231884058 0.2682926829268293 0.25806451612903225 0.3478260869565217 0.4032258064516129 0.328125 0.5072463768115942
DB00153 0.0 0.0 0.0 0.0 0.0 0.0 0.0 0.5675675675675675 0.2363636363636364 0.5957446808510638 0.234375 0.26666666666666666 0.2769230769230769 0.5178571428571429 0.1568627450980392 0.12195121951219512 0.1746031746031746 0.3333333333333333 0.16176470588235295 0.2459016393442623 0.2195121951219512 0.5 0.34545454545454546 0.36507936507936506 0.18181818181818185 0.25 0.24675324675324675 0.3235294117647059 0.1864406779661017 0.372093023255814 0.2222222222222222 0.2236842105263158 0.125 0.3793103448275862 0.2638888888888889 0.25 0.2727272727272727 0.5625 0.2391304347826087 0.14942528735632185 0.5576923076923077 0.21518987341772156 0.18 0.36 0.21794871794871795 0.2916666666666667 0.16666666666666666 0.12962962962962962 0.08571428571428573 0.34545454545454546 0.3220338983050847 0.265625 0.2328767123287671 0.273972602739726 0.16417910447761194 0.20833333333333331 0.21428571428571427 0.25862068965517243 0.1694915254237288 0.14516129032258066 0.26666666666666666 0.4693877551020408 0.38333333333333336 0.4339622641509434 0.3541666666666667 0.2637362637362637 0.3728813559322034 0.2380952380952381 0.21739130434782608 0.7631578947368421 0.6052631578947368 0.2702702702702703 0.175 0.3076923076923077 0.2727272727272727 0.1914893617021277 0.3898305084745763 0.3076923076923077 0.3191489361702128 0.16923076923076924 0.6739130434782609 0.3965517241379311 0.2857142857142857 0.05660377358490566 0.36507936507936506 0.3478260869565217 0.25 0.4057971014492754 0.2535211267605634 0.25675675675675674 0.308641975308642 0.14864864864864866 0.2676056338028169 0.16071428571428573 0.3103448275862069 0.37333333333333335 0.17647058823529413 0.17142857142857146 0.3272727272727273 0.7 0.22 0.2280701754385965 0.2790697674418605 0.4897959183673469 0.3137254901960784 0.2978723404255319 0.2153846153846154 0.2535211267605634 0.10526315789473684 0.38028169014084506 0.25 0.5849056603773585 0.25675675675675674 0.5769230769230769 0.7297297297297297 0.16666666666666666 0.15942028985507245 0.12857142857142856 0.19444444444444445 0.12121212121212123 0.21428571428571427 0.2207792207792208 0.20967741935483872 0.3015873015873016 0.5869565217391305 0.2307692307692308 0.3220338983050847 0.15384615384615385 0.18461538461538465 0.28846153846153844 0.13095238095238096 0.13114754098360654 0.20634920634920634 0.16049382716049382 0.5961538461538461 0.26229508196721313 0.3333333333333333 0.2432432432432433 0.32142857142857145 0.21428571428571427 0.2631578947368421 0.2278481012658228 0.2545454545454545 0.425 0.23728813559322035 0.21428571428571427 0.3333333333333333 0.5909090909090909 0.4107142857142857 0.3137254901960784 0.3461538461538461 0.203125 0.2463768115942029 0.2769230769230769 0.10126582278481013 0.16417910447761194 0.2 0.2352941176470588 0.25806451612903225 0.2714285714285714 0.19230769230769232 0.4126984126984127 0.12121212121212123 0.23214285714285715 0.18461538461538465 0.3103448275862069 0.40384615384615385 0.2923076923076923 0.3692307692307693 0.5833333333333334 0.13793103448275862 0.28125 0.2 0.2258064516129032 0.1744186046511628 0.0 0.22666666666666666 0.3043478260869565 0.3636363636363637 0.2571428571428571 0.09375 0.1864406779661017 0.6 0.2380952380952381 0.2441860465116279 0.16923076923076924 0.19753086419753085 0.0625 0.1875 0.21978021978021975 0.1973684210526316 0.12727272727272726 0.16470588235294115 0.37333333333333335 0.3461538461538461 0.3220338983050847 0.25 0.125 0.1232876712328767 0.2549019607843137 0.2388059701492537 0.2125 0.2 0.5283018867924528 0.225 0.5178571428571429 0.29411764705882354 0.05797101449275361 0.3389830508474576 0.6666666666666666 0.3103448275862069 0.2786885245901639 0.3508771929824561 0.3636363636363637 0.18571428571428567 0.5660377358490566 0.23376623376623376 0.22058823529411764 0.8108108108108109 0.11627906976744184 0.14754098360655735 0.1794871794871795 0.625 0.18421052631578946 0.625 0.2222222222222222 0.3 0.34 0.19753086419753085 0.2207792207792208 0.5384615384615384 0.03636363636363636 0.4888888888888889 0.6153846153846154 0.425 0.15714285714285714 0.4 0.2549019607843137 0.2432432432432433 0.12195121951219512 0.42372881355932196 0.392156862745098 0.1973684210526316 0.2459016393442623 0.2153846153846154 0.5769230769230769 0.2698412698412698 0.3770491803278688 0.1176470588235294 0.3291139240506329 0.13513513513513514 0.3230769230769231 0.2682926829268293 0.24615384615384614 0.18604651162790695 0.3392857142857143 0.26865671641791045 0.2769230769230769 0.7631578947368421 0.20689655172413796 0.19402985074626866 0.1694915254237288 0.06451612903225806 0.3269230769230769 0.1016949152542373 0.24 0.2535211267605634 0.625 0.12307692307692307 0.1 0.24615384615384614 0.4035087719298245 0.2280701754385965 0.13636363636363635 0.5833333333333334 0.23728813559322035 0.2153846153846154 0.3037974683544304 0.06779661016949153 0.6458333333333334 0.2857142857142857 0.3103448275862069 0.2469135802469136 0.1724137931034483 0.6666666666666666 0.3170731707317073 0.3125 0.19047619047619047 0.13414634146341464 0.1794871794871795 0.288135593220339 0.3076923076923077 0.28169014084507044 0.14285714285714285 0.1694915254237288 0.20689655172413796 0.28 0.060240963855421686 0.2432432432432433 0.07407407407407407 0.18181818181818185 0.2 0.12790697674418605 0.3157894736842105 0.328125 0.5535714285714286 0.19047619047619047 0.625 0.20833333333333331 0.24675324675324675 0.453125 0.17391304347826084 0.2631578947368421 0.20253164556962025 0.34 0.2727272727272727 0.12195121951219512 0.2647058823529412 0.3584905660377358 0.171875 0.15517241379310345 0.2195121951219512 0.25 0.25 0.3076923076923077 0.3103448275862069 0.3636363636363637 0.2833333333333333 0.3508771929824561 0.3333333333333333 0.1388888888888889 0.2916666666666667 0.2195121951219512 0.4772727272727273 0.2368421052631579 0.4153846153846154 0.3191489361702128 0.3076923076923077 0.10714285714285714 0.15 0.5434782608695652 0.20930232558139536 0.16666666666666666 0.2982456140350877 0.1568627450980392 0.2272727272727273 0.456140350877193 0.08771929824561403 0.2564102564102564 0.20967741935483872 0.3898305084745763 0.6458333333333334 0.3157894736842105 0.2037037037037037 0.29508196721311475 0.2830188679245283 0.2727272727272727 0.2 0.65 0.5833333333333334 0.288135593220339 0.15 0.24 0.21428571428571427 0.7297297297297297 0.25925925925925924 0.22 0.10526315789473684 0.2258064516129032 0.3043478260869565 0.3333333333333333 0.2962962962962963 0.11627906976744184 0.3584905660377358 0.2380952380952381 0.2452830188679245 0.03448275862068965 0.07547169811320754 0.20512820512820512 0.5882352941176471 0.19318181818181815 0.1 0.1694915254237288 0.20634920634920634 0.19672131147540986 0.2465753424657534 0.32432432432432434 0.08771929824561403 0.18333333333333326 0.2978723404255319 0.234375 0.3170731707317073 0.2631578947368421 0.3148148148148148 0.3 0.13636363636363635 0.14102564102564102 0.1864406779661017 0.1724137931034483 0.2857142857142857 0.26666666666666666 0.2272727272727273 0.3636363636363637 0.21666666666666667 0.1020408163265306 0.2786885245901639 0.18604651162790695 0.09375 0.2325581395348837 0.2765957446808511 0.3 0.16666666666666666 0.28 0.17391304347826084 0.3548387096774194 0.1511627906976744 0.15384615384615385 0.19230769230769232 0.28 0.22388059701492535 0.08620689655172414 0.328125 0.26666666666666666 0.3461538461538461 0.14285714285714285 0.265625 0.2456140350877193 0.2272727272727273 0.22388059701492535 0.20634920634920634 0.2375 0.26666666666666666 0.2183908045977012 0.32 0.1774193548387097 0.3793103448275862 0.18867924528301888 0.36666666666666653 0.3389830508474576 0.7209302325581395 0.2542372881355932 0.21666666666666667 0.07894736842105263 0.3968253968253968 0.30303030303030304 0.24444444444444444 0.2352941176470588 0.43333333333333335 0.2295081967213115 0.3333333333333333 0.2333333333333333 0.4363636363636363 0.2698412698412698 0.4363636363636363 0.3157894736842105 0.52 0.15789473684210525 0.13414634146341464 0.4 0.5660377358490566 0.20512820512820512 0.1917808219178082 0.16470588235294115 0.4262295081967213 0.23943661971830985 0.5961538461538461 0.2075471698113208 0.25 0.5217391304347826 0.4888888888888889 0.23728813559322035 0.25862068965517243 0.41935483870967744 0.1927710843373494 0.1851851851851852 0.23863636363636365 0.5961538461538461 0.20270270270270271 0.18987341772151897 0.2948717948717949 0.2876712328767123 0.08620689655172414 0.31666666666666665 0.16666666666666666 0.19767441860465115 0.3114754098360656 0.0 0.4259259259259259 0.19047619047619047 0.23404255319148934 0.0 0.3272727272727273 0.5909090909090909 0.2222222222222222 0.21052631578947367 0.25806451612903225 0.5882352941176471 0.5961538461538461 0.4406779661016949 0.12195121951219512 0.17073170731707318 0.2727272727272727 0.4117647058823529 0.2597402597402597 0.18333333333333326 0.1956521739130435 0.3793103448275862 0.25806451612903225 0.4057971014492754
DB00162 0.0 0.0 0.0 0.0 0.0 0.0 0.0 0.0 0.25 0.3958333333333333 0.2909090909090909 0.2608695652173913 0.25 0.4259259259259259 0.18604651162790695 0.15151515151515152 0.1 0.3333333333333333 0.14516129032258066 0.19298245614035087 0.2727272727272727 0.3958333333333333 0.32 0.25806451612903225 0.1111111111111111 0.1914893617021277 0.2222222222222222 0.18840579710144928 0.14814814814814814 0.24390243902439024 0.1896551724137931 0.13333333333333333 0.1232876712328767 0.3333333333333333 0.2028985507246377 0.15 0.2380952380952381 0.3958333333333333 0.2894736842105263 0.10843373493975904 0.4313725490196079 0.14285714285714285 0.13333333333333333 0.2 0.1153846153846154 0.25 0.10714285714285714 0.10416666666666667 0.11475409836065575 0.3469387755102041 0.20689655172413796 0.19672131147540986 0.18840579710144928 0.26865671641791045 0.09375 0.1868131868131868 0.1320754716981132 0.3 0.19607843137254904 0.16666666666666666 0.25925925925925924 0.3617021276595745 0.2295081967213115 0.36 0.32558139534883723 0.2159090909090909 0.25862068965517243 0.25 0.2972972972972973 0.4390243902439024 0.5588235294117647 0.2463768115942029 0.08860759493670886 0.34375 0.2258064516129032 0.14285714285714285 0.27586206896551724 0.2207792207792208 0.35 0.11475409836065575 0.4081632653061225 0.25862068965517243 0.15873015873015872 0.06666666666666668 0.3220338983050847 0.3170731707317073 0.24074074074074076 0.3088235294117647 0.15714285714285714 0.21428571428571427 0.225 0.11594202898550725 0.24242424242424246 0.05555555555555555 0.21428571428571427 0.28378378378378377 0.14285714285714285 0.15625 0.3829787234042553 0.42857142857142855 0.20454545454545456 0.2916666666666667 0.24390243902439024 0.32653061224489793 0.2553191489361702 0.325 0.16393442622950818 0.2857142857142857 0.0576923076923077 0.2857142857142857 0.2380952380952381 0.4074074074074074 0.2878787878787879 0.4509803921568628 0.4736842105263158 0.17142857142857146 0.1076923076923077 0.109375 0.25806451612903225 0.08196721311475409 0.16666666666666666 0.1780821917808219 0.17543859649122806 0.27586206896551724 0.3829787234042553 0.21739130434782608 0.2727272727272727 0.15492957746478872 0.1694915254237288 0.2553191489361702 0.07407407407407407 0.05172413793103448 0.15254237288135594 0.14666666666666667 0.4705882352941176 0.1694915254237288 0.25 0.16666666666666666 0.32 0.1320754716981132 0.3333333333333333 0.14102564102564102 0.2708333333333333 0.2894736842105263 0.27450980392156865 0.15384615384615385 0.19298245614035087 0.4761904761904762 0.33962264150943394 0.2826086956521739 0.24 0.21052631578947367 0.11428571428571427 0.19047619047619047 0.0821917808219178 0.1111111111111111 0.2258064516129032 0.16923076923076924 0.2280701754385965 0.24615384615384614 0.19718309859154928 0.24615384615384614 0.13793103448275862 0.19607843137254904 0.1896551724137931 0.21428571428571427 0.3 0.2459016393442623 0.3064516129032258 0.75 0.08333333333333333 0.2333333333333333 0.16666666666666666 0.21428571428571427 0.12048192771084335 0.0 0.1506849315068493 0.3333333333333333 0.2435897435897436 0.19402985074626866 0.06896551724137931 0.14814814814814814 0.5 0.1891891891891892 0.1511627906976744 0.13333333333333333 0.12658227848101267 0.05263157894736842 0.21428571428571427 0.21176470588235294 0.1527777777777778 0.08 0.1375 0.25 0.2653061224489796 0.2727272727272727 0.16666666666666666 0.12280701754385966 0.08823529411764706 0.2727272727272727 0.25 0.2191780821917808 0.15555555555555556 0.37735849056603776 0.15384615384615385 0.4259259259259259 0.20833333333333331 0.06557377049180327 0.26785714285714285 0.4418604651162791 0.2363636363636364 0.2280701754385965 0.21052631578947367 0.34 0.20967741935483872 0.4423076923076923 0.2608695652173913 0.20967741935483872 0.475 0.14285714285714285 0.16981132075471694 0.13513513513513514 0.4893617021276596 0.1388888888888889 0.4583333333333333 0.1111111111111111 0.21518987341772156 0.3409090909090909 0.14102564102564102 0.16216216216216214 0.4693877551020408 0.0425531914893617 0.3409090909090909 0.375 0.3611111111111111 0.1774193548387097 0.38 0.24444444444444444 0.2 0.1506849315068493 0.26666666666666666 0.4 0.2388059701492537 0.2363636363636364 0.14516129032258066 0.4509803921568628 0.2 0.2258064516129032 0.12987012987012986 0.2435897435897436 0.10144927536231883 0.18181818181818185 0.24675324675324675 0.23728813559322035 0.19444444444444445 0.24074074074074076 0.18461538461538465 0.2295081967213115 0.4390243902439024 0.2653061224489796 0.2 0.1509433962264151 0.09433962264150944 0.2978723404255319 0.1176470588235294 0.1643835616438356 0.15714285714285714 0.4893617021276596 0.08333333333333333 0.09433962264150944 0.19672131147540986 0.3090909090909091 0.3191489361702128 0.11666666666666667 0.75 0.1016949152542373 0.16393442622950818 0.21794871794871795 0.0576923076923077 0.4489795918367347 0.2222222222222222 0.21428571428571427 0.2077922077922078 0.05263157894736842 0.35714285714285715 0.1794871794871795 0.288135593220339 0.19642857142857145 0.08974358974358974 0.1506849315068493 0.19298245614035087 0.3636363636363637 0.2028985507246377 0.08641975308641975 0.17307692307692307 0.12790697674418605 0.2727272727272727 0.05263157894736842 0.1506849315068493 0.13636363636363635 0.1111111111111111 0.1864406779661017 0.1125 0.21818181818181814 0.18461538461538465 0.462962962962963 0.2 0.4893617021276596 0.13636363636363635 0.2222222222222222 0.328125 0.21052631578947367 0.30612244897959184 0.16 0.3409090909090909 0.288135593220339 0.06329113924050632 0.2380952380952381 0.3333333333333333 0.09836065573770493 0.1346153846153846 0.1948051948051948 0.16129032258064516 0.26229508196721313 0.2765957446808511 0.21428571428571427 0.28846153846153844 0.3018867924528302 0.21052631578947367 0.19298245614035087 0.08823529411764706 0.25 0.13513513513513514 0.32558139534883723 0.19444444444444445 0.2923076923076923 0.35 0.3043478260869565 0.08974358974358974 0.13513513513513514 0.4 0.15789473684210525 0.2307692307692308 0.2452830188679245 0.1590909090909091 0.1794871794871795 0.29310344827586204 0.14893617021276595 0.18421052631578946 0.19642857142857145 0.2542372881355932 0.5106382978723404 0.24074074074074076 0.14 0.26785714285714285 0.22448979591836732 0.1875 0.1875 0.3488372093023256 0.75 0.2363636363636364 0.13513513513513514 0.2558139534883721 0.22448979591836732 0.4358974358974359 0.17647058823529413 0.2325581395348837 0.07042253521126761 0.2363636363636364 0.3333333333333333 0.25 0.16981132075471694 0.08641975308641975 0.3617021276595745 0.25 0.16 0.04 0.0425531914893617 0.18181818181818185 0.4313725490196079 0.15476190476190474 0.09433962264150944 0.19607843137254904 0.11475409836065575 0.27450980392156865 0.2028985507246377 0.2328767123287671 0.038461538461538464 0.2352941176470588 0.2325581395348837 0.09230769230769233 0.2432432432432433 0.3793103448275862 0.3404255319148936 0.2954545454545455 0.13580246913580246 0.06578947368421052 0.19230769230769232 0.11904761904761905 0.3414634146341464 0.20833333333333331 0.1794871794871795 0.28846153846153844 0.22641509433962265 0.21052631578947367 0.1864406779661017 0.16049382716049382 0.06896551724137931 0.1951219512195122 0.18181818181818185 0.35714285714285715 0.14814814814814814 0.1914893617021277 0.1774193548387097 0.26666666666666666 0.1097560975609756 0.18840579710144928 0.1643835616438356 0.2054794520547945 0.1746031746031746 0.1 0.2222222222222222 0.20833333333333331 0.37777777777777777 0.16363636363636366 0.19672131147540986 0.2352941176470588 0.2432432432432433 0.1935483870967742 0.25925925925925924 0.1518987341772152 0.20833333333333331 0.18072289156626506 0.3809523809523809 0.14035087719298245 0.3333333333333333 0.1956521739130435 0.21311475409836064 0.2909090909090909 0.43478260869565216 0.2 0.16071428571428573 0.1 0.2307692307692308 0.3 0.20930232558139536 0.20634920634920634 0.2786885245901639 0.2641509433962264 0.2530120481927711 0.17857142857142858 0.33962264150943394 0.2 0.36538461538461536 0.3137254901960784 0.3333333333333333 0.20833333333333331 0.0625 0.24 0.4705882352941176 0.16216216216216214 0.1791044776119403 0.1518987341772152 0.31666666666666665 0.2307692307692308 0.4705882352941176 0.14285714285714285 0.15492957746478872 0.3191489361702128 0.5128205128205128 0.25 0.3 0.3114754098360656 0.1973684210526316 0.21739130434782608 0.1744186046511628 0.5 0.14084507042253522 0.14666666666666667 0.17721518987341772 0.2463768115942029 0.03773584905660377 0.3148148148148148 0.1527777777777778 0.14457831325301204 0.2857142857142857 0.0 0.38 0.2 0.19047619047619047 0.0 0.2037037037037037 0.37777777777777777 0.14634146341463414 0.17307692307692307 0.20689655172413796 0.35185185185185186 0.4705882352941176 0.26229508196721313 0.15151515151515152 0.21212121212121213 0.2916666666666667 0.3538461538461539 0.2535211267605634 0.14545454545454545 0.14634146341463414 0.2857142857142857 0.1864406779661017 0.3692307692307693
DB00165 0.0 0.0 0.0 0.0 0.0 0.0 0.0 0.0 0.0 0.3508771929824561 0.265625 0.3108108108108108 0.3709677419354839 0.3384615384615385 0.2978723404255319 0.17073170731707318 0.288135593220339 0.4716981132075472 0.3064516129032258 0.4444444444444444 0.15555555555555556 0.375 0.4901960784313725 0.375 0.3333333333333333 0.32608695652173914 0.2727272727272727 0.4375 0.22033898305084745 0.32608695652173914 0.490566037735849 0.37681159420289856 0.2602739726027397 0.24242424242424246 0.25675675675675674 0.4366197183098591 0.2808988764044944 0.3275862068965517 0.2826086956521739 0.24390243902439024 0.38333333333333336 0.42028985507246375 0.4523809523809524 0.3207547169811321 0.2435897435897436 0.3194444444444444 0.2857142857142857 0.18867924528301888 0.2 0.4615384615384616 0.3114754098360656 0.2575757575757576 0.2777777777777778 0.3380281690140845 0.3333333333333333 0.2967032967032967 0.4 0.29310344827586204 0.2456140350877193 0.25862068965517243 0.56 0.34545454545454546 0.2318840579710145 0.4444444444444444 0.34 0.40963855421686746 0.38333333333333336 0.3114754098360656 0.3181818181818182 0.2777777777777778 0.18867924528301888 0.2631578947368421 0.24675324675324675 0.2325581395348837 0.34375 0.3488372093023256 0.3548387096774194 0.4246575342465753 0.14285714285714285 0.3684210526315789 0.27419354838709675 0.3606557377049181 0.3387096774193548 0.09433962264150944 0.3968253968253968 0.2075471698113208 0.4528301886792453 0.3561643835616438 0.3787878787878788 0.3013698630136986 0.42105263157894735 0.3181818181818182 0.373134328358209 0.28846153846153844 0.3684210526315789 0.4383561643835616 0.18840579710144928 0.2923076923076923 0.3392857142857143 0.2962962962962963 0.4651162790697674 0.2857142857142857 0.382716049382716 0.4423076923076923 0.35294117647058826 0.4318181818181818 0.3728813559322034 0.4 0.25 0.42857142857142855 0.4090909090909091 0.36507936507936506 0.26666666666666666 0.2923076923076923 0.2 0.3076923076923077 0.3898305084745763 0.3064516129032258 0.2753623188405797 0.1875 0.2794117647058824 0.39130434782608703 0.2833333333333333 0.5555555555555556 0.20967741935483872 0.375 0.4545454545454545 0.4153846153846154 0.2153846153846154 0.21052631578947367 0.2435897435897436 0.2909090909090909 0.4716981132075472 0.4328358208955224 0.3709677419354839 0.4107142857142857 0.5517241379310345 0.4029850746268657 0.3818181818181817 0.4 0.27586206896551724 0.33783783783783783 0.2241379310344828 0.2553191489361702 0.20967741935483872 0.4 0.4444444444444444 0.38461538461538464 0.42105263157894735 0.2777777777777778 0.2857142857142857 0.2153846153846154 0.3333333333333333 0.4166666666666667 0.17105263157894735 0.2698412698412698 0.2463768115942029 0.2835820895522388 0.5686274509803921 0.3382352941176471 0.3380281690140845 0.4 0.16923076923076924 0.392156862745098 0.31666666666666665 0.3448275862068966 0.3392857142857143 0.36507936507936506 0.4677419354838709 0.18 0.21686746987951808 0.42372881355932196 0.2903225806451613 0.21875 0.3037974683544304 0.06666666666666668 0.42424242424242425 0.16981132075471694 0.4266666666666667 0.38461538461538464 0.38461538461538464 0.3333333333333333 0.3225806451612903 0.2272727272727273 0.2976190476190476 0.3448275862068966 0.43478260869565216 0.2280701754385965 0.3448275862068966 0.34523809523809523 0.30985915492957744 0.16363636363636366 0.3648648648648649 0.4383561643835616 0.4693877551020408 0.4545454545454545 0.3333333333333333 0.2542372881355932 0.2352941176470588 0.2452830188679245 0.3934426229508197 0.2531645569620253 0.2916666666666667 0.2575757575757576 0.3698630136986301 0.3384615384615385 0.2830188679245283 0.2711864406779661 0.5 0.22033898305084745 0.18181818181818185 0.2698412698412698 0.462962962962963 0.5098039215686274 0.2878787878787879 0.3709677419354839 0.27631578947368424 0.3076923076923077 0.2777777777777778 0.35135135135135137 0.2413793103448276 0.4029850746268657 0.4035087719298245 0.4603174603174603 0.3114754098360656 0.3636363636363637 0.4324324324324325 0.23214285714285715 0.4142857142857143 0.476923076923077 0.3898305084745763 0.05357142857142857 0.4375 0.3541666666666667 0.20408163265306126 0.22058823529411764 0.3389830508474576 0.4666666666666667 0.2207792207792208 0.2207792207792208 0.3230769230769231 0.2807017543859649 0.3478260869565217 0.25806451612903225 0.3064516129032258 0.3770491803278688 0.4137931034482759 0.43333333333333335 0.27631578947368424 0.3896103896103896 0.22857142857142854 0.4426229508196721 0.34177215189873417 0.2769230769230769 0.2325581395348837 0.4259259259259259 0.45 0.4912280701754386 0.2777777777777778 0.2857142857142857 0.36666666666666653 0.2033898305084746 0.21428571428571427 0.33962264150943394 0.28846153846153844 0.3380281690140845 0.3787878787878788 0.4035087719298245 0.19047619047619047 0.19298245614035087 0.4067796610169492 0.4909090909090909 0.2857142857142857 0.3508771929824561 0.18 0.3636363636363637 0.2857142857142857 0.4 0.18181818181818185 0.3064516129032258 0.4130434782608696 0.41818181818181815 0.37333333333333335 0.25 0.3958333333333333 0.3023255813953488 0.34375 0.4 0.3380281690140845 0.3623188405797101 0.41818181818181815 0.25 0.3880597014925373 0.20987654320987653 0.2456140350877193 0.3048780487804878 0.5 0.18421052631578946 0.4029850746268657 0.1111111111111111 0.2307692307692308 0.21212121212121213 0.2531645569620253 0.4 0.45 0.3283582089552239 0.3 0.4035087719298245 0.3953488372093023 0.2727272727272727 0.37681159420289856 0.1914893617021277 0.2982456140350877 0.27631578947368424 0.4680851063829787 0.3230769230769231 0.2207792207792208 0.41935483870967744 0.32142857142857145 0.2419354838709677 0.35294117647058826 0.3246753246753247 0.24242424242424246 0.29850746268656714 0.3461538461538461 0.3448275862068966 0.4807692307692308 0.3620689655172414 0.3620689655172414 0.4444444444444444 0.21739130434782608 0.3970588235294117 0.10638297872340426 0.3673469387755102 0.21518987341772156 0.4461538461538462 0.14285714285714285 0.3725490196078432 0.23376623376623376 0.492063492063492 0.3272727272727273 0.4594594594594595 0.2608695652173913 0.5510204081632653 0.32608695652173914 0.4 0.3709677419354839 0.3333333333333333 0.25 0.2222222222222222 0.3333333333333333 0.3965517241379311 0.5098039215686274 0.34 0.2857142857142857 0.4583333333333333 0.36507936507936506 0.36507936507936506 0.3877551020408163 0.18 0.41818181818181815 0.492063492063492 0.4222222222222222 0.2727272727272727 0.2 0.3725490196078432 0.3125 0.22857142857142854 0.3 0.2916666666666667 0.5517241379310345 0.2857142857142857 0.2564102564102564 0.5744680851063829 0.3114754098360656 0.4166666666666667 0.12727272727272726 0.1568627450980392 0.2564102564102564 0.2575757575757576 0.3048780487804878 0.21428571428571427 0.18333333333333326 0.2786885245901639 0.3392857142857143 0.25675675675675674 0.42857142857142855 0.2075471698113208 0.25862068965517243 0.2352941176470588 0.3064516129032258 0.14285714285714285 0.2195121951219512 0.3272727272727273 0.4888888888888889 0.2911392405063291 0.21333333333333332 0.2 0.35064935064935066 0.25 0.3857142857142857 0.1914893617021277 0.3050847457627119 0.3636363636363637 0.2727272727272727 0.3793103448275862 0.3 0.3090909090909091 0.42105263157894735 0.19230769230769232 0.15517241379310345 0.3333333333333333 0.4666666666666667 0.2388059701492537 0.3870967741935484 0.23170731707317074 0.22666666666666666 0.26666666666666666 0.42028985507246375 0.4482758620689655 0.18181818181818185 0.5535714285714286 0.4057971014492754 0.2631578947368421 0.2333333333333333 0.4310344827586207 0.25862068965517243 0.1914893617021277 0.4736842105263158 0.3 0.3466666666666667 0.4057971014492754 0.35 0.2830188679245283 0.3888888888888889 0.24242424242424246 0.22641509433962265 0.4482758620689655 0.5576923076923077 0.288135593220339 0.288135593220339 0.3636363636363637 0.04878048780487805 0.42857142857142855 0.4426229508196721 0.3103448275862069 0.5087719298245614 0.375 0.4 0.3734939759036144 0.3103448275862069 0.5 0.4642857142857143 0.44642857142857145 0.54 0.3 0.19298245614035087 0.25 0.3090909090909091 0.3492063492063492 0.37142857142857133 0.3088235294117647 0.3835616438356164 0.3692307692307693 0.38461538461538464 0.3709677419354839 0.4666666666666667 0.373134328358209 0.3584905660377358 0.4375 0.20967741935483872 0.3157894736842105 0.3636363636363637 0.3466666666666667 0.29411764705882354 0.35365853658536583 0.3492063492063492 0.2297297297297297 0.476923076923077 0.410958904109589 0.35211267605633795 0.18181818181818185 0.62 0.3478260869565217 0.3125 0.3898305084745763 0.0 0.490566037735849 0.3 0.25 0.0 0.3392857142857143 0.22033898305084745 0.3902439024390244 0.2456140350877193 0.3559322033898305 0.3606557377049181 0.3076923076923077 0.3809523809523809 0.17073170731707318 0.16279069767441862 0.3333333333333333 0.4411764705882353 0.1927710843373494 0.23728813559322035 0.26666666666666666 0.43859649122807015 0.42857142857142855 0.4558823529411765
DB00175 0.0 0.0 0.0 0.0 0.0 0.0 0.0 0.0 0.0 0.0 0.23943661971830985 0.35064935064935066 0.4375 0.6206896551724138 0.25925925925925924 0.12244897959183673 0.2028985507246377 0.4406779661016949 0.23943661971830985 0.3492063492063492 0.1346153846153846 0.4482758620689655 0.38333333333333336 0.5079365079365079 0.20833333333333331 0.3163265306122449 0.3125 0.43478260869565216 0.16176470588235295 0.3877551020408163 0.36507936507936506 0.25925925925925924 0.17857142857142858 0.2714285714285714 0.26582278481012656 0.3625 0.3595505617977528 0.8666666666666667 0.32 0.1978021978021978 0.6981132075471698 0.2804878048780488 0.3076923076923077 0.3050847457627119 0.20930232558139536 0.34210526315789475 0.1791044776119403 0.060606060606060615 0.1643835616438356 0.38333333333333336 0.3384615384615385 0.3235294117647059 0.2857142857142857 0.3076923076923077 0.1917808219178082 0.3020833333333333 0.3508771929824561 0.22388059701492535 0.21875 0.2698412698412698 0.4406779661016949 0.42105263157894735 0.3939393939393939 0.5740740740740741 0.34545454545454546 0.37777777777777777 0.34328358208955223 0.2794117647058824 0.32653061224489793 0.6170212765957447 0.4583333333333333 0.3376623376623377 0.2261904761904762 0.42857142857142855 0.30985915492957744 0.22641509433962265 0.3582089552238806 0.4230769230769231 0.26785714285714285 0.26865671641791045 0.72 0.34328358208955223 0.38461538461538464 0.06557377049180327 0.3970588235294117 0.2909090909090909 0.3125 0.5588235294117647 0.2727272727272727 0.34210526315789475 0.3855421686746988 0.16049382716049382 0.33783783783783783 0.1746031746031746 0.3934426229508197 0.4933333333333334 0.15584415584415584 0.2638888888888889 0.26153846153846155 0.6739130434782609 0.2727272727272727 0.3859649122807017 0.26595744680851063 0.6734693877551021 0.26666666666666666 0.2962962962962963 0.3538461538461539 0.42028985507246375 0.125 0.5285714285714286 0.2777777777777778 0.6909090909090909 0.34210526315789475 0.75 0.6222222222222222 0.16 0.2191780821917808 0.2054794520547945 0.28378378378378377 0.09210526315789473 0.18987341772151897 0.3037974683544304 0.2352941176470588 0.4444444444444444 0.6078431372549019 0.3035714285714285 0.4032258064516129 0.3026315789473684 0.1780821917808219 0.2459016393442623 0.19540229885057472 0.14705882352941174 0.3076923076923077 0.2261904761904762 0.7358490566037735 0.3870967741935484 0.4923076923076923 0.23170731707317074 0.4067796610169492 0.3508771929824561 0.3064516129032258 0.2619047619047619 0.21875 0.4666666666666667 0.3442622950819672 0.2833333333333333 0.328125 0.5490196078431373 0.4426229508196721 0.288135593220339 0.31666666666666665 0.1780821917808219 0.3194444444444444 0.35294117647058826 0.09090909090909093 0.16 0.2236842105263158 0.24 0.3809523809523809 0.38028169014084506 0.3076923076923077 0.4411764705882353 0.136986301369863 0.3 0.19444444444444445 0.2878787878787879 0.3225806451612903 0.453125 0.4 0.4666666666666667 0.17391304347826084 0.3382352941176471 0.22535211267605634 0.26865671641791045 0.26436781609195403 0.018518518518518517 0.32894736842105265 0.2777777777777778 0.4805194805194805 0.4264705882352941 0.1791044776119403 0.2153846153846154 0.6792452830188679 0.4523809523809524 0.3488372093023256 0.25 0.27710843373493976 0.08450704225352113 0.2318840579710145 0.25 0.3333333333333333 0.12698412698412698 0.3012048192771085 0.4933333333333334 0.3620689655172414 0.4032258064516129 0.3409090909090909 0.125 0.12345679012345677 0.3035714285714285 0.3939393939393939 0.2183908045977012 0.2777777777777778 0.6666666666666666 0.2891566265060241 0.6206896551724138 0.3392857142857143 0.09333333333333334 0.4426229508196721 0.7173913043478259 0.3709677419354839 0.29850746268656714 0.34375 0.42372881355932196 0.22666666666666666 0.7037037037037037 0.3333333333333333 0.21052631578947367 0.6888888888888889 0.16326530612244894 0.27419354838709675 0.23170731707317074 0.7755102040816326 0.2692307692307692 0.8125 0.3472222222222222 0.3950617283950617 0.35714285714285715 0.325 0.3037974683544304 0.4126984126984127 0.08196721311475409 0.6888888888888889 0.5 0.2692307692307692 0.25 0.3870967741935484 0.3035714285714285 0.2469135802469136 0.21686746987951808 0.3880597014925373 0.3793103448275862 0.2195121951219512 0.2318840579710145 0.31343283582089554 0.7169811320754716 0.2714285714285714 0.5 0.19540229885057472 0.4615384615384616 0.13414634146341464 0.37681159420289856 0.3614457831325301 0.38461538461538464 0.22448979591836732 0.3548387096774194 0.3428571428571429 0.4603174603174603 0.6521739130434783 0.29508196721311475 0.3088235294117647 0.13043478260869565 0.171875 0.4444444444444444 0.08823529411764706 0.24390243902439024 0.2727272727272727 0.7755102040816326 0.1388888888888889 0.171875 0.34328358208955223 0.4833333333333333 0.29508196721311475 0.21739130434782608 0.4666666666666667 0.3015873015873016 0.23943661971830985 0.4 0.043478260869565216 0.7254901960784313 0.3333333333333333 0.4406779661016949 0.375 0.203125 0.5416666666666666 0.4 0.4761904761904762 0.2727272727272727 0.2289156626506024 0.2625 0.328125 0.3508771929824561 0.3333333333333333 0.1797752808988764 0.2 0.26666666666666666 0.35185185185185186 0.0898876404494382 0.3116883116883117 0.09836065573770493 0.17567567567567569 0.17567567567567569 0.19101123595505615 0.3548387096774194 0.3623188405797101 0.6551724137931034 0.18 0.7755102040816326 0.34 0.26506024096385544 0.5692307692307692 0.16666666666666666 0.3965517241379311 0.2530120481927711 0.35714285714285715 0.3880597014925373 0.16091954022988506 0.4393939393939394 0.3728813559322034 0.2352941176470588 0.26666666666666666 0.34567901234567894 0.2361111111111111 0.3428571428571429 0.4528301886792453 0.2878787878787879 0.5272727272727272 0.3230769230769231 0.4576271186440678 0.328125 0.1518987341772152 0.4366197183098591 0.1568627450980392 0.7209302325581395 0.2261904761904762 0.4428571428571429 0.26785714285714285 0.3050847457627119 0.14606741573033707 0.2469135802469136 0.7391304347826086 0.3555555555555556 0.2037037037037037 0.456140350877193 0.2363636363636364 0.4 0.4375 0.26785714285714285 0.27380952380952384 0.18309859154929575 0.3582089552238806 0.7959183673469388 0.3125 0.32142857142857145 0.3333333333333333 0.375 0.273972602739726 0.273972602739726 0.5306122448979592 0.4666666666666667 0.3934426229508197 0.2469135802469136 0.2909090909090909 0.2833333333333333 0.5869565217391305 0.3050847457627119 0.3725490196078432 0.09411764705882353 0.3709677419354839 0.35294117647058826 0.4923076923076923 0.29508196721311475 0.16666666666666666 0.3728813559322034 0.2794117647058824 0.4423076923076923 0.078125 0.047619047619047616 0.3023255813953488 0.7307692307692307 0.2954545454545455 0.15384615384615385 0.21875 0.26865671641791045 0.3442622950819672 0.2195121951219512 0.4078947368421053 0.09230769230769233 0.25 0.3461538461538461 0.31343283582089554 0.2352941176470588 0.2954545454545455 0.4035087719298245 0.32142857142857145 0.2247191011235955 0.18072289156626506 0.16176470588235295 0.2333333333333333 0.2631578947368421 0.38666666666666666 0.2857142857142857 0.5272727272727272 0.26153846153846155 0.21153846153846154 0.4032258064516129 0.2906976744186047 0.11267605633802814 0.3690476190476191 0.23214285714285715 0.21311475409836064 0.16176470588235295 0.35185185185185186 0.2676056338028169 0.4307692307692308 0.2 0.2531645569620253 0.25925925925925924 0.3125 0.3382352941176471 0.18032786885245905 0.4029850746268657 0.35064935064935066 0.29508196721311475 0.20895522388059698 0.40625 0.2307692307692308 0.14545454545454545 0.3188405797101449 0.2878787878787879 0.27058823529411763 0.35064935064935066 0.2921348314606741 0.29310344827586204 0.28125 0.2714285714285714 0.16129032258064516 0.4918032786885246 0.4915254237288136 0.6938775510204082 0.2575757575757576 0.24242424242424246 0.06382978723404255 0.4264705882352941 0.4393939393939394 0.31521739130434784 0.32857142857142857 0.4615384615384616 0.3333333333333333 0.4404761904761905 0.296875 0.4426229508196721 0.4126984126984127 0.4426229508196721 0.42372881355932196 0.4655172413793103 0.08695652173913042 0.18604651162790695 0.3389830508474576 0.7358490566037735 0.2875 0.2307692307692308 0.3012048192771085 0.5238095238095238 0.3472222222222222 0.7358490566037735 0.35185185185185186 0.3026315789473684 0.7173913043478259 0.52 0.2058823529411765 0.22388059701492535 0.515625 0.2272727272727273 0.23728813559322035 0.2826086956521739 0.7037037037037037 0.18072289156626506 0.2875 0.3253012048192771 0.37333333333333335 0.09090909090909093 0.3333333333333333 0.25 0.28735632183908044 0.4126984126984127 0.0 0.36507936507936506 0.18 0.21818181818181814 0.0 0.43859649122807015 0.58 0.4222222222222222 0.21875 0.24285714285714285 0.5 0.7037037037037037 0.4029850746268657 0.12244897959183673 0.16326530612244894 0.234375 0.5671641791044776 0.24705882352941175 0.2903225806451613 0.39130434782608703 0.4126984126984127 0.3384615384615385 0.5588235294117647
